-2.2428632,-1.5351574,-0.6187748,-0.53991824,0.6800567,-1.2091422,-1.5848756,-0.13932033,0.82040066,6.7692766,1.116665,-0.30624726,0.23709112,-0.6895292,0.55623853,-0.6397823,-0.69865346,-0.75821996,1.5485365,-5.365485,-0.1751792,1.4675745,0.11955076,-0.20070212,0.8711773,1.9167719,-0.2303136,1.3938887,0.8840625,0.18773098,0.17726085,0.53384936,1.1946939,1.0313145,-3.6184533,0.28284878,-0.96752936,-0.79782295,-2.5338137,-2.5283968,4.664546,1.4142101,0.22670767,-1.754507,0.5820638,-1.124714,0.7241126,0.8564691,-0.7654769,1.3639281,0.4219859,0.7868577,1.594475,-2.20836,0.53143746,-0.28840265,-0.67399126,-0.720574,-1.0146986,-0.7737777,3.4582722,1.7136815,0.67725533,1.5024503,0.47643912,2.0671058,-0.790761,-2.6305025,-1.5952879,2.441951,-1.6048331,-0.29387096,-2.2232099,-2.3318238,-0.9923873,0.6567612,2.703937,-0.7079731,-4.9561048,2.0577886,2.200777,2.8392458,0.937857,0.9991502,-1.2312064,0.09941131,0.1285299,-0.29379788,1.658256,-1.8451648,0.2990186,3.0603814,0.1482462,-0.38917375,-1.1852143,2.4193544,1.7883108,3.0742564,1.0640687,1.5318863,-2.4538999,0.2480367,0.15291727,1.4048077,2.822291,-0.16492261,-0.085267164,2.0533888,-1.1737305,0.369108,1.2603977,-0.4935011,-2.196104,-1.2760924,0.86496973,-0.1238364,0.11602589,-1.8046329,-0.21688598,0.48117274,-0.6705598,0.40204528,0.6386218,4.3436484,-0.41830918,-1.4057196,1.7151514,0.6634323,-0.957399,-0.48373312,1.3645316,0.24696852,0.76655585,1.294161,-0.5111776,-0.102418885,1.9829521,0.5064612,3.4364462,0.24508709,0.59107274,0.23061043,-1.7127326,0.16006377,1.6815264,0.06409922,0.5999459,-2.5340102,0.05079074,1.901206,-1.8726676,-1.1774288,1.6637633,-1.7353009,0.23080187,-0.74614525,-1.0898604,-0.24627739,-0.6011876,0.052542876,0.7049039,0.6745891,-0.8137488,0.9977878,2.7390068,-0.81729454,-0.10880672,-0.49747038,-0.5746854,3.4423985,0.3108903,0.0018487062,0.69442236,-2.0880508,1.7101578,2.96061,1.7863374,-0.31894603,-0.0363193,-1.4277612,1.0779071,-1.290941,1.9991192,0.5155882,0.29568154,3.0742354,-2.1713684,0.2476976,-0.8222063,1.1780756,-1.0243737,1.051507,-0.27093664,-0.35066757,-0.7428061,0.20573469,1.9326316,0.28612807,-1.0431517,0.66505146,-0.33213177,4.3145247,-0.9497782,0.07767822,0.39422417,1.1823093,0.6553995,-0.40144727,-0.4980671,0.55142576,1.3774378,0.47847795,-0.0772691,0.22301893,0.68049884,1.5000693,-0.8677511,-0.8686699,-0.69633985,-0.56650734,0.40438095,1.4699016,1.4066749,0.63024384,0.5988766,-0.23244232,0.3046086,-0.896173,-0.20929927,-0.08950083,0.45421594,-0.31273833,0.5058284,0.2536643,0.9148517,0.56392443,-0.12461229,0.5110693,-0.5442349,-1.1003627,1.3489692,0.9693963,-0.20616528,-0.38440856,0.027058292,-0.6397436,0.86580443,1.309707,-2.1023355,0.6795734,-0.84496486,-1.9197925,1.2024046,0.8572887,0.72348833,0.39353237,-0.93577373,0.5837659,1.4506027,0.96383166,-0.049428973,-0.6313912,1.6968077,0.9291217,-0.36518583,-0.90241915,-0.43235162,0.18064567,-0.27046952,0.66114956,0.877845,1.1121904,-0.7014986,-2.4640074,-1.1346009,-0.10459988,-0.43198246,-0.14426388,1.086758,0.18364076,-1.231377,0.74251133,0.32616076,0.4848084,0.54178065,-0.45445836,-0.785264,1.022884,0.12842727,0.47817823,0.45757458,-0.825269,0.5584686,0.09022947,0.751618,0.057018604,0.8168692,0.79135376,-0.6259656,-0.28967303,0.25119004,-0.34709838,-0.4329526,-1.1078662,1.131299,-0.090619385,1.0450344,0.89563143,0.7505719,0.020108739,0.96691847,-0.84741247,-0.7067389,-0.60461193,1.0659957,1.277944,-1.7134886,0.72885466,0.40520564,-0.16926432,1.0561144,0.84661174,0.63766646,0.18204333,-0.8222888,0.36428177,0.69622636,0.5302488,-0.02951717,0.1848807,0.427891,0.710329,-0.53468674,0.5880133,-0.25708795,0.51432395,1.0963253,0.258021,0.6214534,0.40403387,-0.25796124,0.347323,0.17647447,-0.41438955,-0.77334243,-0.91894686,-0.81431437,-0.36236697,-0.8986184,0.51813537,-0.40833762,0.22287442,0.31169486,-0.31936008,-0.15084893,0.630476,0.6201121,-0.05086154,0.8385278,-0.6482777,0.5660715,0.3112162,-0.5237128,0.5173499,0.28338912,0.062197275,0.24855655,-0.47864386,-1.2182107,0.6912589,0.034493197,0.9516321,0.09150859,0.6323944,-0.7653218,-0.27362826,-0.28857097,0.9390704,0.93254477,0.73403984,-0.3847192,-0.3113908,-0.3729978,0.07669607,0.097291745,0.093375,-0.949796,0.07018819,-0.51100075,0.12185469
-2.0981114,0.023217224,-1.3218913,-2.1635299,-0.433037,-1.3991396,-0.9692127,0.92762595,0.09249963,-0.4770059,-1.3273677,-0.9024631,-1.2409998,-0.83982986,-0.9469172,-0.70552266,-0.7498744,-3.9761355,1.1743747,-0.607413,-1.2034945,0.43406993,-0.9703781,-1.1842898,-1.3392209,0.5692049,-1.2945938,-0.5891381,-4.0171666,0.880299,-0.98592424,-1.572847,1.2556223,-2.1175725,-0.2468218,0.43099922,-1.4127029,-2.6474478,-2.0032458,0.6638042,-1.2496921,-0.84407806,0.37472567,-2.586349,-2.9318993,-0.8661624,-1.2827173,-1.5689397,-0.43441346,2.0772429,-1.7073451,0.73403734,-1.6037757,0.6462383,-0.3310004,-1.0344266,-1.2930738,0.8150794,0.48971385,0.36057502,-2.5728712,-2.5840282,-1.9775501,-1.0952338,-1.7431931,-2.4926648,-2.8216221,-3.8683393,-3.013518,-1.805562,-0.8328389,-0.15196088,-6.8756304,-0.1230934,0.54564494,-1.04417,-1.3001058,0.59281486,4.1761665,-3.2515023,1.7652396,2.889134,0.050145026,-1.0965291,-0.757035,-2.0050914,0.4874512,-0.14824733,-0.6583229,0.11740936,1.0125204,-3.8875973,3.2754555,-1.0413402,0.9089159,-0.5170461,0.68191594,1.7867562,-0.9550457,-0.38925228,-0.6449493,1.289744,1.4178283,-1.3092854,-4.6613235,0.6907531,4.6984086,1.3537375,-0.94187313,1.8050333,-0.82154375,-1.0707186,-6.8647766,-0.8775222,-0.52561235,-2.3720784,0.83666587,2.483466,1.6549537,0.37805653,-0.7185263,1.1307501,0.25949994,0.96180695,-5.41829,2.6300046,0.3149262,-0.2588698,0.2880348,1.1606207,3.494961,1.1562328,-0.062123597,-5.2860866,2.0400517,3.205264,-0.31021953,-2.0358922,3.4735856,0.06629017,-1.5917742,1.3628697,0.109014295,-3.3115587,4.3085012,-0.20308895,-0.13931036,0.2856184,2.8725407,-1.4522938,3.5901759,-0.053615097,-0.96078485,1.981219,0.07653013,-1.1198688,-0.7306795,2.6665866,1.7551216,5.281422,-5.0970063,-1.0164081,-1.7705685,-0.3732876,-4.5795884,0.9781469,2.0783498,-0.44061866,-2.1430905,2.1958168,-1.5724639,-0.17243004,-1.8238713,1.2566444,0.8505645,4.397999,-0.10631933,2.8115764,0.8534902,-1.552061,-0.4427683,-0.9700788,0.7194805,-0.89502317,0.40463614,-5.9098625,0.95313203,0.8621191,-2.4445243,0.9771954,-0.078901656,-0.1646377,1.6086636,1.0288715,0.3690779,-1.2571038,0.9090467,0.44871366,-0.14945611,-1.1388599,3.6154668,-0.07345725,0.29928505,1.8509289,1.0204425,-0.478978,1.1067868,-0.19391519,1.1134071,0.16600563,-0.03581876,1.0630941,-1.7344117,0.22138563,-2.3002927,2.1199121,2.2136226,-0.0442212,2.1161506,-0.3566405,-1.3473406,0.6465907,-1.006677,1.5133029,-0.9331403,-2.651039,0.650103,1.8821276,-0.142957,2.2610087,0.64292955,-1.2971363,2.7605405,0.07739652,-0.113358155,-1.5592269,1.1233947,-0.40395322,0.048057757,-0.12011004,0.1816733,-0.2674388,1.3317659,-0.943582,-0.6930693,1.0369211,0.23080198,2.1324623,3.403437,-0.026396442,0.21284272,0.5225389,-0.20138808,2.4307466,2.0114546,0.16284999,0.40838382,-0.72926015,1.1783538,0.49968287,0.8532471,-1.1119902,1.6338936,1.3337831,-2.6368194,0.83172655,0.76879555,0.24835974,0.5369815,-0.05581081,-0.0660235,-0.13848604,-0.24823469,0.6424557,0.28696948,1.0448468,0.007124899,0.7034839,1.7254027,0.37507677,0.46178362,0.70298505,0.5170143,-0.75215113,1.0536938,-0.07609203,0.27711228,-0.18461633,1.7751206,1.1617053,-2.0763443,0.7328979,1.3668243,1.0099882,-1.0801272,-0.36683562,0.17050992,0.5185624,-0.75122535,-1.2532849,-0.13753328,1.3477175,0.38726848,-0.3192025,2.3014328,-0.17125617,-0.97579414,1.0338035,0.37322405,-0.50899726,-0.032139987,-0.67474174,0.20760109,-4.8894953E-4,1.262902,0.9537747,-1.0863554,-0.52795583,0.011626184,0.094202824,1.1862973,-0.90944993,0.2706037,0.5587881,0.4770729,0.59617704,-1.0051024,-0.20752385,-0.37334263,-0.2909821,0.78576046,0.20519148,0.12350267,0.24766931,0.21906772,-0.6758046,0.92562306,0.2169348,-0.59893614,-0.3182924,-0.4357872,0.7093844,-0.58912295,-0.959782,0.5614852,0.9134905,0.87686104,-0.45334953,0.7768897,0.14499766,0.6631792,-0.19599989,0.05544841,-0.7629661,-0.4661568,-0.5133617,0.94981116,-1.2121968,-0.6764997,-0.6780856,-0.6265695,0.20629136,0.7367802,0.09250904,-0.6753307,-0.13654257,0.25718832,-0.118669145,-0.055243365,-0.2530177,-0.5883658,0.10730193,-0.3553803,0.6980399,-0.8423073,0.6741167,0.38901502,-0.7294783,-0.9184879,0.7267705,0.5057839,0.8064669,0.060328234,0.88329405,0.26379257,-0.9323202,-0.9547785,-0.43534672,1.1503663,-0.700449
-0.691707,3.1706138,2.6490684,-0.8412562,3.5428696,2.5015547,-0.6681598,2.4955924,-2.3656518,-3.6418467,-2.5926082,0.10180783,0.17215665,-1.6551205,0.24913384,1.9178835,1.745434,-0.9052192,-0.3384131,0.03696388,-1.1204652,-0.2852141,2.838102,0.82951504,0.5283321,-1.9502356,2.6605086,-0.14498414,-0.5004669,2.7362468,0.6585365,0.46989682,-0.11071218,-5.0246806,1.3202516,-0.7795603,-1.1412971,2.9383845,2.1232848,-3.085038,0.8845842,-0.4767578,1.6167979,2.287024,1.4666923,-0.308721,1.3654711,-0.22111833,0.39530236,-0.17609659,-3.5175664,0.76767385,1.1843454,1.7812932,-1.1134696,1.0967795,-1.2844845,1.9310663,-0.7018914,0.8672113,0.35870615,2.292063,-1.1529112,0.7837633,1.0274165,1.469199,2.224089,0.8797993,0.09825285,-1.3193977,-0.91079587,3.226341,0.55407137,-0.20086329,4.0298786,0.91996276,-3.8434405,1.529308,2.5877504,2.0931933,-3.6330473,0.310735,1.4944835,-0.37119004,-0.32727453,0.3984477,2.0918498,0.45769423,0.58430666,0.7117545,0.45655355,1.0677662,-1.105789,-0.45561153,1.5504416,-1.0037836,-5.4571447,0.8934106,-0.5825042,2.104676,0.118905015,1.1074717,1.0699886,1.5325714,1.0184724,1.4358512,3.5769365,1.1183999,-5.43955,2.755705,1.7418791,-1.0996352,-1.9745729,0.3491443,-1.1798449,1.7333039,2.7290258,-1.4694586,-2.1625373,-1.6942259,-0.23694523,-2.1871426,0.69822043,-2.5424044,-1.77033,-2.0812194,0.33765402,-0.6314254,0.91820174,-0.19373205,1.0561832,1.9877523,0.6871705,5.832816,-3.1933517,0.12919375,0.50104713,0.020890737,2.2335527,-0.864194,0.12430799,-1.0326304,0.7850002,2.8024657,0.07823088,1.8191602,-0.63962764,3.0172026,-0.7792721,-3.551404,-0.010740347,1.1693935,2.4024,2.4205344,1.2466018,0.6524846,1.4611422,1.358062,2.9532874,3.9871817,2.7666664,-0.34265965,2.4282267,0.7230735,-6.9602103,-0.6200215,1.4382256,0.26098168,0.7589182,-0.27393886,0.4597005,0.6803038,-0.79097384,0.39583048,-1.0916125,3.9099598,-0.5063917,-1.4224846,1.0828285,0.41965958,1.5777631,-1.2072628,-1.1712581,1.8338814,2.1280138,-0.32972056,1.5890511,0.433051,0.756588,0.14677818,-1.7270058,0.9960982,0.7968469,1.5218974,-0.5542929,-6.601506,1.2398256,-0.15046431,0.55591404,0.55423933,-0.397291,-0.02869793,-2.3329506,0.9176188,0.20435789,0.7387775,0.6216292,0.4912902,2.331813,-0.58311164,-0.039619792,2.6040642,-0.76666296,-0.4937094,-2.8770308,-0.5185999,-0.48146918,-0.42219454,0.13239697,0.79034543,0.67557025,0.70325434,-0.8640053,1.0860603,0.27376464,-1.7278583,0.29405677,2.3176668,-0.8820476,-0.17959446,0.34062478,-0.39748114,1.8833398,-0.3333519,-0.76742506,0.083495185,1.8567349,1.1514877,-0.84424245,-0.53470874,2.235676,-0.22891751,2.5921166,-0.038965877,0.604042,0.6257515,1.4755888,1.361846,0.76874757,1.014636,-0.05305905,-0.48409206,0.7354585,-1.0883439,-1.3357666,2.642814,-0.18344602,0.7149653,1.7037586,-0.80406904,-0.099836245,-0.56156904,0.96871984,2.536442,0.7571881,-0.8667721,-0.14753538,0.08697819,0.6456334,-0.5516338,0.055337094,0.5832848,0.015828906,0.28883657,1.2456528,0.9665967,-0.71627074,-0.030398995,1.6615747,1.0841405,-0.35236695,0.7116671,0.36382994,-0.8712518,1.1071002,-0.51497144,0.37634674,0.18311906,-0.24320225,1.5774243,0.9224468,0.1717259,0.16642135,-0.10475636,-0.23589471,-0.93112135,0.62192875,0.988251,0.5877142,1.0784082,0.8185181,0.6164186,0.23570396,-0.5559308,0.5308611,-0.8642069,-0.67659247,-0.47856885,-0.84780043,0.19106705,1.0181171,-0.95884323,-0.20096934,0.3439228,-0.4000183,1.1101835,0.72183824,-0.6108929,1.1636498,0.4936505,1.2136592,0.5966099,0.44282392,-0.12853944,0.9024236,0.72771615,-1.2636981,-0.76443183,0.5725842,-0.94097364,1.141393,-1.3207251,-1.4957898,-0.07087434,0.36423233,0.39223924,1.2233077,0.8703687,1.206042,0.89950067,0.9551709,0.80381227,-1.177367,0.85804003,0.7454738,0.93141943,-0.75376,0.7669536,0.09338372,0.16320293,0.10187624,0.18776146,0.6790986,-0.2977099,0.13618252,-0.21219675,0.4863964,0.6393559,0.10036957,-0.12135001,0.9171625,-0.88970584,0.68730956,0.34907874,-0.46632168,0.7185592,-0.018784432,0.27515554,-0.39096254,-0.2335613,0.9769412,0.19878662,0.26812047,-0.9686598,0.027246794,0.061987966,-0.7839172,0.09190583,0.2028105,-0.39709795,0.30902433,-0.8532029,0.35452104,-0.10822268,0.7630434,-0.55411845,0.52564377,0.877899,0.3232167,-0.037245497
-0.7916469,-0.36844727,-1.0187825,-0.8577173,-2.518938,-1.3103144,-0.27202216,0.3481597,0.11400336,-1.2165328,0.60128826,-2.5734289,-0.5946097,-0.51843613,0.35030565,-4.4318924,-1.3968717,-1.3972331,-0.025406951,-0.8851828,1.3543209,-2.9317594,-0.09171533,0.5103289,-0.58845353,-0.29218733,0.07539769,-1.3465989,-1.3155298,-1.3503407,-1.360621,-1.0489382,-0.85252434,1.1840286,0.6293383,0.7690361,-0.25381613,-3.491758,-1.165567,-4.449229,-0.35589454,-3.8927374,-2.3074937,-2.4156702,-0.72783315,-0.20814711,0.6816281,-3.1947432,1.1332814,-2.7096264,0.8162664,0.6516702,0.14175174,-0.98935556,-1.9262234,-1.9085957,-1.1161125,-2.2991266,-0.97469187,0.2734306,-1.3717195,-1.5299832,-1.7315238,-3.2019174,-2.4162436,-3.3157794,-0.59685117,-1.6698768,-3.1809397,-1.7161118,-1.7726295,-1.7714964,0.9201065,-4.466885,-0.11784569,-2.0603175,-0.065988496,-3.2406125,2.8015327,-0.4856952,-3.0308814,-2.4412522,-0.1959714,-0.6908381,-1.1101274,0.03510674,3.5353606,-0.28409764,1.2711362,-1.8543569,-0.72885424,1.1018406,2.9821296,0.021722076,-0.030713122,-1.3408954,-2.9887226,-1.0026306,3.7219665,-2.7402153,-0.98265433,-2.3589537,-0.40632585,-0.2664579,-2.244657,-2.12465,-3.8062465,-3.100299,-3.89151,-2.0078225,-0.93751806,-3.0443914,-0.5965747,-1.2379249,0.86678976,-5.3147655,-1.4344561,-3.7627976,-3.4679387,-2.6849368,-2.3701458,-2.6144404,-2.0173495,-2.0876694,-3.5086188,-2.427667,-0.9395417,-3.2526145,-0.9535485,-2.5350363,0.3898136,0.5362675,-2.8051975,-0.65961444,-0.38370326,0.23456807,-0.99861234,-0.09976155,-4.0123005,-0.33256793,0.76892215,-1.3970574,0.4839955,-3.6020992,1.4940261,-1.485158,-1.4289466,1.8678111,0.24530566,-2.4291437,3.4081514,-1.2425299,0.89678115,0.38001382,-0.5697141,-1.5627533,3.8035443,0.25101995,-0.30652472,-1.2914193,1.8136181,-1.0880438,-0.26610056,0.077271186,3.802882,-0.6341213,0.38241306,-3.798661,-3.355713,0.10809765,2.9803283,-0.487112,0.7689848,0.025495283,-3.958128,-0.4315773,5.490736,0.023770573,-0.3071867,-1.2991587,-1.1516677,0.9057256,0.31085828,-1.3737888,-1.1681455,-1.6355178,-1.3937279,0.47484913,2.3686168,0.7025081,3.078901,0.9038919,-1.1556659,-4.434804,-1.1947632,0.2328023,0.6788924,-2.7256863,-0.7463774,-0.16386423,-1.9804002,-0.061089385,0.9431619,-1.107915,-1.0048667,-2.0154712,-1.4521623,-1.0406213,-2.0489917,-0.47989786,-1.5212588,-1.5438509,-2.6835659,0.032724395,-0.92572284,-0.5745617,-0.106863864,0.9186301,-1.3802937,-1.8744651,-1.6254989,-2.9704115,0.94793755,-0.48091,-0.020461991,0.5333818,-2.2261086,-1.5009713,3.9559472,-0.95731866,0.3972202,0.7448413,-2.344423,-0.2375065,-0.96053034,-1.176803,-0.5984967,-1.1259279,-2.3288527,1.3685184,0.034439977,-0.047762625,-0.10153248,0.8131843,0.1481209,-0.7399825,-1.5582901,-3.8475254,-0.7500775,0.10159454,-0.2069784,-0.9461484,-3.7150536,-1.7101641,5.205176,-1.6624082,-0.10989006,-0.61252177,-1.0261897,0.45865956,-0.23572415,0.6901616,-1.2172077,-0.58481646,-1.9807246,0.44279814,-0.0090856245,0.2276183,-0.33650988,-0.44682083,0.5536718,-0.77910495,-0.2853677,-2.4292645,0.38456762,-0.44198012,-0.024216231,-0.6650296,-3.7434077,-1.5179881,2.4999638,0.20386608,0.32765594,0.6469422,-1.4805468,0.0019905926,-0.78380513,0.6670316,-0.31688732,-0.88326037,-0.29910335,-0.8346148,-0.1908433,-0.8521982,0.100905746,0.4006111,-0.93938845,-1.2861539,-0.34931484,-0.67184174,0.48478907,-1.2807797,-0.49217227,-1.2834009,-1.1421124,-0.72116065,0.59061134,-0.0030830102,0.3447428,0.14826576,-0.44081578,-0.83356047,0.06617855,0.6438008,-1.1030984,0.04797873,-0.62611294,-0.3327961,-0.27650455,-0.24852571,-0.7420531,-0.35752714,-0.9438702,-1.481494,0.9214043,0.087587155,0.32426572,-0.6107573,0.006524545,-0.93145525,-0.96790385,0.01780529,0.12756392,-0.7015768,-0.22141767,-0.932864,-0.98383766,0.715152,0.47028345,0.7225852,0.9025574,-0.8064646,-0.31025124,0.57677,0.62539434,-0.48813275,0.49271762,-0.075477704,-0.13971506,-0.0153391855,0.9598361,-0.972253,-0.9345936,0.6474362,0.005135757,0.40748423,-1.0441296,-0.22409867,0.37871838,-0.09923974,-0.58083,-0.8850029,-0.37396204,-0.39115182,0.5848254,-0.3308084,-0.6137509,-0.75784445,-0.73132604,0.7543947,0.14053865,-0.21964468,0.3699961,-0.5042505,0.5932521,-0.18917312,-0.9007584,0.6283041,-0.43948707,-0.47961825,-0.15607017,0.1298495,0.24167061,0.91876674,0.884856,0.15224345,0.5412918,-0.49236184,0.11708575,0.6306598
-1.2989258,1.4365401,1.0054431,-2.1286564,-0.64584595,-0.6834439,0.2866969,-0.98437244,1.9107972,0.12500277,-1.5857773,0.5063589,-0.06560968,-0.25460598,-0.1976214,0.6878097,2.2141924,0.6396851,-0.7216707,0.3801454,-2.2517693,0.97306085,-0.5841204,0.57051045,-2.8300078,-0.49874032,0.036812205,-1.7479649,-0.9331287,2.2497127,-0.14796078,-1.819584,0.43905994,1.4402611,-0.19555432,-0.8965293,-0.6255825,-2.1477878,0.6101567,-0.19787923,3.222793,-0.2532053,-0.3837874,-1.1763196,-0.5818532,0.16254686,-2.255962,1.7913864,-0.7011015,-3.7666638,1.9264203,-0.19447048,-1.8096081,-1.9708799,1.4232483,0.030132027,-0.13619073,1.1244026,0.314552,1.0369871,-4.877313,-3.0023527,-1.0336835,1.7492317,-0.7438156,-0.078317404,-2.552048,-1.6334623,-0.75327855,-0.8166264,1.5299826,0.029342437,-1.6709386,-1.290966,-0.8170775,-1.5937711,2.4115322,1.0010512,2.7719762,-0.2998801,-1.5823673,0.094659515,-6.6666927,-1.7171061,-0.5694798,-1.2622964,1.8523,0.5679025,0.013912875,0.120261095,0.220609,-0.057977956,-0.5860854,-1.0421326,0.8426082,3.0122156,-3.293053,2.0692434,-0.637732,0.87820786,0.4700389,-1.5453253,4.619013,-0.6853717,-0.18948324,1.2888418,0.8268325,0.7053388,0.6751676,1.9110711,1.1081907,3.3696783,-3.9434597,1.517801,-1.3621653,1.5075269,0.12423787,1.7006093,-0.64007026,-0.16789323,-0.60944384,-2.8076334,2.042806,0.76977676,2.5636466,1.3009126,-0.30652863,-0.42406204,0.45599696,1.0499593,2.4845288,-1.014058,-3.1103292,2.449215,4.3994164,-0.43654194,1.6653129,0.779973,0.7241963,0.23205343,-1.5851631,-1.4328265,0.84595853,1.4306818,1.398953,-0.11827248,1.1265211,-0.1469593,-0.53133094,-0.82149583,-2.7453692,-0.7215691,-1.0831944,-0.055712298,0.048168886,0.08272674,0.96366763,-0.1000239,1.9022173,-2.8136206,0.90970784,-0.4249511,0.011900641,2.6835036,0.21261187,0.5456561,-1.4085101,0.70533043,-1.2337437,-1.4419242,-0.41789857,-0.9802694,0.22943616,0.87334996,-1.0208747,-2.2988908,0.65036136,-0.2953455,-0.9045067,1.0430875,-0.18800414,-0.54854435,-1.9108126,0.018302416,-3.0984156,-0.2321586,2.117114,-1.1888673,-0.4084649,0.017522775,1.9188235,-0.41900626,-0.26414227,-0.1023502,-1.8412035,-0.7086325,-1.121052,-1.9034197,-0.06771571,0.44514385,1.6814169,0.21099968,-0.1793702,-0.48803604,-0.56395936,-0.31357667,0.2596895,-0.5473334,1.9100527,0.2886207,-1.8592947,0.670322,6.8699475E-4,-0.27502355,-0.94799477,0.6690222,0.17494346,-0.57721746,-0.30002493,-0.24454154,0.793068,1.1102521,1.7693815,0.7280158,-0.09126497,-1.1487198,-0.16249119,0.039318837,0.3330762,-3.7228458,0.54406285,-0.37159166,-2.3319137,-1.0129393,-0.46888053,-0.7838491,-1.1817527,-4.4107127,0.47343788,1.1331284,0.18417855,-1.4467402,-0.5381539,-0.20509842,0.008798544,-0.9031079,-1.095531,0.910432,-0.3189621,-1.1614034,0.7328191,0.29974237,-0.4920594,-0.6249538,1.6870484,-2.5007005,-0.89408666,0.97679496,-1.3484751,0.34295464,0.6631902,0.62322295,-0.57186735,-2.8905306,1.027782,0.56885564,-2.6277149,-0.79762983,0.4632634,-0.97862923,-0.050710734,-1.6371981,1.111984,0.58357656,0.49409968,0.003378497,-0.28742373,0.7510695,-2.1605215,0.8638,1.4120142,-2.2856374,-0.31040898,-0.15466033,-1.7070552,0.49071005,-0.90005213,-0.25186983,-1.3796362,-3.4306104,0.7602412,-0.795034,-1.4988652,-0.35891345,-0.2202426,-0.06663136,0.14671566,-1.1954527,0.572577,-0.46778664,-0.99721336,-1.2451625,0.86530286,1.0103675,-0.31745133,1.2079393,0.63645935,0.10669598,-0.6909833,-0.055811755,-2.0770986,0.13394442,-0.21726474,-0.92977643,0.4278179,-0.97011167,-0.97742665,-0.21248852,0.29834455,-0.65272826,-0.08440789,0.11568604,-0.83411556,-0.7445308,0.23169212,-1.9932476,-0.76482964,0.31622797,0.045353528,0.40234566,-0.05946535,1.0564641,0.18149623,-0.21338151,-0.8444015,-0.99734724,-0.8388658,-0.4541825,-0.14487544,-0.97050774,-0.5667,0.5341006,1.3615588,0.54379237,-0.81597096,0.41762707,0.50986695,-0.724871,-0.85786456,-0.644025,0.98968405,-0.5750125,0.46845186,0.16435423,-0.8753224,0.5496264,-0.4941315,-0.20186073,-0.5791715,-0.6844504,-0.28888363,-0.8118564,-0.19201551,-0.4800813,-0.77380073,-0.5613894,0.21897216,-0.42071196,0.8665418,0.82447314,-0.7884124,-0.526326,0.70175344,0.2799232,-0.6911323,-0.11231798,0.18353754,0.20727544,-0.7056353,0.6483177,-0.28172457,0.12235965,-0.9620102,0.7466678,-0.4149982,-0.22662492,-0.46823502,-0.522618,0.24050778,-0.880622
-1.6963307,-1.8096932,-3.1700196,-1.4257499,-3.088485,-2.602605,-0.766227,-0.0906214,-0.24446176,0.3552031,-0.17408368,-1.3273504,-1.5378464,-1.7353055,-1.9287983,-2.002968,-0.6946503,-2.5237021,-0.9961665,-1.6674143,0.55600244,-5.68151,-1.9440002,2.123949,-0.9948773,0.15516715,-0.055378575,-1.2814776,-2.6738775,-1.1369997,-0.6799284,-0.9771307,-1.0583544,0.82408935,0.58511186,0.11184579,1.4062092,-5.385751,-2.1628408,-3.5870166,-0.6375193,-2.9090009,-0.96257573,-5.539105,-1.9621375,-1.9126148,-0.2550187,-4.4802804,-0.22857286,-3.1130288,0.12568107,0.9644511,-0.40073785,-2.675792,-2.4399285,-2.3779068,-0.81487906,-2.665556,-2.6530223,-2.8143485,-0.16541828,-2.23842,2.4186566,-4.68963,-4.212458,-1.2012298,-0.3829449,-3.017134,-1.9722441,-6.1388273,-2.1209507,-1.5481695,-0.6717639,-5.0677195,-1.8293813,-0.1861619,-2.6968637,-2.099035,-1.3580322,0.192382,-3.342394,-2.262947,-5.723757,-0.87387055,0.102707274,-0.60692394,-1.84125,0.5721433,-0.67020017,-2.4756637,-1.5044876,-0.88629216,-0.4320917,-3.5908625,-3.9133964,-2.9018276,-0.8864591,-3.1625497,-0.11583711,-6.2272067,-1.6659521,0.5265196,-0.47600022,-0.58237785,2.8139277,0.15576245,-0.75976545,-1.1072589,0.22148082,0.6369976,1.5093323,3.6431406,1.1295056,0.9154344,0.3902311,-0.67705727,-0.27575985,-2.2078736,0.4531052,-2.1446738,-0.25169116,0.20399873,-0.43611616,-3.11842,5.2303433,-3.615758,1.1921675,-0.23578064,0.98538417,-0.04894438,2.4528117,-0.21023457,-2.2146232,-0.4410227,0.58863956,-1.5536915,-0.47040296,4.1810417,4.7391124,1.2626038,4.771837,-3.8445928,-1.5865982,1.6022749,1.8142309,-1.438277,-1.0854938,-2.87057,-3.069066,-3.8227687,4.470705,-0.8787762,0.39470872,-1.9753889,-0.5175998,-0.009079288,0.5079657,-0.88282496,-3.305516,-1.4679205,-1.4854478,-1.4826373,0.6770841,4.279341,2.7520437,1.6927072,0.42598143,-3.9990404,-2.9313128,0.40006715,0.13838322,-2.114126,-0.47525883,-3.4847252,-5.443177,-3.0871036,1.201605,-0.8278959,-0.31232986,-1.8652452,-2.5303802,-1.9332924,1.2265338,0.06562862,-1.7060462,-0.82671183,-1.2112752,-1.0403394,0.32150397,-0.7166691,0.7627714,0.4404484,0.7211062,-3.6235645,-1.4129171,-1.063856,-0.4017462,-1.8730019,-2.1505737,-1.3319652,-3.2450497,-4.533701,1.7168002,-1.6881466,-0.3350918,-1.7241356,1.4385931,-1.0659521,1.1467589,-0.4614126,-0.24833182,-0.4515521,-2.1213915,-0.66262263,2.507603,2.8111317,0.59502256,0.56772995,0.6148538,-2.7409537,-0.5037718,-0.16439162,1.5409974,-1.8612274,0.24434377,-1.2880136,-4.1872325,-2.3955667,4.766416,-1.343138,0.3426437,-0.6486887,0.7704524,-1.1745043,1.2670788,-0.4298003,-1.7872952,0.36709422,-2.489518,0.5301401,1.7102522,2.4393265,1.8949566,-0.16747068,-0.84582853,-0.91501284,-1.7366247,-0.36712953,1.422474,-0.27317226,-0.24258158,0.085500516,-3.2271476,-2.275566,0.94174683,-0.18257934,-0.8358018,-0.9072377,-0.2799874,-0.44519663,1.1277797,0.80064857,-0.24067421,0.4885778,-1.7791991,0.20319805,1.0597333,1.4102553,0.40864477,-0.8968988,1.5027418,-0.8328381,-0.5694723,-0.39822483,-1.4889073,-0.55134624,-0.0320922,-1.5616292,-2.7004218,-0.3325278,3.4182622,-0.7942931,-0.65692633,-0.6089773,-0.19986534,-0.6052972,1.2297981,1.0288926,0.11455161,-0.25559035,-0.27299148,0.014692767,0.29209816,0.8786101,0.6023225,0.51775044,0.40338966,-0.15526664,-0.22314236,-0.5274881,-0.46263525,-0.8923694,0.08414937,-0.7748321,-1.2427709,0.34864718,-0.23633528,0.97565395,-0.16975138,-0.36264154,-0.18381162,-0.5444325,0.6873075,0.28821602,0.13093081,-0.25557208,-1.1268811,0.5241589,0.076896876,-0.3259405,0.18489712,-0.29814422,-0.85371494,-0.8142817,-0.67738014,-0.74697685,-1.3603512,-0.95492435,-0.7482568,-0.28683525,0.11597103,0.089500375,-0.24545579,0.34879795,-0.032762714,-0.45049542,-1.0857965,-0.79265165,-0.3899968,0.9914863,-0.17107986,0.3193455,-0.3342385,-0.9571671,-0.879679,-0.5363458,0.35728735,-0.61432934,-0.5501028,-1.2060752,0.45691195,-0.024168516,-0.8568141,0.6060944,-0.26212162,-0.1782951,0.27216864,-0.6713818,0.9979671,0.5060672,-0.57095194,0.5663179,-0.31487143,0.8919101,-0.95449865,-0.5100208,0.7028839,-0.3708082,0.6445767,0.5561338,-0.1989327,0.42035776,-0.58174324,0.8409889,-0.5994859,-0.010490217,-0.30855846,-0.049630545,0.9815451,0.047019485,-0.92050296,0.70418835,0.097140156,-0.8818848,-0.6881191,0.10333195,-0.35396224,-0.9037979,-0.6842649,0.1109093
3.1622956,1.6165205,2.7535822,-0.54198194,5.44005,8.137486,-1.1077204,0.40724817,1.3105117,0.24852192,-4.418938,1.7594792,4.647571,2.6526544,0.3014847,3.2626488,-1.0768981,-0.10384513,-4.693305,-2.936268,0.90476274,0.5958312,0.0066037094,-1.5277388,-4.4821935,-2.2648833,7.22431,2.7701578,1.3240567,-0.3521202,3.4161532,-1.2880666,-1.250761,-2.5900335,-1.7860003,1.0763848,-0.68844455,-1.4079573,-0.36648774,-2.4362204,5.5972786,-0.25649393,0.06301283,3.975561,2.6060328,-1.0489029,-4.7396436,-0.20767868,1.6606092,0.749358,0.776739,0.41243878,-0.43760985,0.77543736,-0.9096645,0.9063486,-0.14234008,0.73663604,1.2155315,-0.285791,3.2428231,0.74817526,0.17042303,1.0898104,2.0392337,2.7165523,2.4768813,-1.9085351,0.17539537,1.1533281,0.60256916,1.3063194,-3.5826669,2.0137703,-0.56451386,1.4035968,-1.3440512,-0.68034875,-0.038291913,1.8701698,0.67778134,-0.25716096,-0.44243357,1.5376409,3.970309,1.2498903,-1.8915594,-0.58308285,2.9832914,1.3691207,1.3305107,-0.8309117,-0.40114877,-0.49569592,0.9846789,-0.039168924,1.1392355,-0.18999484,0.19707997,3.078269,-1.4591172,-1.515159,0.3078155,-1.1787115,-0.5525994,1.6681554,2.874146,1.1028057,-0.9931281,-0.17569771,1.7775881,-2.571159,0.28494638,-1.0971575,1.4169749,-0.5198848,1.3842832,1.153171,-3.3150322,2.6441545,1.6543841,-0.6808872,1.0067624,2.1232417,-0.58655655,0.39121893,-1.703913,-0.20555133,0.018664638,1.0437304,-0.6455742,-0.19142234,0.92206705,0.036915362,1.0210986,-0.16513497,-2.9604,-0.8411018,1.0703648,-0.31023154,-1.0603116,1.2547464,-0.5222452,0.7476652,0.21308315,-0.022368023,-0.9637729,-0.22135532,0.41958672,0.7031095,1.7159412,-1.1899179,-0.39223397,-0.3636818,1.7872955,-1.0693425,-1.5069577,-0.07151417,0.6681395,0.544249,-1.330936,-0.6263001,-0.6259462,-1.0904716,2.5637243,0.67632383,1.524479,-0.86744803,1.7519832,1.245245,-0.0812025,-0.3847522,0.3917301,-2.4232275,-1.6094095,-0.043442283,-0.8876879,0.42918295,0.81046915,1.2482393,-0.24372067,0.49702588,-0.20297438,0.25941744,-0.024126597,0.508488,1.2136269,-0.004336646,-1.8688781,-0.30324382,-0.3902676,0.055387978,-1.0088655,-0.041012302,-1.0356373,-0.4591257,-0.46827722,0.071098104,0.25111035,1.1324112,0.37497732,0.31096873,0.052793745,-0.40885338,-0.7177639,0.024700142,0.14249665,-0.12792371,-0.9267577,-0.0116792945,0.107346736,-0.42839557,-1.6828961,-0.26659226,0.16296878,-0.31400743,0.9350337,-0.07098098,-0.64620453,0.6351001,0.30879083,0.02238224,1.7095606,0.7341466,0.41782114,-0.6545128,-1.0744315,-0.85847175,0.88096887,-1.2981399,-0.6976485,1.315716,0.24622919,0.025333924,-0.2987838,0.46658304,-0.84834963,-0.59831774,1.1062889,-0.27836162,0.09775953,0.6144644,0.66442823,0.94745064,0.05894841,-0.36025938,1.2614036,-1.0450084,0.22712323,0.8645207,0.54499775,1.7622534,0.05967295,1.4596056,0.14496338,-0.6992923,0.62191707,0.7649263,0.18731979,0.0509192,-1.278771,0.50109273,-1.4496199,-1.0131947,-0.48892415,-0.32160747,-0.9281206,-0.7322042,-0.51611376,-0.72528476,-0.5799135,-0.5139877,-0.018142737,-1.6904492,0.70321244,-0.82837194,0.89071584,-0.6175101,0.82922107,-0.1686166,0.30466083,-0.9329037,-0.31779078,-0.57210135,-1.083148,0.26615387,0.99454534,-0.9011627,-0.39694375,-0.62909544,-0.5237392,-0.18023945,-0.9686023,-0.1610629,0.78988415,-0.2898906,0.054761082,0.50211865,-0.959087,-0.513082,-2.1865597,-0.113593586,0.06688189,0.5175053,-0.28360096,-0.76608706,-0.12033254,0.7266193,-0.83416736,-0.81140643,-0.4226718,-0.05006135,0.31120202,-0.41863915,0.5212074,-0.74849486,-0.16531377,0.10227367,-0.5286487,0.35137165,-1.2538626,-0.4992869,0.32130787,-1.1569523,-0.9205988,-1.3131251,0.57656807,-0.20950705,-0.49478155,-0.8308514,0.11731346,0.35449415,-0.12014763,-0.5415137,-0.7270822,-0.19616541,-1.2396537,-0.29045326,0.48385307,-0.47027138,-1.0575331,0.24676056,0.19678588,-0.10833208,-0.26628324,0.42090747,-0.6160569,0.6513453,-0.35453156,-0.39425173,-0.77297914,-0.5750625,-0.036974836,-0.9816559,-0.49094132,0.79675776,0.77803445,0.37056592,0.11567923,0.2405582,0.0055121547,0.15609366,-0.94779986,0.12333185,-0.45546448,-0.9225822,0.20981357,-0.36991224,0.21427287,0.85567915,-0.78557426,0.76557934,-0.55575633,0.61758137,0.5489265,0.018070767,0.24197088,0.52826434,-0.77677405,-0.6811105,-0.1324517,0.56588745,-1.1666155,0.83657247,0.9101702,0.52639216,-0.3411546,0.85035175,-0.41103014,0.7436253
1.7845888,-1.2673017,-0.99374604,-0.3343811,-0.40203047,-1.767577,-1.2103156,1.321595,-3.2426174,-5.7175813,2.5930562,-1.2329763,-1.5124091,-1.8659024,0.036584977,-0.24346335,-0.017792353,-1.3169757,-0.3149175,-1.1735443,1.1507199,-1.0687181,-0.3351134,0.28765088,1.1052755,1.8075805,2.152305,-1.1424624,0.34525007,0.59038985,2.3245852,-0.48021346,-2.2613773,-3.626387,-2.933711,0.012799345,-0.14616707,-2.3283336,1.0328882,-0.7588421,1.3565851,-0.9398012,0.35518852,0.7741894,-2.5907605,-1.184353,-1.9552914,-1.2827145,-0.19483575,-0.24367814,1.379568,0.08640624,0.16466017,-2.7513192,1.2425872,-1.7778467,-0.10472993,-1.5289246,-1.8156062,-2.4844134,-0.2204542,-0.2416967,-1.993039,-0.9339791,-2.2949045,1.1940161,2.0314338,-1.4061334,0.3461663,-3.0566905,1.3785881,-0.99016017,-5.237803,-2.343435,-0.8891748,-0.85611576,-0.045861863,-1.5842893,-3.1561031,-2.4034517,0.8788591,-0.07181748,2.9668427,2.0050533,-3.6252868,-3.0566597,-0.25359556,-1.2437375,2.270035,-0.67060614,-3.381701,-2.1565607,-4.5355043,-0.21293423,-0.4326614,2.0350027,1.5276421,-0.32089472,-4.346702,1.255093,0.67059946,0.119568385,-3.189608,-0.7159473,-1.1847546,0.73460966,-1.1391671,-0.13800184,-0.64122415,-0.91625214,0.31297228,1.7440395,2.0602498,-0.7184808,-0.28364128,0.90991896,-0.42419046,-0.86005145,1.9824886,-0.20526588,-1.1365628,-1.9726704,0.5167978,-1.7979372,-1.2805083,1.0678033,0.7349707,0.50533,-4.5675335,0.32610494,-3.0512621,0.31720772,1.0358734,-1.0167195,-0.043178342,-0.18548517,1.1497935,0.33858773,-2.5410604,-0.7988049,2.3603137,0.15668944,-0.3266624,-1.6584016,-4.0178094,-0.14481294,-0.5670846,-0.89488405,0.7868862,1.1632034,-2.1225893,-0.13560596,-0.718838,0.14011455,1.965666,0.31877202,-0.47263083,1.7513808,-1.3905772,-1.4088567,1.9556079,0.35480964,-1.3688251,0.69935083,1.2265154,1.6791725,1.8968229,-0.93628436,1.3759844,1.3613871,2.3772075,0.045247808,-2.139397,-1.0235616,-0.5670558,0.6164912,-0.013808368,-0.29019916,-0.590075,-1.3855686,-1.1153744,-2.0345848,-0.032206394,0.5430633,0.033357345,0.30474535,0.8661954,-1.5427887,1.8844823,-2.320795,0.45462888,0.15141086,0.5608718,0.9958238,-0.07016879,1.2710593,-0.35398173,-0.3049623,-1.179806,-0.07035238,-0.065007865,-1.6095842,-1.2391592,0.7611042,-0.63376844,-0.6209595,1.5803568,-0.026747614,0.24189955,1.1144111,0.26280543,1.0170624,3.0756385,-0.2508801,-0.23854467,-0.37871572,-0.8906315,-0.21538825,1.0024484,0.82075036,-0.9782266,0.41824427,-1.7145833,-0.69799703,-1.0145198,0.19482988,0.70972866,-1.265736,0.5040533,1.5853997,0.98082495,-0.27089435,0.6173265,-1.0343511,0.8344006,-0.4685001,-0.4788288,1.0702256,-2.4972756,-1.2022016,0.8862254,0.13631834,0.78368014,-0.31852353,0.63710827,2.0688791,1.2064104,0.65664154,-1.4451272,0.242622,-1.0751748,-0.5320162,0.92043215,0.5095182,0.484391,-0.70669436,-0.35322928,-0.53978384,1.2138013,0.36803415,-0.3632303,0.47139877,0.23956716,1.5948492,1.5074605,0.3278921,0.8936303,-0.07585783,-0.72215146,0.5383574,0.7055065,-0.6759826,0.3030509,0.5375827,-1.2693863,-0.44973087,0.12487515,-1.6191766,-0.09099067,1.1244694,0.49971473,1.3495615,0.57542837,-0.73636055,0.0588927,1.218201,-0.4872208,0.66044515,0.4083882,0.7226201,0.5009443,0.34521466,0.22192116,-0.9486833,1.6530653,-0.7018204,0.041510664,0.071168415,-0.39216632,0.24420701,0.12859185,0.574276,-0.663866,0.5403484,0.17561774,0.03952117,-0.7825628,1.0081152,-0.22107701,0.17718627,1.1063751,0.1673513,-0.6784793,-0.8014264,-0.19542852,-0.32901958,0.6499641,0.5127437,-6.5984513E-4,0.36641905,0.21896876,-0.9936986,-0.83186734,0.69195265,-0.56535697,0.41715917,-0.25047445,0.8321449,-0.9262195,-1.0401466,-0.3173047,-0.75829965,1.1138922,0.92900425,0.15966226,0.36566767,0.7590752,0.2991258,0.3772854,0.5921791,-0.10396174,0.2988144,-1.1005801,-0.82897204,-0.62268955,0.11325624,-0.8929528,-0.47154164,0.18660292,0.5665048,-0.18911235,-0.7637307,0.31303057,0.92767984,-0.32701853,0.901261,-0.19116615,0.22267255,-0.35653135,-0.10962946,0.58185214,-0.09858859,-0.79198754,0.9316556,-0.9031086,0.6946559,0.4181548,0.11878242,-0.87887776,0.9324002,0.1467294,-0.9738185,-0.28233832,0.011134067,0.65925455,-0.35218227,-0.05437386,0.8801032,-0.84414303,0.34488449,-0.69717854,-0.45860907,-0.37523377,0.27957597,0.4460914,-0.79621017,-0.3812548,0.89610106,-0.32300922,0.02127173
-3.2600796,-2.469153,-0.48679596,1.0389524,-3.2588832,-0.77375966,-1.3543236,-2.0676033,-0.486626,-2.0866907,-1.8427397,1.8646348,-1.2634251,1.5581685,-2.1235056,-1.1988585,-3.516523,-5.251775,2.1883793,1.3180301,-3.1982117,-1.3337263,-2.1782644,2.5578864,0.16930753,2.8911273,1.7568554,-0.48493993,-0.84473115,-1.4707512,-6.793424,-0.7757332,-0.70526147,-1.388652,3.1044185,0.41242987,0.1435237,2.437086,-2.6830988,-2.105222,-3.4506736,-2.5470405,0.7285601,-2.1887453,-1.3752946,-0.049419437,1.0561553,-1.4455249,-0.66986114,-0.2505266,-2.006809,-1.0073096,1.8560492,-2.7963033,-2.1332896,-0.7361376,3.965512,-1.0458943,-1.819047,2.8439686,1.222448,-1.5822128,-0.16861467,-0.014341902,-2.330814,-1.6081272,0.6344769,-4.933063,0.43258032,-0.82045895,-2.5730438,-2.0063665,0.48488185,-0.7623824,1.2278668,2.300608,-2.2724075,0.7207155,-0.9326337,0.6634802,0.75440925,-1.1105794,-4.020702,2.0203154,-1.9026202,0.4243225,-2.0672612,2.6671042,3.837522,-2.0903656,-2.7962105,-2.613886,-0.20824823,2.2957172,-0.34180677,-4.6910143,-0.55849415,-0.7695304,-0.2608918,-0.41795385,2.6791613,1.4588841,1.79061,0.38185167,1.3954298,1.3730316,-0.3813785,-0.7364364,-1.5152065,2.528105,0.8022044,0.86209476,0.23755878,1.966856,-0.20336117,-2.6532738,0.463178,0.08358534,-1.2791167,1.034279,-0.25060096,-0.70125496,-1.215501,-2.9665408,2.4288738,0.8257972,0.32445222,2.6999347,2.0402937,1.2166125,1.9584532,-0.6766842,-0.60755295,-1.1522152,-0.3162678,-0.4506387,-1.7133247,2.6012385,0.19818752,0.8450039,-3.110629,-0.4846145,-2.458869,-1.6929287,1.3974091,-1.946784,0.054195203,-5.109452,-1.2570752,-2.9102912,1.2443799,-0.52717745,-0.46323207,0.6130054,-0.85485125,0.12155201,-0.6503279,-0.10913,-0.32767406,-2.436488,-2.394638,-1.1668582,1.5840676,1.6537786,-0.12212892,-0.96843815,-0.8817062,-1.3112218,-1.6661599,-1.5959367,0.31857896,-1.1403663,0.4768592,-2.6894646,-1.5258015,0.1121643,3.299399,-0.99686676,-1.3333153,-0.8125761,0.6041486,0.22746187,-1.0495192,-0.50377154,0.30084702,1.3519031,-3.7330873,-0.39445668,1.7356647,2.1285353,-2.8313763,0.1326823,-0.3207342,0.018708104,-0.35417104,2.0834236,2.3744688,-0.9862253,0.40265122,-0.75989205,-1.7790606,-3.3543437,1.3888893,0.029576454,-0.29395905,-0.23568872,-0.18909869,-0.79057956,1.2511178,-0.65270674,0.84605706,0.4064205,0.98979974,0.6117034,0.91365093,1.0400194,-0.42733464,-0.35454613,-0.6458263,-0.7307486,0.7653884,1.6519029,1.0451596,0.023176495,0.7538135,-1.3220134,0.23398207,0.10216565,0.10165636,0.381112,-0.7808916,0.59873384,-0.62159634,0.20742807,-0.67350125,-0.5889278,0.5669018,-0.7754058,0.76989067,-0.52704597,1.6678208,-0.25857475,1.8580496,-0.231596,-1.0479622,-0.42869547,-0.21407333,0.7780146,-0.2906517,0.07331725,0.26390204,-0.22983932,0.86560124,-0.95451015,1.197789,-0.14915127,-0.36940405,-0.08606308,-0.75911504,-0.6170058,-0.7426284,-0.5599259,-0.8222932,-1.0023953,0.5628772,0.8644706,-1.2726306,-0.36831346,0.85527897,0.05812577,-0.3584781,-0.6996552,-0.35702315,0.42812312,-0.21609128,0.79977095,1.0585732,-0.09358359,0.46925855,0.5901039,-1.117435,-0.9145733,0.70681196,-0.912847,-0.7813606,0.12551388,-0.66863304,-0.542533,-0.8979727,0.3107514,-0.29521534,0.8048068,0.5453808,0.74332273,-0.7187695,0.7862729,0.3991608,0.21941124,0.36869204,-0.5124712,1.1539364,-1.2109706,-0.6950433,-0.5081716,-0.4259445,0.16852395,0.3631011,-0.23510607,0.022554342,0.62824714,-0.69662213,0.010256814,0.16731378,0.38543022,0.73216325,0.68254143,0.3148281,-0.80696076,0.18654868,-0.20121886,-0.89779097,0.4823307,-0.17086326,-0.76212716,-0.56512994,-0.66839826,0.37031436,0.45488948,-0.5162335,0.2198427,0.21883714,0.17302494,-0.17003416,0.33816364,0.0347226,-0.33760387,0.73469055,-0.8342275,-0.55394316,0.22460318,0.7714793,-1.0511245,-0.810075,-0.67172706,-0.17563333,0.39131606,0.72070146,0.5674239,0.07966306,-0.27120057,0.1929585,0.09826683,-0.32849997,0.112133056,-0.7018361,0.42844048,-0.73505306,-0.7173708,-0.12605523,-0.30673945,0.09692257,0.99268097,-0.104216464,0.48987797,0.39373824,-0.97477573,-0.2838421,-0.5253333,0.09843039,0.42682892,0.66114557,0.10611315,0.83568877,-0.5181139,-0.4642458,-0.2407706,-0.25188047,-0.53819394,-0.6700362,-0.8719953,0.78747576,-0.9418273,-0.22844538,-0.053931605,-0.69495,-0.18311432,-0.41032586,-0.5915136,-0.97437555,-0.17292136
-0.8057903,3.557886,2.8497374,2.5959969,2.382629,1.7800676,-0.20159948,-0.4637505,-0.11389634,-1.0909522,0.033725448,1.5713857,-1.5154622,-0.4715537,-0.03942881,0.017575383,-2.4038258,3.7799406,0.887134,0.30016583,-1.1679293,1.3660237,-2.635046,2.1653168,-1.3830845,1.6698993,0.6378088,1.5362729,0.4849294,-0.29856113,0.02273383,0.47144827,1.4121598,5.6720977,-0.03994223,0.23643209,-0.052970424,1.3576456,-4.7099843,0.42453137,1.1648339,-1.4736366,1.4635295,2.2864351,0.50690717,1.4765657,-2.6706567,-0.13660634,0.26822475,0.9832526,0.5759895,0.65898144,2.9663644,0.6825773,0.5458973,1.4221374,0.5363561,0.040823553,1.1449786,1.1230704,3.162495,-0.6419281,0.45939168,0.018835217,1.6804754,0.6471906,-0.72155607,1.0944047,-0.95750266,-0.7553876,-0.9399473,3.1631231,-1.2068104,3.760258,-0.5149149,-0.018266577,-0.53002256,0.5722408,-1.702881,2.2675016,-0.5885999,2.0987706,-2.6627524,-0.97852594,3.1214461,0.6483592,-3.2013416,1.6940639,-0.2913305,1.4930105,-1.6487157,3.864488,-2.6412532,2.373308,2.499724,2.0489078,1.3482662,3.8623614,-4.294664,0.7670582,1.586311,-1.2783062,1.503647,1.010775,7.44303,-0.6012934,3.1697216,-0.68627644,4.927416,1.7639742,0.5210471,-0.82160807,-2.7108247,-0.044575408,-0.24063545,1.2044934,-0.3784173,0.84228843,6.094293,1.3742315,0.45495453,-1.7933421,0.7483486,-1.1907426,1.2536138,-0.12349999,1.07687,1.1761365,1.3006082,-0.1258836,-0.3330452,1.9206715,1.5772314,-1.7478071,0.18589385,2.2826383,1.8716037,1.2008731,1.2194086,0.13568248,1.581179,-1.8888769,1.5124896,1.5567572,-0.9567574,1.5902193,-0.9583718,-2.876867,-0.55813617,-0.12957539,0.85546505,-0.89887375,-0.20876542,-1.595819,3.1227808,0.30608872,0.038418077,1.9319496,0.69493365,1.5143385,0.16285378,-0.22349173,3.11823,1.318396,-2.281993,1.1703829,-0.64049906,0.7910972,0.3014417,-0.73553085,1.827098,0.7891506,0.77485025,0.36137253,-0.54913706,1.5123748,2.6120849,1.4419742,0.5934911,0.13547869,3.1304245,0.27057955,-2.1149235,2.3446684,1.3275727,1.0865766,2.4132118,-0.6919355,0.2863583,0.124846816,-1.7718437,0.7339994,0.4239363,1.0362662,0.5700924,1.4126043,-1.9326538,-0.7509717,-0.06776253,1.4067563,0.5848156,2.2804582,-0.7276541,2.3740392,0.7069362,-0.15915324,2.158432,-0.09051235,1.8911507,2.1479492,2.5166752,0.7370481,-0.652298,1.1224438,2.5358355,0.074918106,-0.13956456,0.05391082,0.6241346,1.4336382,1.0755403,1.1054801,-0.740112,0.7629793,0.72248465,-1.0131762,1.0463792,3.3238206,2.6908903,0.7284869,0.9943024,-0.1512798,2.7262073,0.4932964,2.09708,-0.07986868,1.4627583,2.039391,0.7156872,-1.1368581,0.2587565,-0.39263177,-0.8491498,0.7042798,0.021016713,2.1652641,-1.1965171,-0.3711047,-1.3858645,0.10636443,-0.372142,-0.039465822,1.4683709,1.0298803,-0.35111976,0.9012855,-0.7274379,-0.5459565,1.7649827,-0.30708256,2.3743467,0.7034927,1.0615731,1.6931621,-2.3353348,0.7771345,1.4010104,0.9590341,0.8177416,-0.28959745,0.1689041,0.79392856,0.40269732,-1.0131391,1.7599713,0.8853823,-0.6343963,-0.29937774,1.7781826,0.6361326,-1.7711521,0.88734025,-0.92225266,-0.7878676,2.0056906,0.6948028,-0.24345076,-0.35264632,0.8570462,1.5355616,-1.9343958,-0.2842924,1.6765605,0.37761316,1.7519989,-0.53478,-0.71826947,-0.65127635,-0.99227667,-0.1460137,1.1182008,-0.30042103,-0.60806715,-1.0085942,-0.27235767,0.29940823,-0.49858016,0.22522895,-0.17520896,-0.002190634,0.71887004,0.6266549,0.8811184,-0.81973404,0.51063615,0.18925497,-0.24227132,0.8383185,0.0815144,0.56946164,1.0117583,0.33839965,-0.8795407,-0.62120014,-0.8870664,0.44584492,0.81869274,-0.61163163,-0.66444993,-0.8686398,1.2171266,-0.43701702,0.17522572,-0.14874302,-0.15493652,-0.96944207,0.97377074,-0.68468964,0.9359061,-0.6968144,0.4227638,0.20439546,0.6456761,-0.95720416,0.4946154,0.3405711,-0.68962747,0.669463,0.17168081,0.2866169,0.12106303,0.283559,0.6180516,-0.3353682,-0.3641222,-0.5555965,0.25916088,-0.7945905,-0.7588007,-0.0834771,-0.40527755,-0.8172981,0.84635985,-0.35234421,-0.54139465,0.93093014,0.72827655,0.44633713,0.51888186,-0.4756041,-0.5135154,-0.9141549,0.51171726,0.33623555,-0.8171331,-0.5439515,-0.14327931,0.28354913,0.116290934,0.6999033,0.21138935,-0.40400115,-0.27000326,0.45059654,-0.5459696,0.07281646,0.584893,0.3273654,0.3693176,-0.5017912
-0.18845253,1.515699,0.1332544,-0.7191968,0.17343387,0.46671566,-0.11255603,-0.7539,1.3771551,3.1768422,-4.805201,0.11682008,1.1584928,-0.25447252,2.8991063,1.2587897,2.9979825,1.6002305,1.930108,0.42680392,1.5094806,2.0716734,-2.2415795,0.65710133,-0.86518776,1.3540134,1.7472205,0.3444254,1.9727131,1.2769105,2.3198812,0.72396266,-0.117863715,-2.2828615,-4.840614,-0.93073344,0.22522856,1.0544559,1.0045512,1.7093486,-1.4945157,1.5556343,1.045217,1.3258017,0.6640062,1.9736315,0.5771042,1.5605986,0.434501,2.4927287,0.4091341,0.5761237,0.7046019,3.779888,1.504517,-0.26855025,0.6170091,0.14479934,1.4351708,-0.038666498,-2.4021227,-1.241113,1.5832989,0.14575002,1.776081,-4.823368,-3.2359314,2.780651,-1.0916036,0.79164344,-1.102209,3.896892,1.3265327,1.3624023,0.7510263,-2.8655145,6.2774677,-2.4601455,-2.675862,0.47283316,0.5401962,2.4835227,-5.4915648,2.1377232,-1.1270632,0.2888267,3.2233133,0.019420007,2.9455094,2.0290415,1.9435952,-4.132063,-5.781708,4.415412,1.4177812,2.2985847,0.09387464,2.3613849,0.35629034,3.4006464,0.83179253,0.48455802,1.1574415,-0.1394973,-4.1226597,-0.05648391,1.9067721,1.6138598,-2.7375288,0.8150004,2.863841,-1.5185448,-2.3243604,-1.197901,1.6075599,0.43756977,1.7303988,1.7196529,-2.0990617,0.45893577,0.78562504,3.1942313,0.89635146,2.795229,-2.4804232,1.4745015,-0.78997874,0.37361303,0.74943346,1.1537147,-0.92103004,-0.8935362,0.9023562,1.1205436,0.014301875,1.7138652,-0.9779399,1.5860672,1.3221431,-0.8248522,0.6639651,0.39493936,-2.3030186,0.5308843,0.7862179,0.10566857,0.25335374,2.5201058,0.02945988,3.2527628,-0.4744708,-0.6498367,0.7911786,1.1477364,-1.0466307,0.87635714,0.984331,-0.8700016,1.2494497,0.65851814,0.22338903,0.8182872,-1.4613321,-0.21660781,1.0317359,0.8281946,0.019248435,-0.37893304,0.5880583,2.573399,0.75016093,-0.28579476,0.85268366,0.29032072,0.07792371,1.7799652,0.066385776,1.2908589,0.865333,0.19691405,0.29706064,1.3735121,-0.52257884,1.023803,0.59123456,0.21804003,0.91803324,-0.17381154,-1.4354132,-0.3341719,-0.012365551,-1.2232485,1.3226882,2.29082,0.1135824,-0.5550544,0.09207962,-0.40373623,-0.80263984,-0.5545192,1.5663087,1.7984087,-1.5731226,0.41642264,0.12789325,0.2502988,-0.57495874,-0.42690825,-0.7186253,0.9783348,0.77360064,0.07502689,1.375742,0.5702252,0.39915794,-0.60690194,-0.31339985,-0.6016197,-0.1847201,1.3996964,0.98188156,0.33040425,-0.59789896,1.0345182,-0.6055522,2.0241191,1.5078948,1.0365617,-1.0390555,0.61013275,-0.7645348,-0.24139659,1.039953,-0.59358025,-0.20405595,0.61290276,1.1108024,0.85764784,0.9382178,0.7716632,0.4694281,-0.39753318,0.35288036,-0.13114838,0.86665344,0.15143369,0.9147844,0.46003628,-0.3391048,0.05788371,-0.4744383,1.5452707,0.841898,1.17565,0.6036455,1.0085629,0.18643387,0.37914854,-0.24470785,0.87010443,-1.4192104,-0.19944756,-0.44943732,0.19341806,1.1227225,0.2981062,-0.2558392,-0.50647587,0.43071428,-0.7738349,0.3061994,0.31879866,-0.6039773,-0.9414187,-0.5558428,-0.69020313,0.36365417,0.15252395,2.05591,0.7427233,-0.73316634,-0.07293619,0.86644924,0.61265826,-0.31137913,-0.040200625,-0.18740669,-0.6237736,1.086647,-0.0892018,1.1052694,0.63927746,0.00682491,0.2660926,0.70284796,-0.60542583,0.21207315,0.75658745,0.15875322,-0.05565814,-0.90996873,-0.63725674,-0.58367383,-0.1735367,0.075900175,0.69232553,0.635653,0.5623487,-0.9793575,-0.24603277,0.054602727,-0.7222237,-0.4690983,-0.43191636,-0.28328618,-0.71452034,-0.22407605,0.10075901,0.8432482,0.04754526,-0.6402031,-0.1745032,-0.38899082,0.32991076,-0.048021972,0.49917403,-0.48864606,0.7174735,-0.9733425,-0.38665867,0.06610212,0.08659484,-0.88442,0.35425943,-0.41102907,8.255766E-4,0.50101644,-0.31509352,0.14792325,0.98955864,-0.32081047,0.19119543,-0.06427103,-0.55462027,-0.70983547,-0.796978,0.44862396,0.5280443,0.968629,-0.3207726,-0.12668815,-0.43009824,0.0011097497,-0.08210298,-0.8513896,0.67133725,-0.3049356,-0.5178166,0.9596916,-0.26938495,0.18749946,0.61933804,-0.48817477,0.98486066,-0.74875623,0.027636638,0.24876603,-0.0415184,-0.37106702,-0.5371872,-0.57115936,0.17018259,0.67320734,-0.13485268,-0.14670038,-0.2170283,0.77272505,0.9161404,0.67669487,0.77370834,0.10195562,0.6805278,0.2114685,-0.6729714,-0.33163357,0.95778453,0.15073447,0.5196541,-0.17277724,-0.51579547
-2.4139478,-0.92568046,-0.6540488,-0.5704317,-1.8768486,1.1610671,0.6446098,-0.60358965,-0.9928798,-2.6043425,-0.249704,3.2251732,-0.33461586,-4.237245,-4.0790224,-1.2940433,0.43560302,-1.1732231,-5.6863494,3.4237444,-1.7883521,-1.1031705,2.5553377,3.1697035,1.798824,-2.5986578,0.5400384,1.497435,-4.7898955,-0.21729676,1.5328751,-0.40352625,-1.7154558,-2.201875,0.1728923,0.16283982,-0.50594574,-2.2854273,0.26184914,2.6083083,1.4158682,-1.7283652,-0.27360627,1.5356408,-2.2295923,-1.0552875,0.8584524,-1.4040502,0.61814463,-0.8359489,-4.6312485,1.6098027,-1.0866607,3.461766,2.3331218,2.2067902,-3.2927592,-0.12551242,1.4991772,1.8952372,-2.7187388,-1.5150486,-3.3680873,4.2287917,4.0098314,-1.6429627,1.9519068,0.75300854,0.50414467,-5.47134,-3.0102386,0.474656,-5.0409884,-1.065753,1.3621063,1.9672769,1.1097459,1.0859251,-2.6665606,-0.52465487,-1.9172939,-1.1167668,0.42615706,2.4303677,0.40870848,3.5045402,0.87836486,0.87338096,1.2448114,2.7107506,2.7664618,0.58073866,1.7021018,-1.6914222,0.44756094,-0.89536905,-2.5511289,-0.9144626,0.389241,0.7124898,1.7887107,2.0673254,3.4683754,2.7922218,-0.25804642,0.8807045,2.5523126,3.4649403,0.24071133,1.0743426,0.25644812,0.5518608,1.2373248,0.2491635,1.0431193,-0.17386012,1.0329508,-5.456134,-0.6132821,2.4895418,0.9998945,1.1769395,-0.014256262,-1.0862578,0.28952286,0.3099492,0.10522791,0.57919407,0.6228511,0.25364843,1.576519,2.0708754,1.8580419,-0.45785204,0.3465163,-1.284137,6.0498567,1.3525062,2.7823172,0.6111391,-1.3859055,-1.7257305,0.3984394,1.351791,4.741294,-0.47991106,0.020172004,0.60500115,-0.4475601,2.1006048,1.6020393,1.881303,1.954956,-0.36128715,-0.63848674,0.119333856,-0.31891564,-0.21714775,0.52529216,1.2629956,0.43244654,-0.31367138,1.856912,1.3317899,1.2404784,-0.36090693,-1.6581289,2.228053,1.2236308,2.7095792,2.2174423,0.33274794,0.7353328,-0.6625842,-4.40978,1.7874179,-0.5915995,1.4487447,-0.6614813,0.63041145,0.13216218,-0.99358475,0.4424585,0.53350794,0.43538764,1.6759439,0.6101921,0.64718187,1.6594878,3.0658383,-0.47645748,-0.055154275,0.007079452,2.0623775,0.7741836,3.0831232,-0.79860675,0.04323518,0.6633636,-3.1059554,-2.7491982,-0.40734145,-0.06463353,-0.32267407,-0.16060589,-0.077204734,-0.46939066,-0.32384518,-0.28352347,0.11181657,0.87658215,1.8120538,0.71352035,0.458065,0.83314526,1.7009231,1.7156833,1.0001744,-1.01061,-0.82120425,1.1241432,1.7505856,1.1823425,1.538605,0.5625574,0.43153417,-0.59363985,-2.3658736,0.8419354,-0.6679684,0.15247655,-1.0054016,1.4302452,-0.56813806,0.64722764,-1.0826862,0.65199023,0.3658377,-1.85199,-0.6039929,0.44251052,0.03415399,1.2621208,0.90276134,0.856654,0.30039677,0.66641396,-0.42324528,1.2441586,0.2983943,0.16525213,0.094643794,0.45406425,2.3574815,0.61202836,0.54674935,-0.5529248,-0.39215282,0.8532231,-0.4326913,1.6959184,0.61285263,0.9597426,2.1229773,1.4783504,0.60375386,0.77040774,0.51082695,-0.3118539,0.9409198,-0.41283396,0.3320098,-0.7951945,1.5803903,0.43906444,-0.8292083,0.65535784,-0.44518942,1.0181292,-0.7667829,0.81042635,-0.27866352,-0.51644003,0.42274064,1.5781574,1.144388,0.19923793,-0.69691944,-0.11181115,1.5916086,0.0048676776,-0.6363972,1.556144,1.1063107,1.3239864,-0.15610142,0.13169284,-0.26485902,-0.21818407,0.0010705086,-0.7127408,0.76311463,0.81224674,1.0660641,0.28179187,-0.19912095,1.0014087,0.19831589,-0.41446757,-0.88615036,0.27963737,-0.07237642,0.5570639,-0.58473617,0.34638423,0.6955931,0.39366102,0.057076387,0.9549431,0.69582886,0.85516644,0.47192746,-0.8793013,1.2530922,0.92043126,-0.34980747,-0.083883174,-0.44383517,0.7207147,0.8655655,1.3117584,-0.8494918,-0.2919718,-0.10050473,-0.1435973,0.8669337,-0.4320208,-0.6960255,-0.7339528,0.49573255,-0.43335184,0.41493806,0.6848578,-0.8534033,0.6191012,-0.045352332,-0.21923293,0.1104687,-0.37505656,0.08118443,-0.45208347,-0.08281607,-0.73938084,-0.84656394,-0.8332566,0.55347043,-0.42334753,0.06798418,-0.39997855,-0.73534024,0.911543,-0.6180715,1.2438958,0.41886306,0.14446314,-0.57143605,-0.31073502,0.846386,0.1541289,-0.8028426,-0.26760197,0.8637728,0.24330093,-0.50624245,0.122659355,-0.43511012,-0.5017381,0.5074243,-0.09463647,-0.9962919,0.25141305,-0.8110639,-0.36088002,0.9719062,0.96916896,0.07978664,-0.5073594,-0.17189254,-0.3424356,0.39575535
-2.6816683,-0.3268054,1.5262734,0.35680705,0.7103304,-0.34655827,1.8960763,-1.3076938,-0.04967468,-1.9913819,3.4232447,-0.5276964,-1.2211745,-2.4947774,-1.6718374,-0.026593175,-2.7530487,-3.1559856,-0.6739819,1.4052428,-1.0193787,0.4405255,1.8971167,-0.31394994,0.5018926,0.1982563,0.82956815,-0.04454747,0.78295475,0.59280497,-0.5388444,0.3441905,-2.6212115,-2.262885,-1.0455562,1.1666027,0.5041465,-1.6935223,-0.9724872,-2.5565162,1.8327637,0.82333624,0.25878403,-1.5396119,-0.7623812,-1.6402081,0.38389263,0.42505652,-1.6779355,-0.51717937,-0.699763,1.057207,-1.4214312,-1.8747567,-2.054863,-3.1475854,-1.2713836,-2.8147292,-0.43421564,-2.2979026,1.1331464,3.2136316,-1.0616014,-1.4124066,0.6514638,4.4079976,-3.1058924,-1.2745814,-3.0143843,-1.8150475,-3.4635375,0.30460075,-0.08603917,0.64976215,-1.3792472,-0.93093807,-2.6899235,-2.2106698,-0.49948707,0.5670899,0.69040376,-0.74073297,-3.6717267,0.15290378,5.390757,-0.9936294,-1.1198899,-0.43554258,-0.34233767,0.026383681,0.90475804,2.3457615,-3.4844687,0.9479399,-0.77258193,0.5969206,-2.9853492,-1.3370231,0.5105818,-3.0352325,0.15242146,-3.083072,0.07257039,-0.19965771,-3.5713272,1.0520792,-2.2674668,-3.4088495,-0.8583503,-3.1762657,-0.28135955,-2.72786,-1.9581848,0.092559785,1.4227731,-1.5911261,1.1756152,-1.7473111,-2.02487,-1.4711092,-1.0975118,-1.9781231,0.5354871,0.63341624,0.016402848,0.55920315,1.5825936,-0.82475525,-4.190965,0.6973254,5.6434426,-0.3181135,1.2853673,2.2150729,-0.857771,-0.82959706,0.16409235,3.7902138,0.8368309,-1.4729024,0.6283756,-0.09258489,0.7410981,-1.2470802,3.3795495,-1.0742606,-0.58467346,-1.6229413,-2.8645437,-0.17155005,3.1284046,-0.0971447,-0.33994293,1.3395233,1.80388,-0.571616,4.322126,0.36788696,-2.9917214,-1.6879854,-2.4896352,-1.0392098,2.061835,-1.1989955,-3.4587805,1.679139,0.122088365,0.16749026,-0.7291822,-0.8803478,1.9199756,0.27775118,-1.3348594,1.3694404,-0.3663514,-1.3496665,-2.141629,-0.23985146,-0.31376374,-0.7812628,2.8686872,-0.14691629,-3.5251286,-0.7677789,-1.8548225,-2.4846184,0.008243708,-0.87326735,3.0060396,2.4515867,-2.0106895,-0.72232854,0.86687136,2.289461,1.4450372,-0.84484076,-1.7524468,-0.6432237,-1.0390961,0.23655589,0.51367545,0.26717344,3.9508514,0.0025372542,-0.008563601,0.10072481,0.89807665,-1.0677724,1.4559114,-1.5880928,-0.5532907,2.4821966,-1.2837836,1.177566,-1.6539638,0.02859171,1.9257977,-0.5985435,1.3378816,-1.6681592,-0.8703911,-1.3406785,0.9610496,1.0668001,-1.2121423,0.724771,-2.1514554,-2.314664,0.43896532,0.16200502,0.37581903,-0.7148122,0.9936596,0.8054371,0.42151862,-0.8058682,-1.1447078,0.6466073,-2.7376525,-0.5329703,1.5519854,0.102695286,-0.40047017,-0.72382075,-0.23913454,-0.77788645,-0.35490367,-0.7900591,0.043273445,1.0990683,-0.60088354,-0.15612815,-0.58515066,-0.39377916,0.14084984,0.62040526,0.63637674,-0.06861434,0.42305952,0.15789494,0.54048884,0.14879319,0.57839864,-0.02258768,-1.0080239,0.8934207,1.2784721,0.65185857,0.25946614,-0.22338809,1.0391773,0.08148589,0.7847224,0.73247486,-1.0170428,0.800662,0.6829682,-1.6921126,1.1563287,0.5932416,1.3659782,0.0018146164,0.0011170395,-0.6226765,0.9695558,0.7993979,0.051514756,-0.74605435,0.48217753,1.0846868,-2.0108602,0.4954992,0.3261645,-0.60757774,0.032279562,-0.08431046,0.56268615,0.622333,1.0482981,-0.90934426,-1.5327694,0.47803316,-0.9723928,2.1220422,-0.034565087,-0.6731896,-0.45982394,0.3996426,0.6167912,-0.99418116,0.1456345,0.035525266,0.47038928,-0.124799006,-0.397955,0.6133369,1.4818251,0.35770684,0.5408171,-0.9921205,-0.56965286,0.5192566,-0.55053616,-0.29086426,0.9905533,-0.81333315,0.5346175,-0.04565657,0.48292285,0.5486086,1.6071917,0.24028601,0.03353335,-0.12091884,-0.9271859,0.703692,-0.552222,-0.18427627,0.76570946,-0.7665769,0.6948416,0.5906185,-0.6902996,0.23924175,0.42585275,-0.15343489,0.9448464,0.038120016,0.06526131,-0.00967487,0.11223993,-1.241575,-0.82102436,-0.20068873,-0.99118674,0.37818915,0.9711249,0.12225269,-0.69190216,0.11984366,0.06274615,-0.7116297,0.14256388,-0.03405212,-0.6486959,-0.18135208,0.24493285,-0.38798615,-0.8885799,0.21864256,-0.27599737,-0.31743208,0.8241975,0.1783135,-0.6994027,0.118676856,-0.69684803,-0.90473646,-0.2214617,0.59262353,-0.14860171,-0.9053302,0.9825351,-0.4325013,0.02136311,0.7224339,0.84640485,0.27944115,0.8954207,0.6552052
-0.37537917,-1.0655557,-0.8627141,-0.5608763,-1.0395479,-1.0775443,-0.6522615,-0.1455207,-0.017340848,0.91016465,2.628224,0.9737728,-0.9965355,-1.0736941,-0.11572322,-0.7098161,1.275237,-0.2055832,-0.24803016,-0.46679816,0.15540472,1.112536,0.37240553,2.3828545,2.400369,1.7912754,-1.1352752,-0.14614637,-0.3120579,-0.71168613,-0.40279868,-0.8348923,-0.711459,-0.6887889,-0.6341458,-0.8541767,0.49851272,1.9450114,-0.6230349,0.22500092,-1.2337164,-0.037714027,-0.89820987,0.43785548,0.3101949,0.39235848,0.2363487,0.14152431,-0.9068425,0.5504139,-0.5874574,0.05559065,-0.8434386,-0.21352398,-0.09848671,0.13442941,-0.4372468,0.10865011,-0.24721535,-0.4488186,-1.3149079,0.9603719,-0.0053370884,0.32547367,-1.0314541,-1.7387822,-0.40775836,0.2244015,0.21654856,0.599016,-0.69583344,-0.3392946,0.75046664,1.2214209,-0.1411711,1.0093067,0.6603903,0.1269375,-0.044543676,0.322428,0.74582535,1.0233701,0.68071777,1.1850396,-1.6521763,0.5618631,-0.20004049,0.42274496,-0.23452859,1.1209749,0.6508023,0.34355727,0.103660695,0.5635078,1.1930785,-0.19227669,1.5939448,0.4315186,-0.6338509,0.95594615,0.08815051,0.75836354,-0.16628115,-0.7100518,0.06152551,0.9950968,1.8481919,0.5493638,1.0127332,0.13458054,0.76199317,-0.20727885,0.16935676,1.6111677,1.0226755,1.5357397,0.6091644,0.3838954,-0.52191764,0.5522745,0.73560137,1.5334406,0.8861487,1.0661784,0.015986063,1.3969761,0.41926485,0.44883642,0.28935793,0.41904965,-1.2825137,-0.4902482,0.7943447,0.3893703,0.37560114,-0.30591607,1.1075697,-0.92571986,0.039721,1.4599575,1.3400337,1.6148404,0.57469565,-0.27477384,0.42231908,0.9567697,-0.033791285,-0.31612232,1.0976204,0.53432596,-0.97342277,0.52763855,0.75188977,0.33210543,0.53635246,0.21425778,-0.32043618,-0.03271143,0.24432416,1.5486299,0.7954747,0.9191137,1.8172327,-0.23427312,-0.29324427,0.52178323,1.2415289,1.8727651,1.0090652,-1.0781736,0.23750636,-0.19719155,-0.97520936,1.0957034,1.5189128,0.9469445,-0.32925826,0.43200272,0.2825643,1.060512,0.897833,1.1258328,0.86620146,-0.30555224,1.5805732,0.52308065,0.18012077,-0.30535182,1.1338738,1.1072315,-0.11553688,0.9554569,0.351547,0.7586413,0.9542163,0.09884925,1.243624,-0.5947827,-0.10138402,-0.09910884,0.80890286,0.86567545,2.782018,-0.30662322,-0.511301,-0.65149826,1.1333655,0.2831992,-0.37201735,-0.40090898,0.27977973,0.9662117,1.0553073,-0.1879739,2.111104,0.025328593,-1.0625762,-0.32119474,0.010120956,1.3266385,-0.05821231,-0.17681772,0.13575958,-0.4930578,0.20436384,1.3775611,1.5654906,1.1315072,0.47964707,-0.04565404,-0.3990268,-0.37063095,0.19540988,0.3207873,0.68198663,-0.092473745,-0.29925883,0.11879841,1.2005587,-0.9483223,1.9226176,-0.08959977,-0.11749111,0.6155102,0.47770151,1.0248909,0.012750467,0.5730683,0.26901135,-0.946886,0.47506064,-0.2756601,0.5055854,0.19836226,-0.28292108,-0.17754743,0.19503179,0.069598936,1.036554,-0.18674728,0.97174656,-0.2799153,-0.32759202,-0.9368645,0.14709869,-0.71946657,0.8004687,-0.101145856,-0.3106164,0.5864015,0.8896128,0.93367565,-0.07489128,0.7741349,-0.40611932,-0.15259792,-0.05780113,0.73706126,0.45753813,-0.24839823,0.3951585,0.25530878,0.19690403,-0.22960848,-0.2880181,-0.3973114,0.34150928,0.052107878,0.75959766,-0.1526785,0.6820534,0.4543159,-0.5289686,-0.8551954,-0.29778913,0.7378377,-0.1374764,0.3197107,-0.1445184,0.109367065,0.19564624,-0.06803984,-0.6464654,-0.3221837,0.14384294,-0.0034419014,0.58202124,0.03024446,-0.55129164,-0.52410954,-0.4445109,-0.7736992,-0.37684876,-0.5614978,0.13137092,0.21460198,-0.44040644,-0.7069025,-0.8317512,0.90535223,0.7956605,-0.86852217,-0.058150675,-0.4226778,-0.76151717,0.18607509,0.3244855,-0.0737069,-0.2231843,-0.16204903,-0.3557797,-0.402355,0.619801,-0.96422154,0.45616096,-0.30953792,-0.47324538,0.15764983,0.048519496,0.5903086,0.33000267,-0.47607964,-0.18466985,0.27995402,0.40444875,-0.08285279,0.90827733,0.6814915,-0.82811683,-0.9213116,-0.42199805,0.41248205,-0.22162926,0.7304208,0.9615146,-0.86940265,-0.5052189,0.29000553,-0.50672156,0.098486945,-0.5156014,-0.9128848,0.8017207,-0.86229324,0.7518614,0.28589335,-0.9674583,0.2882378,-0.8874922,-0.67915213,0.4753289,0.7232426,0.92811805,0.69009864,0.8453632,0.46712497,0.65026766,0.3594467,0.7655231,-0.08451755,0.060784586,-0.39570615,-0.33278778,-0.2980433,0.16429079,-0.6259606,0.62591255,0.34868476,-0.8345547,-0.5102932
1.5283844,1.0171869,3.6270168,-0.14353213,-1.1933712,2.0118122,0.784202,0.9202943,1.2787347,-1.7023968,-3.342346,0.75337285,0.48318884,-1.2886622,-1.6675534,-0.5024617,1.0992069,1.1489137,0.5733151,-1.7185061,-1.7692508,1.1511563,-3.6107843,-1.2586168,-1.941293,-2.4917634,-1.6935688,-0.3461254,1.6209105,4.1827774,-1.8133295,2.9220724,0.9526119,-0.91666067,-3.5038168,0.38137445,-1.7279055,-2.8722427,0.91576076,-0.9107153,-0.1472337,0.5040588,-1.0784997,-1.9295193,-0.5161024,-0.81075066,-2.8780725,1.4289327,-2.5425966,1.0898205,2.7556608,-0.7177344,-5.449036,0.63368523,3.283362,-0.7972517,-4.6895003,0.33581817,1.2376152,-1.3345344,-1.3237988,5.1764374,-3.1081264,1.8348341,-0.08579353,-0.39613715,-3.213023,1.2262565,0.6344683,2.0470357,3.9969704,1.1007923,0.88244313,2.6785667,-1.4346097,1.7928592,0.4533654,0.80892664,1.9365636,1.687441,3.3221664,1.175672,0.52485585,-0.30417287,-0.3469763,-4.1060076,0.022577545,-1.155267,-0.7979663,4.251426,2.4410572,-2.8587608,0.10889491,-0.5834695,1.1708423,3.6662683,-0.71647614,4.112019,-5.6328807,0.9785177,0.11485821,2.967743,1.8201998,-0.7449356,-2.4958007,2.0479796,3.5141335,-1.9447544,-0.4224298,-0.070208915,-2.1424282,-3.5151687,-0.024942579,0.3378323,-3.2782195,-0.3665089,0.012784412,4.2314577,-4.4652686,0.9376841,1.3015162,0.81433547,1.7368264,0.67190516,-1.1897305,-1.3916965,-2.823508,-1.7080117,-3.415219,0.6322932,2.8639128,0.53627986,1.3056931,-1.1565429,1.5031661,-1.0525237,1.1623572,-0.39095446,-2.715704,-0.9698876,-0.8763769,3.371923,-0.77269673,0.032768227,0.36576495,-0.9098112,1.3811026,1.9080386,-0.119408555,0.02607537,-4.2529545,-0.705884,-1.7720647,1.9934998,-1.7384574,0.03260961,-2.1178663,-0.82876736,-0.22993775,-3.65553,-0.475337,1.9152584,-3.0897603,-2.9636261,-2.0630352,-0.8097309,-0.54311836,-0.4481816,0.65850806,1.6910787,-0.055701837,2.292743,0.19674982,1.6363062,3.2958279,3.9260213,-1.759608,-0.71656686,-0.21842057,1.232933,-1.120837,0.15801412,-0.0120505,-2.568609,0.10942357,-3.312091,1.2283809,0.3389328,-2.1177416,-3.0783732,1.6482705,-0.08011192,-0.409304,-0.34734213,-0.031761333,-1.7232721,-1.8188583,-0.7460355,0.8487535,1.2115222,-0.101168774,0.22276671,-2.579719,-0.6470831,0.75566286,1.4219061,-2.8037972,-0.29996756,-0.3434394,1.3353018,-1.4652736,0.22122268,-0.213505,-0.9248575,-1.02556,-0.027893526,0.21352261,-0.7139253,-1.0763849,0.12836625,0.24771614,1.3782313,-2.4194472,0.19059804,0.17101626,-1.0586135,-0.010168356,3.2372959,-2.5173473,-0.46212602,0.53187466,0.61850256,-2.4160955,0.88119525,0.0028457693,-0.035268277,0.12856129,-3.4173946,5.8018284,0.8229192,-2.9449103,-0.085182324,0.46936822,0.19996049,0.9351432,-0.2977341,-1.4655956,0.3063669,-1.3170737,-0.79181266,0.9210123,-0.5697767,0.754223,1.1016334,-0.51150846,0.26471922,-0.70479923,1.8331584,-1.2683895,0.26051983,-1.1609092,-0.18923038,-0.21825875,-0.58773685,4.3859797,-0.07862665,-0.9259925,0.8048631,0.9003491,-0.88173276,0.8296691,-1.3900559,-0.26066765,0.3970311,-0.32322267,-0.68247986,0.67555386,-0.21644369,0.50446224,-0.37937862,0.8873271,-0.17374618,-0.79207915,-0.13748123,-2.718124,-0.83093446,-0.14776018,-0.6294455,-0.85921824,-1.3257433,1.5314953,-0.7098992,0.43035576,-0.053562544,-0.3569652,-0.10454096,0.5477117,-0.5313834,0.18304256,-0.11196971,-1.0381838,-0.8794268,-0.4632799,0.81750745,-0.5797483,-0.52323616,-0.60043204,-0.052881777,0.5815072,-0.10730757,0.09556984,0.7556114,0.3351533,-0.9375894,-0.44124085,-0.067760624,1.6458757,0.09367269,-0.37488186,-0.16693865,-0.027658276,0.37261125,0.10193165,0.63995725,0.77544856,-2.2507272,-0.36785704,-0.9411086,0.31295764,0.42254335,-1.2691962,-0.4274575,0.3867729,0.3146842,0.10242958,0.6464717,-0.9097933,-0.06214254,-0.7037063,-0.26073107,-0.2031205,-1.3129429,1.9631348,0.10253526,0.3037512,0.04058817,0.18553674,0.1376079,-0.25679788,-0.0152679095,-0.23858589,-0.8461236,0.7451281,-0.6302032,-0.2630711,0.33913758,0.95040077,0.31158683,0.81303316,0.19239618,-0.96934056,0.52119726,-0.9985986,-0.9755137,0.9120986,-0.5021659,-0.8230134,-0.42081964,1.0092582,0.25398958,-0.58583444,0.015540771,0.7166934,0.0027220286,-0.5690258,-0.53528094,0.25040802,-0.86857134,0.71170586,0.74507535,0.9721806,0.4119447,0.8316,-0.66483396,0.7922539,0.5345496,0.21132329,0.6868574,0.6111757,0.75751096
2.7176278,-1.1963245,-2.8844237,2.3676476,3.7576232,-1.3934313,-1.0495677,-0.046368547,-2.846303,-0.70094347,-1.4546252,-6.5081935,0.034943778,-0.4621013,0.8555906,2.9232697,-1.4325167,-1.6312696,-0.59332395,-0.8448733,-3.708766,-0.14796643,-1.7555877,0.18140666,2.6841586,5.8595037,0.5870072,0.8859165,-1.6347823,-0.7506799,2.059352,0.92106664,-0.24490517,-1.0003409,-0.1706004,0.09749607,-0.7112536,0.38272917,0.7478324,-0.4690212,1.3270969,-1.4140846,-0.5163941,4.8153076,-5.439153,-1.2802528,1.2698246,1.365361,-1.0678581,-0.58083385,-1.022658,-0.6013851,1.152803,-0.34867916,0.24391718,1.509868,6.1628213,0.64202493,-0.61277074,-0.45628473,-4.4073553,-1.1248523,-2.4443243,1.4666841,-0.5448567,4.0198402,-0.2696344,0.25377136,0.85499513,-0.92974377,-3.0915325,1.0155451,5.0557756,0.8254532,-0.5849861,0.16742213,0.6549937,1.7208868,0.41091034,1.04723,-1.8262539,-0.4710244,1.6398857,-0.7053648,-1.9789917,-1.0001869,-1.420641,1.575262,-2.6554132,1.2567132,0.26747614,-0.21418838,0.5048637,1.6000178,-0.77465343,-0.65449864,-1.2914085,2.9577224,-1.0779166,0.8830147,1.0024284,0.62318397,0.49154952,3.8589115,1.2551124,-1.4707279,-0.79407406,1.8815427,-5.6243253,1.3542908,2.5333662,1.7046844,-3.09413,0.001108239,-1.5796672,0.24570674,0.39695174,-0.2540534,2.8405073,1.2558198,1.3357786,-1.5983775,0.34894657,-1.0218835,-0.43131673,0.29152873,1.6717702,0.3595794,2.1207082,0.9352408,-0.4707247,0.4616978,-0.096005656,0.1352721,-2.8884308,0.77097464,-0.15999642,-0.89128715,0.50180095,-0.20051219,-1.0359004,-0.77217865,-2.435507,3.5621982,1.3424158,-0.008714604,-0.26930735,1.0397604,-0.47911876,-0.2481486,0.14477557,-1.6500962,-0.027385164,-0.3619399,-1.1723373,0.19270046,4.2771654,-0.86189663,1.661329,1.3125322,-0.7631232,-0.2551144,-3.5240018,-1.3642154,1.5763171,0.280768,-1.0063448,1.2748002,0.027458478,1.4102358,-0.62299025,-0.0016961507,0.7803728,0.30144033,-1.6532255,-4.0223866,2.4590137,-1.3044571,-1.1753072,0.24110526,-0.39844605,-1.1954089,1.039954,0.55015767,0.79144806,-4.801805,1.4002943,-0.95803136,-1.4554002,-0.65007114,-0.9376658,1.521899,0.71717525,2.9243746,-1.4044925,0.9268194,-0.9609677,0.041440744,1.7077256,-1.1814924,-0.60595065,-0.6455533,0.27579537,-1.9165832,-0.46395236,0.3864293,-1.9476837,0.57662165,2.5136786,0.14770037,0.23201773,-2.0674782,1.8104949,0.6508672,0.88450694,-0.3707785,-1.0046066,0.025693597,-1.4308735,-1.524704,-0.5627284,-0.891541,0.43380907,-0.86196786,0.54944885,0.43225136,1.5436128,-0.6625302,-0.99996245,-0.7803765,0.37958273,0.8386779,-1.6760111,-0.16032305,-0.22920531,0.93720776,-1.352033,0.2860423,-1.7645578,0.8030613,-0.28036863,-0.16090555,-1.791492,0.007354725,-0.38829383,-2.2077243,-0.16530289,0.5522593,-0.4106605,-0.9025582,-0.4895319,0.43160775,-0.657437,1.3027031,0.3817511,-1.1527568,-1.1582607,0.56406915,-0.30822918,-0.6069448,-0.7032874,0.015093158,-1.3352017,-2.492261,-0.22867197,0.49455914,-1.0648649,0.87430567,-0.061903235,0.91144824,-0.2867764,-1.3731152,1.5867256,-0.3723395,0.07198279,-0.02083131,0.87183094,-0.7145689,-1.5989144,0.56548166,1.2171284,-1.3944548,-0.53039473,-0.63501674,-0.3717949,0.47103924,-0.15714723,0.5797599,0.23404007,-0.8227347,-0.4789149,-0.93847996,-1.0005091,-0.6538172,-0.38341358,0.8911373,-0.46451813,-1.3324051,-0.6885259,1.0812396,-1.4366002,0.6488549,-0.62148374,-1.3458092,-0.6523956,-0.7235637,-0.051217068,0.7730463,0.96503705,-0.63422495,-1.3328123,0.06273668,-0.5883375,-0.5262657,0.01698903,-1.3238328,0.68614215,0.68477595,-0.31076884,-0.25373426,-0.26637885,-0.49474728,0.7301968,-0.13161145,-0.014512779,-1.4546468,-0.17276257,-0.85456926,0.23182681,-0.045611087,0.74134773,0.8170615,0.54015064,0.1833395,-0.8910522,-0.061196905,0.22410035,-0.08510059,0.6299399,-0.54613256,-1.0924555,-0.7002021,0.6429152,-0.85926104,-0.07061775,-0.14899638,1.0238748,0.5360951,-0.5143973,-0.06342926,-0.9419351,1.2900023,0.52179617,-0.11199722,-0.7636164,-0.38900638,-0.56639856,-0.24778417,-0.58606714,-0.8152741,-0.78043145,-0.7982082,-0.6834933,0.16320737,0.637418,0.68762475,-0.40781295,0.40900296,0.7021479,-0.9194451,-0.026983524,-0.31706396,0.12767455,-0.31145018,-0.43354422,-0.41117013,0.04670625,0.2364707,0.6106747,0.60080385,-0.38894826,0.58052623,-0.28932032,-0.27726075,0.5200304,0.16412024,-0.09136342,0.27356818,0.26763445,0.25700402
2.2577796,0.78542984,3.0189629,-0.005139573,-2.305089,1.4100193,1.3130212,-1.798298,-1.4382155,-0.69906163,-0.38743782,-4.8510046,-0.5836116,0.16877015,-1.745246,-2.9243429,-2.4854622,0.57200706,1.3892566,0.11502795,-0.85538536,-2.9818554,-0.9489478,-1.0303435,2.3068538,-0.18977131,-0.11040156,-0.5884531,-1.43543,-2.6991494,-0.047290117,-1.4246072,-1.4909229,1.0318606,-0.8657944,1.2289699,0.49939913,-0.17662327,-0.021962488,-0.18009526,0.17402889,-4.356244,-1.4288311,0.8488973,0.2995555,-0.005162862,0.30620766,-0.11362551,0.289156,1.9417257,-2.165239,-2.2393064,-1.2419147,0.98853153,-1.2244473,-0.403285,-1.7385182,-5.8453956,0.71533674,-0.2294082,-1.7900746,-3.330798,0.48745063,-0.7477068,1.3571483,-0.0921524,-3.5920928,-3.0938795,-3.2671697,-0.9546549,-0.1756646,-2.142771,1.1429924,-2.1372073,-1.5462108,-2.0896184,-3.1694195,2.4219968,0.2915023,-2.7600362,0.7728714,-1.7846736,-2.8079233,-4.187088,-0.012947198,-1.4887029,-4.1373086,-0.35852712,-2.8147085,-1.7352375,-1.5401155,-2.3405697,0.5377276,1.4138277,-1.1261692,-1.4422717,0.25958896,-0.44262254,-1.5658286,-0.5495521,1.2314788,-0.5119345,-0.47423714,-1.3319695,1.7492269,-0.90218186,2.1640184,-1.817565,-0.6222923,-1.5609258,-2.1814933,-3.3775866,5.4981236,-1.4593832,-0.785659,-4.2532344,-0.9890146,-0.9544599,4.6488366,-2.3527195,-1.655157,-0.40327406,-0.19594176,-2.8999355,6.405754,-4.130944,-2.3861463,-2.5112758,-2.978409,-1.2655149,4.861887,-0.9993878,0.73016983,-2.5024164,-2.1571805,0.13224792,-1.2955965,0.8133978,3.6638005,-1.0286587,-1.3524164,-4.6089015,1.3521326,-1.1092633,4.775975,-1.4569942,-0.87824273,-0.21940865,1.9043231,0.9740365,-0.15890437,1.2266809,-1.9471209,-0.27247855,-1.7103283,1.2024832,-3.0712864,-1.7094203,0.34174532,0.37979504,-2.5048933,-0.9452332,3.3550997,2.13736,0.2758319,0.63252383,0.85265315,-0.5776683,-0.82767504,3.727722,-2.2431438,-1.065659,-1.3051832,1.1942788,-1.9294258,-0.32455108,1.460749,-1.3786883,0.53578544,-1.3710971,-1.1127849,-1.5336984,-0.86917925,0.089420564,-1.3139465,-1.8960606,1.5934868,-0.45415103,-2.5454922,-1.73584,-0.435726,0.38946202,-0.0451521,-1.1203945,-1.4889841,-1.4639862,2.037147,-1.1908721,-0.86198795,-0.23757157,-1.0274414,0.60684824,2.146811,-1.1854429,-1.1931648,-0.8144136,-0.95876634,-0.41729444,-0.49259683,-0.15946761,-0.67164356,-3.3943014,-2.1164386,-0.564011,-1.4186141,-0.065275386,2.154869,-0.31422243,-0.15631114,-1.8058293,-1.8154397,-1.0822202,0.42683107,0.81679386,-0.40328604,-1.0941751,-1.5089478,0.28457627,1.8652341,-1.5952489,-0.49012333,-0.015342996,-2.1179392,-1.6548003,-1.3803779,1.197674,-0.042051077,-0.15459345,-1.724587,-0.71573275,-0.272419,-1.2267834,1.2733227,-0.71942186,-0.27663532,-1.0218041,-0.4172655,-0.76622146,1.0833693,-0.59129125,-0.6612936,1.3486695,-1.56885,-0.686821,-1.168212,-0.21557486,0.3866709,0.1724113,-1.2920269,-0.45092046,0.301435,0.00289872,-0.77015436,-0.94587415,1.5742763,-0.8289503,0.57449967,0.4202409,-1.0620544,-0.1610239,1.19793,-0.5343959,-0.58157015,-0.07243207,-0.38011545,0.15582259,0.5991628,-0.6557724,-0.72143865,-0.31431535,1.2338904,-0.48066103,-0.20280002,0.052031968,-1.5488472,-0.13786237,-0.54319733,-0.6584439,-0.59239805,-1.1670246,0.017169788,0.7879222,-1.3687259,-0.78486663,-0.63551724,0.19356054,0.6298006,-0.44674695,0.9136691,-1.1274838,-0.1196938,0.573507,-0.51824796,0.9475893,-1.0927148,-0.5810553,0.53684855,0.25793162,-0.69448864,-0.18904945,-1.2517021,0.32382125,-0.11030115,-1.002025,0.59524703,-0.38474917,-0.46856096,0.00443091,-0.048864957,0.8281891,-0.6651912,0.77594554,-0.36848956,-0.2211236,0.06121834,0.24799834,0.81786,-0.23679598,-0.19203128,0.86913574,0.18942331,-0.2914773,0.62471384,-1.0124239,0.088218324,0.82227606,-0.7777203,-0.0374797,-0.43918502,-0.12381644,-0.123872325,-0.29914415,0.14598873,0.30592686,-0.34133273,-0.73673075,-0.939464,0.45285973,-0.025809688,0.3171661,-1.0248485,0.042849816,-0.57966316,0.05827117,0.8266953,0.1374092,-0.44248265,-0.79638475,0.80301696,-0.630575,-0.56312263,-0.8975881,-1.0142294,0.183055,-0.25835308,0.4131374,-0.2256216,-0.20528735,0.78457206,0.11503046,0.6759226,-0.9632106,0.7915254,0.065331504,0.6711373,-0.20527856,-0.103130735,0.12498258,0.4861053,-0.67259866,-0.2706363,0.51174074,0.24291548,0.53384125,-0.14912437,-0.058104385,0.28676185,-0.69307935,-0.8633838,-0.98001677
1.0030392,2.0166605,0.45431688,0.48036355,6.8541136,3.288085,0.37519026,0.38108218,-0.2714566,0.79595786,-2.3401923,1.1616591,0.3701884,-0.57597023,2.457334,3.564852,-0.7102772,0.07659451,-0.05354417,-1.7735277,0.7221266,0.028440356,1.6074544,-0.95324814,-2.0157506,2.8271363,2.8229306,3.626919,-0.27361298,3.1898768,2.7129028,1.3966438,1.2853912,1.9878259,3.3689938,-0.11149648,-0.73839176,0.58605593,2.3025115,1.4310578,3.1721315,0.40887335,-0.8209234,0.9364272,-3.0621228,-2.7718136,2.323374,2.671552,-1.6969703,-2.2903652,-0.22382897,-0.34511876,5.1498647,0.001869748,1.1737278,1.0301661,1.405248,2.655213,0.17948253,-1.9978395,-1.0396737,2.2746139,-1.1537954,3.403108,0.918661,-1.7857752,2.889072,4.527921,2.147376,-0.9989822,0.5166146,2.713336,-1.706618,1.7739793,0.24034499,2.081506,3.5833366,-0.31076232,-2.8255072,2.0270555,1.1840723,3.2342994,1.2116653,-0.4866175,6.7372513,-0.70150816,-0.65091944,-0.8381346,2.2316651,3.4941435,0.5753608,1.5792614,-2.8469229,1.422424,1.1028609,0.46031484,0.6989785,2.1339304,-2.8476434,1.0297621,3.7812114,1.3507447,1.4897163,1.3560311,4.0515423,-2.630374,0.4298691,-0.8677959,-0.3941677,3.475059,-1.9491564,2.1248708,1.6145098,-0.84165025,-1.4153199,0.57848245,-0.87755746,-0.67044234,1.8496197,0.72843283,2.6466467,-0.47811508,0.13745116,1.312896,0.4011881,5.129,-0.47080252,1.119228,0.48073915,1.90442,-0.9754633,-1.8778139,0.4408616,3.7631023,-0.5742459,0.5131653,2.2252517,-3.6860273,-4.197615,-0.92738765,-3.435135,0.23129918,0.24473153,-1.5185038,-3.8457122,2.331414,2.1004224,-0.37975085,-1.597769,4.4773955,-1.2952791,-0.5600641,0.7735191,0.70952624,0.39242566,0.19420157,1.8120396,0.36352897,0.46955135,1.5896541,0.89462644,1.9575988,2.387041,1.2773277,-2.1998944,0.26667234,-1.8403078,1.899889,0.06688802,-1.9448708,0.41338134,1.2072544,0.612541,-0.0861545,2.290416,-2.3042626,-0.7641398,0.069070384,-0.56005716,0.9344291,1.9871978,-0.93830055,-1.546661,-0.3692045,0.28441113,-0.098450504,-0.32699826,0.3659136,-0.12700737,0.65720266,-0.8914472,-0.14303394,-1.7739925,0.8585662,-0.025310788,-0.6645056,-0.5584438,0.19455387,0.7749048,2.4347186,0.7349875,2.8251188,-2.2939973,-1.2086312,0.4566307,1.6779984,-0.10138801,0.30305117,-1.3887143,0.14241129,-0.28111583,-2.365931,0.39463863,0.88126695,-2.3158712,-1.7168055,2.6901083,0.37756318,-1.5071211,-0.061943255,-0.39718664,0.78355086,-0.53921634,-1.0130407,-0.22803497,0.019202093,0.4960275,-1.1858851,-0.70584023,-0.177028,0.5025641,1.3890768,-0.98045266,-0.109007396,1.1220325,-1.5633054,-1.2390288,0.0300262,0.2686653,0.76436496,0.60820955,0.518796,-0.16611396,0.39810094,-0.05633845,0.6860936,-0.5887204,0.14398709,-0.47862524,-0.7956753,1.1717329,1.7705709,-0.40091357,0.43901896,0.10471456,-0.9335792,0.664474,1.679568,-0.12456194,0.13407959,-0.2097631,0.6726817,-0.5755006,-0.6145685,0.70653033,-0.123495,0.8082972,-0.2551598,1.0614711,-0.24807477,0.81018746,-0.13921185,0.7144818,0.5730684,1.3118646,-0.53853166,-0.034927808,-0.8336461,-0.023541847,0.84971887,0.68496066,0.29985714,0.9199793,-0.38552395,0.71136975,0.33646622,-0.96550184,-0.10567382,-0.5281427,-0.87673247,1.1775213,0.284052,0.37589842,0.11197288,0.109549336,-0.23458469,-0.558039,-1.0876161,0.11629076,1.5571748,-0.3581383,0.88022083,-0.92569005,-0.402632,-2.2171738,0.40984777,-0.10978707,0.5208959,-0.21102378,0.7005368,0.2923096,0.28476334,0.7304399,-0.47635362,-0.38076526,0.96301615,0.11660063,0.61207086,-0.6492759,-0.17212342,-0.340785,-0.16291858,0.85909927,0.25236544,-0.4796706,1.4448471,0.3785674,0.21585251,-0.85806745,-0.08877393,-0.13843763,-1.0056713,-0.17355554,-0.45852852,-0.976829,0.34595448,-0.5748199,0.5417516,-0.013134214,0.6572919,-0.2947652,-0.52833736,-0.7299762,0.033173222,-0.7057954,-0.37562394,0.76645315,0.8178329,-0.5199988,-0.39634126,0.1871884,0.6028542,-0.47421825,-0.22777162,-0.6070899,0.95014536,0.15903057,-0.056938637,-0.2446493,0.78962934,-0.68226635,-0.2788789,-0.15801187,-0.55961597,-0.73869544,0.67567277,-0.21382102,-0.6242551,0.8476231,-0.3390326,-0.45273706,-0.575917,-0.5489822,0.4421739,0.098857425,0.751926,0.17485642,-0.111294985,0.097514726,-0.03680446,-0.58323646,-0.6587401,-0.46919978,-0.8098774,-0.35185355,-0.133713,0.7991497,0.13584563,-1.1056201,-0.48776338
1.244093,1.277274,-0.95552343,0.3487958,0.43969917,-0.050048966,1.1360732,-2.7191162,0.3660752,-1.1243278,-2.1364412,0.48671606,1.1188818,0.27388847,-2.7438276,1.3390682,-2.3573895,1.0612257,-3.1272445,0.097863264,2.1247349,0.5337525,-1.3948218,0.045405637,-3.2160642,-0.40886125,-0.08521029,-0.67501324,-0.6786757,1.6635389,-1.3156512,0.33277893,-0.436558,-4.2799983,-2.2254796,0.2523359,0.336931,-2.6374447,1.6832625,-0.033089925,-0.39615718,-2.052951,0.51470274,0.09985104,-1.5945283,-0.5944656,-1.163379,-2.3351676,0.2051013,-0.030328114,1.6793517,-0.7872201,-0.99505013,-0.46685272,-0.833492,0.67761093,-4.4424224,-0.6788272,0.25201172,1.1144379,-1.8530778,-1.9259597,-3.494927,-1.4958532,0.016254257,-1.4071735,-0.32735103,0.12214317,-0.083059356,1.2868963,2.1913764,-1.7737786,-1.0917981,-1.082946,-1.473038,-1.3044645,-3.2383482,-0.18126702,-0.65695953,2.5998812,-0.8751214,-3.129568,-1.5096655,-2.6072967,0.23409776,0.91723144,2.3285182,-1.0866295,-2.610055,0.32031733,0.7912084,-1.1061829,0.97588086,1.8411912,0.26263204,-1.3226188,-2.692942,0.14717862,1.8499366,-0.28110555,-1.0663412,-1.2035792,-0.4536693,-1.0895118,-2.8690023,-1.9212786,-1.7846123,-0.6348833,-4.8668156,1.1046112,0.9421849,-1.6542413,3.0121346,-0.17145015,-0.29759613,-0.24803305,-0.9309256,2.8029659,2.5225542,-1.1027597,-3.4928775,0.4293076,-4.189345,-2.4419553,-2.1585677,-1.6730558,1.1330913,-1.0442116,0.07316292,-1.0349411,-1.7189277,-0.56536585,-1.2091857,-2.5169418,-2.769363,-2.0995626,-3.493371,-2.3484216,-6.826582,-0.2146513,1.1147941,-2.2526321,-2.6528628,-6.4203997,-4.224842,-0.668682,-1.6492274,0.23918797,-4.505601,-2.851269,-1.5601653,1.8264277,1.4550943,-0.36804396,1.73406,-0.07647425,-4.234307,0.24553,-0.09446271,-0.3710422,-0.08595568,0.47002336,-0.6572147,-0.67817813,0.06476706,-1.0062358,1.3340561,-3.6778288,-1.8205636,1.5590541,-0.3655835,-1.1298274,-0.6583093,-1.7582237,0.5732593,2.392108,-2.6250312,-1.2358061,-0.15792441,-0.45538422,1.1748008,-1.1166387,-1.615787,-0.6739617,-0.42334694,-0.8161695,-0.66495043,-0.5447253,-0.47693136,1.2402915,0.12881668,0.06870991,0.19210193,0.5504511,0.6656399,-0.2882606,0.35229367,0.53950185,-0.82634777,0.7779823,-0.5048712,-3.3677337,1.3101488,1.4435469,-0.24533112,-1.1936905,-0.42079446,1.1601926,-0.16012235,-0.49535224,2.2411895,-0.75222665,0.8337848,1.1703839,1.7668289,1.7233895,-1.0520289,-0.4644979,-0.66145,0.18179774,-0.531629,-1.3331747,-0.59030163,-0.42536962,-1.0988023,-1.5228001,1.1775942,1.4586614,-1.6110265,-0.8820604,0.7676682,-0.035052553,1.1108887,-0.2040294,-0.47158328,0.5744559,0.9686653,3.0262275,-2.9697227,0.23587859,0.9368905,1.2318661,-1.0172117,-0.94633263,-0.12635437,0.45083463,0.36072388,-1.0492102,-1.1866906,0.2674156,-0.87082505,-0.8176403,-0.44984207,-0.41626137,-0.5769954,0.97542477,-0.8369641,-0.2995419,0.3963431,-0.61573863,1.7422876,0.085329026,0.78656656,-0.14439122,-1.6765751,-0.76306,-0.51084363,0.94753325,0.12377192,-0.1377686,0.97923654,0.69431734,1.0385478,-0.1505085,-0.57131946,0.58602214,-0.0866117,-0.28262976,0.2879744,0.041543815,0.72234976,0.5082637,0.76402664,-0.8096392,0.56397754,0.19270456,-0.8454812,0.575114,0.14897694,1.2650034,-0.24635063,0.37097266,0.6641359,0.26966444,-0.44062635,-0.64582926,-0.44064394,1.309301,-0.027692406,0.522811,-0.73009616,0.86138326,0.9663246,-0.022171143,-1.2165059,-0.045911822,-0.38624513,0.07842599,0.44346604,-0.5533972,1.3967429,-0.31244582,0.9821187,-0.67672694,-0.91406137,-0.5732605,0.13609144,0.51616496,0.571799,-0.5924438,-1.0687915,-0.28244558,-0.42517608,-0.8681695,0.7409335,0.39708117,-0.36017337,-0.49571076,-0.13440792,0.4303651,-0.5337275,-0.89518815,0.42156485,0.883051,0.21637098,-0.65940875,0.5271362,-0.33057308,0.7467556,-0.44432807,-0.47134644,0.73937696,-0.5469133,0.13009477,0.18921101,0.44951484,-0.505806,0.3999534,0.33063632,0.18609677,-0.08864292,1.1625909,0.92902786,-0.2990426,0.5333445,0.39009118,1.2505921,1.0545133,0.43157086,-0.4569646,-0.17757772,0.590292,-0.23839088,0.45813337,-0.12690322,-0.67177254,-0.49103224,-0.7762996,0.60659087,0.5084518,4.1051785E-4,-0.8717553,0.48118308,0.9156465,-0.5490095,0.7540305,0.04461588,-0.5320635,-0.8964624,-0.40623885,0.9641866,-0.26347777,1.1909237,0.5437468,0.6765362,0.056974545,-0.8149391,-0.38584888,-0.47666848,0.62647605
-1.9696398,-0.5357927,-2.2530022,-1.2282298,-2.2569547,-0.6086018,-0.30436158,-1.3716236,-0.80171573,-0.22134584,0.93839306,-1.8834682,-2.306201,0.53690636,-1.1977499,-2.0033293,-1.2174617,0.56481785,-0.3560608,-1.50781,-0.82097393,-3.2278316,-0.07275864,0.33026245,-0.8417344,-2.1508472,0.16101171,-1.1351093,0.43783668,-1.9567484,-2.4677608,-0.9283067,-0.50358635,-2.678648,0.3130702,-1.5238634,-0.7619207,-1.4140793,-1.1454924,-2.0624313,-3.461869,-0.48493633,-0.84899765,-2.1343343,-1.1297213,-1.8089082,0.31877622,0.7847769,0.38051128,0.99733585,-1.544641,0.84903973,-0.40402147,-0.33733693,-0.89106494,-3.0829246,3.2655604,0.88868713,-3.111174,-0.08450986,6.6945825,-2.1342955,4.586233,-3.163841,-2.0085294,3.6045828,2.2952743,-0.5501864,-2.4159482,-1.5392284,-4.2993646,-2.705022,-6.808885,-3.1413677,0.12069669,-2.392193,-0.5308871,-0.08698678,-1.6875621,0.4172889,-0.626092,0.14208005,-2.6955128,-0.34494236,6.0410337,-0.7612661,5.1323953,0.7719058,-1.3800164,-0.5257602,0.5354813,5.368077,2.422568,-1.1766226,-0.16099803,-1.736713,0.7889888,-2.6840565,5.883905,-1.184212,-0.33002484,1.5247332,-0.7698545,-0.82529265,-0.5759327,0.33016837,-1.840614,-0.6115399,0.36304143,-1.2071486,-0.26376656,1.5251298,0.067624606,1.1926134,-2.1569788,-0.6968457,-1.4495039,3.3313906,3.3499453,-0.84388995,0.022789061,-0.7771404,-0.31675142,-2.4095218,-1.2075962,-0.6767963,-0.19251265,0.4553052,2.413097,-0.76746815,-0.23728108,-0.27696192,-1.3967327,-1.9345875,-1.944108,-0.7956866,1.0468396,-2.7607238,-1.0763747,0.9147606,-0.40485728,0.73640746,-1.569843,0.53646314,0.6623305,-0.35386917,-0.09211796,-1.9044119,-2.0374777,-2.4432578,-2.1995525,-1.8097805,-0.30711988,-1.4477936,-0.31418714,-0.44673908,-0.67128533,-0.77341795,-2.3576102,0.4263476,-0.986595,0.06283639,-1.061206,0.72655606,-0.4320436,0.4166011,-1.018001,-1.6322466,-0.75231916,-0.39723846,-1.3530216,-0.3825508,0.2907275,-1.692944,-1.0918679,-2.3259695,0.38696066,0.27051845,-1.4048133,-0.70599,-0.58806336,-0.7161445,-0.25493863,0.72398555,0.2652339,-1.4074789,-0.033021104,0.52650774,-0.25915682,0.51920915,-0.79252315,0.4236694,-0.43692133,-1.2407484,0.060763597,1.1215945,1.1340376,1.3457457,0.47741792,-1.772868,-1.5846751,-0.84733695,1.6474587,0.11597712,0.4928087,-0.8659761,-0.7636145,-0.9398968,0.1420103,0.27707222,-1.4939337,0.6228173,-1.1762271,-0.7585137,0.88686657,1.3298373,-0.45537588,-0.62587184,-0.84716386,0.06933253,-0.62126845,0.7976094,-0.6595578,0.49562657,0.91129905,-0.44349247,0.07044373,-0.59871596,0.31780618,0.1580595,-0.5118366,0.061218195,0.34784624,-1.2017536,-0.3790728,0.08280354,-1.2291348,-1.8431079,1.5553865,-0.40419012,0.055058464,1.2581551,1.1586816,0.6646067,-0.9897106,-1.968868,0.3303336,-0.21928775,-1.1755421,-0.46290493,0.9098795,-0.9737261,-0.37244922,-2.6899192,1.1313415,-1.0234683,-0.6134206,2.3308504E-4,-0.5287207,0.28977883,0.54291606,1.1087341,-0.6868844,-1.6927452,1.333495,0.14617643,-1.1635797,1.0354621,0.30426222,0.8104455,0.3282185,-1.0795445,-0.06887369,-0.9428188,-0.5705713,0.57663447,-0.040351566,-0.4248108,-0.766811,0.10322128,0.23081136,-0.29652143,-0.41103193,0.26081416,-0.19709861,0.42880255,-0.66345024,-0.5462317,-0.547721,-0.5161449,-1.0912544,-0.9114368,0.5163449,-0.049831565,0.02100242,-0.12025481,0.13966088,-0.63564605,-0.19275936,-0.24269383,1.5927632,0.3102959,-0.92200327,-0.43717778,-1.2514708,-0.63410115,0.0038219008,-0.37757644,-0.75997406,-0.10397595,0.04512891,0.40326157,0.97848046,-0.9907582,-0.36575067,-1.1108353,0.3412127,-0.6326369,-1.0434463,0.88199663,-0.9799596,0.7975543,-0.8739467,-0.8288288,0.116567835,-0.19243746,0.79808056,-0.56419516,0.7740341,0.851273,-1.4944042,-0.50392956,0.76193887,0.446577,0.48343375,0.90569043,-1.1139895,-0.083678894,-0.941498,0.21781552,0.31060433,0.36471885,0.7296009,0.881603,-0.8171653,0.10198377,0.16466483,-0.35326996,-0.5911072,-1.0298585,-0.2011348,-0.7458909,0.47942233,0.8708294,0.112836964,-0.32611766,-0.7894757,-0.10912494,-0.7076377,0.6940604,-0.41622588,0.46841565,0.25238743,-0.86669576,0.39087936,-0.043866888,-0.74387354,-0.34895003,-0.29692757,0.076135665,-0.31490964,0.16976911,-0.19913031,-0.9235818,0.64101356,0.8615056,-0.34174868,-0.4639381,-0.25782937,0.61417454,-0.16126424,-0.07775171,-0.39357594,-0.26782978,0.74881524,0.9159213,0.8257328,-0.055632282,-0.3719443,-0.5804852
-2.8819194,-0.55513036,-2.4875162,-1.9102106,0.03863233,-1.6537634,0.2602499,-0.9225335,2.5498915,-1.3341768,1.7578834,-0.1279163,0.26690048,-0.385084,0.097186156,-0.4900732,-1.5881392,0.43146014,0.5642594,-0.518452,0.1390997,2.414754,-1.0461414,-2.7150955,-1.8796227,0.17002459,-2.106966,0.23061204,2.458711,0.74028856,-2.0579016,0.10283065,-0.5086067,-3.6840672,-0.15547344,1.850399,-0.27307978,-1.1057292,0.7558633,1.3612552,-2.1574543,0.6835584,0.20933439,-1.2007577,-1.7169065,-0.7493713,0.8352232,-0.48724702,0.59828776,-2.351163,-0.66638225,0.24661486,-7.689589,-1.6626956,0.8061175,1.3675673,-1.0155431,-0.45481625,1.3705293,2.3701196,-0.92174006,1.5039524,-1.121999,1.8618801,-2.744502,-0.45309585,-1.6140345,-1.6258427,-2.1673052,-4.1245737,0.23942545,0.16259745,-0.82401115,0.7321573,-0.11434621,-1.15282,-0.9871066,1.330378,-5.755607,1.2165755,-2.1116827,1.5578277,-2.5451863,-1.900137,0.061277125,-0.61771053,-2.8868484,0.39398926,5.028876,-1.0129777,-1.641716,4.083743,2.673559,-0.71144456,-0.46537757,-3.2559257,0.1624158,-0.45759007,-6.721039,0.35465375,1.8933557,-2.1071954,2.3166213,2.105498,0.44368646,-2.2441869,-0.6737541,-1.6186056,0.31298807,0.0708618,-2.1590307,-2.7490237,-0.93061244,0.392746,-1.3122861,0.0029256118,1.7255608,4.121992,3.6124015,-1.3064141,-0.2755738,-0.5680185,-0.8537895,0.26408035,-1.1481248,-0.12895818,-0.13215265,-1.1214515,1.8634117,-0.53300595,0.5919166,1.0750728,1.895223,0.4584605,2.1168003,-0.7839072,3.787929,-1.1634182,-3.3909628,-0.8604635,2.6272335,-1.1795942,0.5730515,2.9339585,-2.7211804,0.037074618,-0.63774383,0.9657579,1.9064354,2.4082065,-0.7225661,1.0830861,0.46341574,0.13709225,-1.1358742,-0.22533944,1.0424299,1.2432328,0.082269855,-0.5271477,-1.2046242,0.1321457,-6.1896625,0.17161909,0.42649034,0.43367523,0.5841848,-0.24427536,1.8476346,-3.7631342,0.022895526,-0.104212806,0.2687016,0.8248537,2.1257439,1.691552,2.494478,-0.91743815,-0.1793039,-1.0448949,0.6386574,-0.20609775,0.42477974,0.117844686,1.0603081,-0.36246032,-1.6856852,0.23561643,0.065880515,-2.9178464,0.009674372,-0.6033367,-0.12879173,-0.5252703,0.198282,-0.15724264,0.58434284,0.44781846,-0.5480205,-0.7547297,-0.1522228,0.32925808,1.3416573,-0.0019564796,0.09103273,0.20058922,-0.31425005,-0.50765073,-1.0137326,-1.0961912,0.6575671,0.33728957,-1.0531949,0.08920086,0.8237129,0.51411223,-1.8795805,-0.06491298,0.25475216,0.041034494,-1.2420658,2.2307267,-1.926086,0.072957136,-0.10649527,-0.40222254,-1.4237511,-0.9025969,1.1360422,0.71778893,0.4952818,-0.0762346,0.9821945,0.5942263,-0.20709877,-0.94117486,-0.07459683,0.27687302,-0.52652866,-0.79879177,0.12705399,-0.019365972,1.297069,-0.58769715,-0.150768,0.47099012,0.38304085,-0.19562565,-0.73682016,-0.63953507,-6.606201E-4,-0.7254457,0.17569718,-1.1789368,1.5074396,-0.8043891,0.9892585,0.13974515,0.03807629,-0.73340493,-0.15439607,-0.68219936,0.081690796,-0.19145782,0.9611932,-0.83121413,-0.79864764,0.5943962,-0.5971891,0.5858052,-0.42976004,0.7031313,-0.9311606,-1.261161,-0.60430294,-0.41555932,-0.88749826,-1.0015647,-0.89910936,0.13938458,-0.843792,-0.5828455,-0.86811924,-0.45633945,0.34541103,0.087737136,-0.4478272,-0.72664225,0.40572917,0.11570512,0.95501965,-0.40939453,0.41907084,0.90248746,-0.8055678,-0.84954363,-0.43951398,-0.21307017,-0.6171588,-0.8228998,-0.51782435,0.15060914,0.3437989,-0.44004333,0.09116472,-0.7293868,-0.09949673,0.3177095,0.92533964,-0.02445174,0.6462423,-0.0031432053,0.20424353,-0.9418178,0.86515045,-1.037726,0.3432849,0.9346037,-0.47115788,-0.27067024,0.59432554,0.6623844,-0.087032415,-0.757283,-0.48972452,-0.60415757,0.7972729,-0.0229733,0.90584683,-0.2237585,0.6427073,0.61236846,-0.12409092,-0.9088757,0.9710092,0.058465786,0.7088627,-0.5645269,0.8338584,0.85523546,0.20694731,0.74791175,0.2025879,0.42035913,0.51193297,-0.42929336,-0.5098274,0.8492688,-0.7949892,0.27810615,0.1189391,-0.73108584,0.3811476,-0.9075195,-0.46253464,0.07876301,-0.42275137,-0.1440267,0.43536675,-0.64109445,-0.769918,-0.053028796,-0.4584376,-0.8794138,-0.11808606,-0.14148888,-0.8278374,0.8366765,0.31769782,0.020043269,-0.7266067,0.3452272,0.48540455,-0.88737625,-0.56676966,0.23717342,-0.86104643,0.7036765,-0.0567257,-0.356415,0.26979947,-0.654011,0.22403896,-0.58642954,-0.14349245,-0.8344033,-0.94812185,0.50983524,0.06085574,0.37548217
-1.5956938,2.1327896,-1.3325137,3.2464268,-2.2466981,-1.0724624,-0.07391861,-0.6387072,-1.538596,2.9755032,1.62312,-3.4048455,0.795291,-0.7039971,-1.8107167,-3.698992,-2.1335533,-0.07712941,0.9365819,0.23223436,1.268545,-0.48363808,-2.3506322,-1.050826,-0.0044097994,3.5798688,-2.812881,-1.1554983,-0.81948555,-1.990842,-2.578681,0.109789506,-1.3663181,5.324915,-1.2978413,-0.27483964,-1.0490658,-0.95969903,-1.429692,-0.41662347,-2.7336817,1.6880503,-0.036947727,-2.9155114,1.0604415,-0.5467938,-0.8294333,-0.42411762,-0.29557633,-1.5032941,0.50350946,-1.204797,2.8190947,-1.0572772,1.4146192,0.7093128,2.5438015,0.022630533,-0.3298164,-3.6196203,-4.6349697,-0.905121,-0.13532889,-8.073407,-2.466495,-0.76483274,-2.5444357,-0.61005014,-0.8002242,-1.6574777,-1.9349195,0.9467683,-0.9165885,0.7952435,-3.6172676,-5.340093,-2.7600074,-0.49480683,7.2257695,-1.2557613,-0.8422369,-2.2847006,3.9927015,-1.5208646,-3.197545,-2.7695844,5.381203,0.90592664,1.5089962,-4.7841477,-2.0596929,0.9276795,4.445961,-1.6630101,-2.5441864,-2.9278445,-0.9830121,-1.5929295,4.3567276,1.3287349,-3.4270394,-1.1452389,-3.4844024,0.9682644,1.465762,-2.638202,-1.2237244,2.9773293,0.3874149,-1.7044303,0.29317403,1.5425019,1.7400644,-0.72594327,1.6051413,0.8025867,1.082734,-2.1490672,2.592656,-0.7687253,0.18553706,-3.0370255,-1.1343528,2.699779,0.9924253,-2.1534088,-0.8549751,-1.1995448,1.003466,0.35173905,-2.084142,0.5954442,-0.76593095,0.65143746,-2.7621322,-0.6466955,-3.2405293,1.2192138,1.8896899,0.6767529,2.1981447,-1.1915101,1.7329808,1.9463254,-1.269469,0.23842806,-1.0156829,0.29369116,-1.4759172,-0.68969,2.9093182,-1.4005294,-0.49064487,-0.32455698,1.2921864,-0.6326269,2.6752267,-0.5492501,-1.1389377,-0.87958366,0.6556411,-1.0970826,-4.6969414,0.8312914,-1.0971435,-0.4113325,-0.6726101,-0.8002788,-0.41786245,-0.34379444,1.9046221,-1.5748413,-0.38029498,-1.5579761,-0.18726403,-1.0830575,1.2431262,0.5700571,-0.8994931,-0.61082447,-0.30951732,-1.309444,0.4112726,0.06984854,-0.50691754,-0.80889404,-0.03883716,-1.2611277,-0.032468162,0.9600397,2.6905828,-0.55792665,-0.86483765,-1.2706316,0.874793,0.20120324,0.0043481896,-0.7870232,-0.49960878,-1.0329924,-0.34413034,-1.129415,1.7181935,0.14619677,-0.27792904,-0.9005724,-2.0191998,-0.602784,0.27223226,1.0436798,-0.4725113,-1.511386,-1.9565469,0.37767848,-0.3310445,0.29627708,0.07871727,-0.68572253,-0.7061841,-1.7408192,0.7726161,-0.13711776,1.1731899,0.21260916,-0.79217273,-0.66347176,-1.8252156,1.1948289,1.7049809,-0.81635064,-0.5092999,0.88779265,-1.7022516,0.18621483,-1.4944717,0.18433294,-0.8585878,-0.47772476,-0.07251909,-0.19440767,-1.3164641,-0.19501692,1.370226,0.34283918,0.18477145,-0.64912105,0.9798305,0.49762046,-0.036793314,0.23564997,0.9820794,-0.28935936,-2.7337298,0.27831024,1.1653044,-0.56427515,0.53344285,-0.98244715,-1.5908709,-0.71088725,-0.39098343,0.21330059,-0.6634899,-0.25218782,0.11803597,-0.70263845,-1.1905044,-0.5738153,1.1649036,-0.024524959,0.17674375,0.28010237,0.5880737,-0.49379954,-0.54490614,-0.4041493,0.8910309,-0.7266752,-0.5462331,-0.20332807,1.0172592,-1.0799074,-0.053565446,0.5968858,0.12368677,-0.954732,0.3755551,-0.2075904,-0.24636918,-0.17300063,0.30105057,0.33007395,-0.76275253,-0.11899039,-1.4027168,-0.83368653,-0.54480475,0.6700648,0.25044563,1.110134,0.124817915,0.026779836,-0.7636431,-0.24821004,0.017848238,0.93086106,0.94348055,-0.30428258,0.14494263,0.11510928,-1.1917291,-0.31413564,0.32406864,0.73561496,-0.027055366,0.48942623,0.6923464,0.23152617,0.27294457,-0.36886528,-0.0533475,-0.30450898,0.43970442,-0.69095516,-0.0519682,0.26981524,0.19023174,-0.15268275,-0.8403103,-0.025682697,-0.5047744,0.7676245,0.7274917,-0.97331446,0.6222798,0.6980096,-1.2374041,0.35127383,0.7320934,0.34367356,-0.7006211,0.5144487,1.0843842,-0.2998228,0.90080523,0.9139797,-0.6765096,0.8922967,0.071433835,0.680594,-0.7374355,-0.3268574,-0.5042034,-0.57025677,0.45115325,0.48420623,0.28839397,1.0547718,0.9825555,0.8737036,0.31474024,0.6618574,0.1531207,0.38670656,0.94993675,-0.72568876,0.57045054,0.33246377,0.52420145,0.52584416,-0.9585464,-0.7494445,-0.17777786,0.14010133,-0.21967438,-0.41505387,-0.23386312,-0.014204448,0.34209454,-0.65483683,-0.14651106,-0.15017113,-0.0056179003,0.41518584,-0.81056887,-0.60318774,-0.24630515,0.58612126,-0.2891554,-0.17821398
0.76915866,0.96503174,-1.5671552,-0.8924835,3.1486137,-2.8685539,-5.2680645,1.531982,3.0406597,2.3614197,2.923586,-2.275714,3.247612,-2.6446373,0.08785918,0.7212361,-1.5562073,0.14838102,2.0845766,0.02825733,-3.2352092,-1.4945372,-2.4017017,-1.5375588,1.119107,-2.891049,-0.9931542,-1.2647039,1.1924751,-2.0945687,-2.0059109,-1.0924821,1.1011604,-5.4942513,-1.5864736,-0.4317201,0.1396918,2.574429,1.5483038,-0.2123018,-0.53981405,1.4477072,-1.4200326,4.4942713,3.7901883,1.9156861,-0.5296035,0.9172035,-1.0908855,-3.5507917,0.55229986,0.33551398,-4.1279726,-1.8394208,-2.3630466,-1.5040795,-3.4931116,0.70333505,-1.5457536,-1.4654226,3.8103368,-0.51997524,3.5189111,-1.6380965,0.6336527,-5.492107,0.6076365,-0.23954718,-2.044385,-0.10893806,-0.53024447,-0.7660935,0.60024405,2.2124298,-4.071544,-1.2326257,-1.5681373,1.1593528,1.3147868,-0.07727887,0.8064165,0.7255185,3.948382,1.6247929,-1.7278066,0.42252868,-0.09651249,1.5645415,0.50543183,1.8789282,1.3345171,-0.8923606,-0.64472586,-0.8885929,0.26468578,1.8347201,2.3827884,1.3759662,-0.6783182,-1.3972911,-1.3896025,-0.71987724,0.4715624,-0.43509918,1.0549896,1.4447402,-1.599818,0.16013056,2.6648898,0.28328052,-3.101822,-1.5256417,0.34796596,-0.22337386,1.1633208,-1.3514186,1.2274454,-4.5289016,1.004092,1.7011759,-0.0027446635,1.5131983,-0.0864909,-0.5726642,0.78971875,0.2884901,1.1174799,-1.3867211,1.6337086,-0.6356924,-1.0333896,-1.259237,2.1018903,1.1744815,-0.27214637,-1.5760942,0.43024868,-0.29770884,1.5909318,0.030793406,1.5322096,-2.9599438,-1.4751847,-1.4180073,-1.0358272,-1.2043011,0.26471502,0.54775435,-1.4918956,-1.8809562,1.2243912,-0.50169796,-0.21130142,-0.9779559,0.8831679,0.6992563,-0.38671508,-1.5686265,1.9464952,0.57890594,-0.6703878,-0.6682374,-5.521476,-2.18851,1.364182,-0.5316942,-0.16886355,-0.03636906,-2.0396593,-1.3701955,-0.3090429,0.39308366,0.2680826,1.9564626,0.7090036,-0.38652968,0.28783634,-1.5238311,-1.2625117,-0.45709103,-0.04541471,0.8891048,-2.9277062,-1.0557828,-1.3064907,1.7708553,-0.19347544,-0.060866762,-4.6887774,0.4543088,0.0605946,0.6115356,0.34879512,-1.2911505,-1.6678724,-2.0956483,-0.29569578,-0.44968098,0.83267426,0.4039373,-0.59724545,-1.1786517,2.033961,-3.476933,0.09477362,0.53827816,-3.42051,-0.1660563,-1.1646439,-0.40973747,-1.1660515,-2.4135792,1.6257744,-0.9501246,-3.8094628,-1.7732208,1.4585829,-0.6179609,0.6282633,-1.006869,-0.69528544,-2.2591567,-1.2016175,0.34982845,0.19415605,-0.35723734,-1.9191581,0.030982906,0.7850721,-1.6975169,0.26907614,-0.21192566,-2.4443903,-0.6857459,-1.7176567,-0.44882503,-1.443699,-2.0909963,-0.05863058,0.11288045,-2.6601255,-0.5618259,-0.35787967,-0.9148211,0.32132074,-1.4938989,-1.4750134,-2.1623228,-0.056627363,-0.9948209,-0.34698465,-1.2376739,0.7519824,0.045961693,-0.9573723,-0.47854075,0.6951589,-0.7466715,-1.7586106,-0.027658978,-0.5225555,-0.48905563,-1.6130309,-2.4493952,-2.5926216,0.80882245,-1.4997257,0.20282339,0.74753,0.48842955,0.4890971,-0.6354732,-1.202138,-0.90427583,-0.084074914,-0.6264405,1.0454937,-0.9031019,-0.018933002,-0.3493224,0.99955463,-1.3874887,0.32270816,-0.5468764,-0.42239302,-0.67794466,-0.666144,-0.9496997,-0.81457543,-1.7322198,0.23442912,-0.8258289,-1.3319129,-0.33878323,-0.41960362,-0.6964337,-0.39622903,-0.5638144,0.08440392,-2.4983325,1.3416127,0.18391904,0.5833514,0.6892494,-0.72408575,0.030917728,-0.20052966,-0.7656291,-0.50190324,0.7940013,-1.3598602,1.1719252,-0.41295907,0.37279436,-0.2756079,-0.3574445,-0.07634552,-0.98979354,-0.5139504,-0.16973583,-0.6724146,0.605185,-0.15525137,-0.9535577,-0.9512275,1.7220396,-0.19681092,-0.49111137,0.6385474,1.2215774,-0.94210064,-0.6137549,0.2058382,-1.1522639,-0.20818873,0.2784114,-0.31275028,-0.93419725,-0.07557059,0.9680029,0.25534078,-0.99360454,1.1838712,-0.8650943,-0.9966492,-0.20023066,-0.33955798,-0.5780988,-0.12291043,0.37805802,-0.58599997,-0.5148992,-1.0102074,-0.41211373,-0.18210141,-0.36124903,-0.35531044,0.5234896,-0.9761997,0.4946963,0.2924239,-0.7784383,0.26850772,0.09799612,0.22695398,0.55243796,0.52553636,-0.514625,-0.8307899,0.88538545,-0.16139142,0.92166615,-0.666148,0.2474259,0.27747443,0.6154031,0.01698703,-1.1835421,0.025001198,-0.70787007,-0.85184616,0.75544876,0.26514706,-0.61717814,-0.38543513,-0.5907265,-0.23079288,0.9922451,0.067774646,-0.6698319
