1.4623322,1.7008934,-2.0732222,-3.071445,-1.8515136,1.1569782,2.025456,-4.055942,-2.5888078,0.6104102,2.7462137,1.7393591,-4.9966083,2.2694063,1.2109528,-2.833092,-2.4662807,-1.2299212,-12.152903,-4.1030254,-5.4023366,1.3301053,-2.7451403,-2.300262,-17.582434,0.82260865,-2.4995236,-1.8451943,2.6125336,-7.0279913,0.45773295,1.3183616,0.13332698,-2.026096,-6.780228,1.7383565,0.87614304,-1.6352344,-1.9075706,2.301492,1.8879205,2.460703,-2.448399,-3.3095355,0.10480203,-6.4277167,1.1523055,2.411056,2.5831742,0.96280354
1.4037217,-4.76517,-5.755012,-0.88386333,5.6576853,6.1080346,-4.368556,1.2945528,3.4129212,-7.3888803,-3.2492445,-1.2834239,-1.4611541,-1.525973,-6.2270775,6.2183065,-3.1286585,6.092145,3.4311903,0.9860307,-0.6943501,-2.956942,-3.373258,5.7721906,2.7344756,5.57503,-4.5054293,-2.3906481,3.7210877,-6.188221,6.1572924,4.3461537,6.3487997,6.092464,-2.9309096,-6.9286942,1.8590378,-3.8191817,-2.714794,-2.326653,-5.8401155,-2.3441541,-2.5175855,-0.7450343,-5.07951,5.4044127,3.1815376,-2.8962066,1.1165117,-5.7164874
-1.0751207,-1.7521162,2.3196409,3.0408628,1.8427436,-1.2452363,-2.7565258,3.581579,2.396943,0.26041755,-2.4559872,-1.8960551,0.9037572,-2.3609457,-1.2838873,1.9076614,2.3529272,-1.2972121,-8.200234,3.014143,5.4717436,-1.079932,1.9098904,0.7127225,-18.524496,-1.9767725,0.9956744,2.7779129,-4.559752,7.280158,-1.0085534,-1.7030518,-1.9120349,1.6240051,6.4412413,-1.2426021,-2.727808,5.259361,2.7123437,-2.7678018,-1.4272335,-2.660503,2.474486,3.156322,-1.1186235,-11.278084,-1.0369419,-2.3630729,-3.0850344,1.7168739
-6.423419,4.7279983,3.0610354,-1.3634526,-8.959114,-6.5743127,1.3036597,2.7683046,-4.545053,5.7729797,0.6359565,2.6190095,8.084062,-0.18985513,-0.152301,-3.8588638,2.7842832,1.7414784,4.420869,2.0198889,-0.11075409,-4.4705057,6.573133,0.107019246,9.517981,-3.1632555,8.369359,-8.252479,1.3847895,-0.8103787,-7.6267776,-6.8039203,-1.8720287,-6.452701,4.1169014,1.7550422,5.5085063,-2.5920374,-3.8079805,3.6631188,2.5960436,4.3499327,3.2067463,0.38324118,7.3587294,2.8651054,-6.471214,-0.70537734,-1.0214901,-12.540484
