0.836057,1.5307395,1.4549261,-5.4502354,-2.184375,-4.2781706,-1.9160336,0.45147392,-1.0449605,1.5679379,0.6401411,0.97646916,0.99988264,-1.635139,-1.9220841,-1.4839667,-1.6398251,-3.3764932,1.0340747,-2.1460452,-0.14703459,-1.4007828,-1.9093959,1.4307563,-2.0735612,-2.1724372,1.747415,-2.2844446,1.405308,-1.4633901,1.1638633,1.2917198,0.89607537,0.97367895,-2.8527694,-0.025940811,1.872046,-0.4125945,-0.60738504,1.3972498,1.555353,1.5793467,2.0000558,-0.101287685,1.60757,-0.62581944,1.2531819,1.8569111,1.3095547,-4.476494
2.1366346,-1.277965,0.6618901,1.4106272,1.6319048,1.2928802,-4.8321495,-0.14595842,2.802007,0.5715072,-4.44681,3.0210562,-2.5826585,-1.1541077,1.9803958,3.1262183,-1.7601744,4.427712,2.0049248,5.0769553,-4.728703,-3.3327818,-1.9553136,2.1333547,0.35219067,0.93912756,-3.4109857,-2.3177774,-3.7228937,-1.3256776,-5.1349406,-4.0473127,0.06481232,-4.16329,1.1612089,-5.6288867,1.2566115,-3.268692,2.55645,1.405136,-0.47635722,1.4491094,-1.7780399,2.0425673,1.1708204,-0.08502752,-0.699209,0.3380837,-0.45147032,-0.24133514
-1.8974128,-2.5614076,-1.7914674,-1.3268732,0.98303694,-5.4068704,1.5189111,-1.7956973,0.8487762,-1.3859273,-0.22036006,-1.2403021,-1.5836521,-1.4719533,1.7970444,1.0696185,0.47591364,1.9756243,-2.6219037,0.18094534,0.24004552,0.8812194,1.2448548,-1.526142,2.1289487,2.282423,3.0964806,2.1486406,0.6970193,1.4165179,-0.62266123,-2.3831673,-2.2185884,-1.3232546,2.033647,0.96728843,-2.4605582,1.0252153,0.6647404,-1.0133002,-1.1352915,-2.7624166,-2.1802435,0.3867473,-2.5110962,-1.5303336,-2.253056,-1.2347511,-1.3659769,-1.4903659
0.17445558,3.7345607,-1.4176003,4.354496,1.4297365,1.8428454,4.4417944,3.0743046,-3.7849698,-2.6489174,1.6081148,-3.420671,3.603894,-1.9339633,-3.548113,-2.0839877,4.3495526,-2.1075132,2.8833299,-1.3048376,3.5225477,3.962384,2.5085027,-2.9268906,-0.82633656,-1.5690666,-0.5784852,0.9575894,-5.2864842,-1.1911694,4.186389,4.876704,0.92571956,3.861384,2.087895,0.32594293,-0.021767454,-1.8101299,-3.1939538,-3.6099162,-1.4220644,1.7423344,1.2924613,-4.2525287,1.3575786,5.432616,1.2937964,-2.463985,-2.6009743,5.8582916
