-5.2661734,-0.36758238,-1.9381661,2.1197834,13.654176,3.2936468,-5.3464656,-4.1317534,-0.96926737,-4.1532555,-0.3896982,-2.2673514,0.3900686,-0.7102079,2.6586995,0.6884805,8.77102,-0.79166377,-3.6076846,4.420705,-0.24035034,7.240725,1.4037894,5.3764114,-4.2957425,4.368265,-3.8953102,-1.3865795,5.261888,-5.2797227,-7.337441,4.570379,9.50772,3.7517135,-2.7317,-0.6055073,-1.5543289,-0.3915759,-1.6336511,1.8564222,-4.646274,6.379917,5.0450807,2.1280916,1.8292028,2.9579701,-5.2952027,0.6022252,-0.4211669,8.524356,6.223741,-0.05534135,0.51803666,3.0655565,9.079783,1.567078,5.438539,8.129352,-5.2902937,3.664949,0.845378,1.4862978,1.4989806,5.4351115,3.5990376,1.7749319,-12.26403,-6.090287,2.0887568,3.8106134,3.0576825,9.109207,-2.1787608,-11.72227,-6.8402433,3.804753,2.3440206,-0.79010534,2.2148259,3.4710321,0.10079242,-5.287376,-3.2925413,7.398212,0.021194275,-11.98835,3.3756523,-4.6639686,2.4207978,-2.6138043,-2.8698874,-7.4124484,-8.076985,5.5040708,3.95813,2.4613912,-2.888927,-6.152345,-5.7380176,-9.884896,3.4114432,1.8853,3.485979,8.107373,-4.315181,-1.4567703,1.4373436,3.9668705,-1.6551635,5.3878236,2.6077092,6.995278,-0.6060512,-0.38339415,5.118483,-5.0690646,5.8223586,4.621184,0.4775639,3.4031982,0.75574404,-3.0448768,-4.4631896,1.2246904,-12.821214,3.0644705,0.0736088,-4.405011,7.723873,0.70439434,-6.1124525,6.94801,2.0218568,-1.3422427,1.4400681,5.39562,1.3672355,2.9707332,-1.412117,0.48920727,0.69759977,3.5903387,-3.6210809,8.643349,-1.8982266,-3.7479572,6.295492,-1.0125916,1.3947048,3.8541002,6.60358,1.9290056,0.059838552,1.1193259,-2.186031,2.4676266,3.071771,2.9705956,3.1408596,4.1994696,4.446719,2.0283334,2.7610548,0.78157526,-1.430863,-0.87953,2.0195625,1.0920227,6.5205975,-3.37011,-0.36045384,2.126533,4.405265,9.263801,3.285382,-1.6067624,-8.503708,5.8994503,-0.15978454,2.9691021,0.35309118,0.8230501,-4.516666,-2.9905756,-3.2154331,-5.036694,-3.4299002,0.037084542,4.991187,1.2029833,-7.0677114,0.74705094,-2.7312553,14.053993,-2.7474341,0.25180832,-6.6282554,2.6377296,0.62916696,-1.6983961,-1.4446148,4.7011185,-2.6272929,1.5387192,1.0263003,-0.019286752,3.06703,-2.4264631,6.1742306,-0.97525144,-3.403043,0.57621735,-6.6137033,0.47192118,0.59411097,1.946591,-3.3346426,-0.6334642,1.8888557,-1.6517344,-0.28068942,-0.9894195,2.4091609,-1.8868856,-0.634571,3.967957,2.8779273,10.047713,-0.83469546,-1.0820613,0.67053676,-0.74797416,0.6718095,-0.999927,-2.6167252,0.752588,3.6961405,3.1361961,-0.86225265,-0.18090276,1.6180753,1.6832633,2.5208876,0.08945325,-1.1041381,-0.48542458,-1.07255,2.2919238,-2.4973264,1.0055346,-0.965258,1.3236742,0.113978565,0.6726478,-0.15942332,3.1705604,0.68868876,-0.28406,0.064660415,0.797842,-0.7830926,-1.9535289,2.0160704,2.564627,4.3318844,0.45909494,2.4165962,-0.51170176,2.0027108,-0.9647856,0.6077343,1.6359341,0.73241496,-4.18694,0.68767565,0.48539618,-1.3111706,-0.123084806,3.0047727,-3.7411807,-2.0215456,1.9149833,0.8620496,0.04023905,2.7804635,1.1900798,3.0168571,1.4734274,1.5710986,2.076321,0.8774484,0.83165765,2.1581721,-0.5976948,-0.67627233,0.7411739,-0.55397075,0.69153005,-0.6424361,0.8766864,2.7357976,1.0854868,0.29937965,-0.29612792,5.033635,1.1892673,-0.03137488,-0.27395353,0.7538337,0.66565156,2.0049298,-0.5488903,-0.4349755,0.38289338,0.53986293,0.44249558,-0.6300961,0.76245904,0.6632797,0.08686392,0.86176735,-0.17967615,0.229199,3.335456,0.7855598,1.1214536,-3.7167172,1.0441799,0.59408164,0.67398363,2.0102718,-1.5808166,-0.6742818,0.60979027,0.7681051,0.52039033,2.0656023,-0.9355518,0.15297204,-0.49489203,-0.54630125,0.75570625,-0.42648855,0.1319032,0.652133,0.19036002,-0.3366122,0.27994734,-0.616661,1.2733572,-0.6905261,-2.4542537,-0.22969304,0.9565463,-0.36738572,-0.48002923,0.93975556,-0.8244503,0.43697885,0.77893883,0.9711385,0.4740531,0.3922808,-0.30255634,0.18734728,-0.7972249,-0.5985294,-0.18867843,0.8143503,-0.7709886,0.20208623,-0.8171393,-0.15633863,0.61749464,-0.2135491,0.07541627,-0.16383398,-0.09772581,-0.3962495,0.4034592,0.44478798,0.84685767,0.30054295,-0.14427687,0.14908944,-0.3919272,0.5799532,-0.7309532,-0.39051402,0.1998298
3.1814172,-6.839057,-6.9291625,-4.4000506,2.07039,10.4244175,2.5339406,-0.81953496,2.379078,7.3386035,3.860085,0.06348781,-1.3151281,-1.9164083,-1.5534678,-0.61224973,-1.1016891,4.4593143,1.7195717,4.062173,-1.7400131,-6.8804226,2.8222754,-0.25380468,-0.35206008,7.1120763,9.028577,-2.539955,-1.9050266,2.0364177,0.21557589,2.9149003,2.2682128,-0.69095033,7.2034993,0.2348554,-0.32592514,-9.126731,-0.0045299926,0.5092279,3.6540053,2.2398655,2.877538,-5.098441,8.688768,-1.492863,4.326124,-0.6572674,-0.9547244,-2.7210166,-6.573787,1.7942501,5.271392,1.8396407,1.7413976,1.0910097,6.6524324,-0.86530185,-2.2536151,-3.9755933,1.7614713,-4.605295,4.0175767,1.0909967,-0.9708965,6.9683685,9.707457,-7.0988507,-3.848948,-13.024851,-0.8140918,-0.7187499,5.8420596,-5.496908,-5.5239167,0.1471623,-0.82645595,4.1511116,-9.116841,1.7581697,-1.2240924,-2.6365635,-4.041781,4.5861483,4.2222486,-2.1319761,-9.913495,5.005891,0.3911296,1.1647513,4.373685,7.513806,-2.2911158,-3.2271655,4.859453,-0.5533144,2.7830265,0.33548674,-5.9065514,1.6896689,2.4393325,1.1688818,4.8883586,10.847239,0.622461,-4.443874,-7.714593,18.736526,-3.8621886,-0.74592894,2.4173965,2.9630828,-1.6304159,-0.8425743,0.42262807,-3.6100836,5.3724985,-3.0289588,-2.7797644,11.3763485,-0.5226461,7.441079,0.30329928,7.0890393,-4.38677,-4.860992,5.576254,-0.5337415,0.7293957,-0.4701108,13.998467,1.4043885,5.1229963,0.0044008824,1.8705231,-2.3915124,6.144493,0.6604895,3.6044059,-1.3084079,4.567135,-1.1176986,1.9149855,-0.33292,6.341488,1.085561,-0.8558617,-0.25634533,2.4060788,-6.51224,7.089076,7.761843,-1.2755145,1.2303184,-1.855718,-0.06741397,7.1769342,2.7182698,1.9328864,1.4701779,2.4807906,0.015936216,2.5692499,-1.4253304,9.729119,0.8082024,1.2833924,3.1870544,-2.744549,9.279226,9.106002,-0.2322311,-0.065038264,0.5869541,6.554968,3.299161,-0.65092796,-3.5019572,2.0392046,-2.1819463,3.1405678,-2.2350676,-2.2244935,-4.9129167,3.4346278,12.813871,-2.2890139,-2.0385733,-0.98761433,5.3783307,-2.4454212,-0.81933683,1.2699451,4.5359025,-0.41215876,-2.3911974,3.504451,-0.4919498,0.12799591,-3.427427,3.7745368,5.4689937,-1.5263797,5.525701,-1.9039507,0.27275172,4.162628,-4.008477,0.62036484,2.8233736,7.1099467,2.7167754,2.779848,1.7242707,2.4001102,-0.08546214,1.0890007,0.29841387,0.90724957,-6.6094275,-0.6347391,-1.8097047,4.6621513,1.214461,0.6139046,-5.1378546,-2.2087877,-1.9886477,2.0751493,5.2026315,0.5266218,-1.4285349,3.3697357,-0.7968434,2.5409708,2.2693152,-0.5617939,3.6073127,-2.3643563,-0.21579291,5.217498,3.0935216,7.9334927,-0.17027366,0.6940421,-0.54260063,3.7126858,-0.22445898,0.34913114,1.2466757,-0.9237714,-3.4219763,6.9685273,0.25890687,3.5238142,2.6727636,-0.09935426,-1.9011648,5.2541537,-0.90460926,2.447321,-1.1912993,0.40124238,4.9991727,3.5634649,-0.76822454,-0.80532795,0.39584365,2.562937,-0.07125518,0.4698853,3.0244117,1.1574965,1.5466142,2.3740926,0.07836833,-0.83492625,1.5587631,1.6548556,4.033822,-1.8368977,2.6129327,0.7082817,-0.16327056,2.5850275,0.7731388,2.2521539,1.5917313,1.1636603,3.8388014,3.1632745,-0.7973864,1.8076011,-0.39102572,1.2587454,0.3374497,0.47732314,-0.18842003,0.68346065,0.20736142,-0.35559624,-0.13151886,-0.44733703,-0.3813711,-1.3949418,0.31111658,1.3108464,1.7316569,-0.6602381,0.56935,2.7039356,-1.3066803,1.1794848,-0.51460224,0.8313429,1.5551306,1.8961395,0.72207767,0.2074361,0.27942502,0.50179553,0.83247787,-0.796499,2.006585,0.49937883,0.51618165,1.2155235,0.008722141,0.9267552,-0.50287604,-0.97372633,-0.70339954,-0.35605487,1.129767,0.8543702,-0.5780474,0.7080091,-0.1736285,1.0323796,0.5560874,0.7747301,0.2581008,0.46692258,-0.18407257,-0.24729843,0.7231421,-0.04359911,0.81934434,0.9767173,1.6142256,1.1185048,0.89623415,0.27666292,0.39461917,0.5530052,0.83300406,2.0269978,-0.8549214,0.38311145,-0.18039662,0.9028471,0.895676,1.6654558,0.92927253,0.8049648,-0.6771003,0.426886,0.62948006,0.42248127,0.5494719,0.60475355,-0.66397834,-0.86367553,0.31037956,-0.40321723,-0.19687325,0.36349308,1.3175703,-0.91796386,0.18012667,0.43854156,0.1693632,0.5858861,1.553319,-0.8851194,0.97540915,-0.3902273,-0.22113933,0.45277408,-0.046034902
-5.7688923,-0.89677614,1.955973,3.2967036,-4.0545263,10.785537,-1.9373881,2.0487013,-9.822506,-6.3045444,-3.6917093,1.1594326,-4.85422,-1.6612434,-2.9261372,3.4337273,7.1041484,-10.259678,-4.8487544,4.8905845,0.042857092,2.3683896,-12.163065,-2.485087,-1.9015181,2.6095133,-12.103988,0.566801,2.7917006,3.3228037,-1.522852,4.440444,4.247617,-7.6047354,-10.617048,-1.8027885,0.83687025,-0.6100338,7.74263,-4.9271445,-4.323959,-2.4029782,1.8307474,1.7314912,-1.7446692,3.5217512,-6.334318,-2.8414593,-5.7713523,0.84275043,-1.5867779,-2.931302,1.8461045,-1.014111,2.204644,-6.1858363,5.441149,-6.0343227,-5.9790373,-3.6050656,-2.1962736,-0.4806491,-3.7864115,-4.1367836,0.67547506,12.446261,3.2416496,-7.4713025,-7.487485,-4.7577167,-2.1594257,-0.73932004,-2.0120769,7.1112957,-3.9836802,-0.6704587,-0.7169845,-9.99957,2.9406588,2.4620972,-4.472856,0.038932964,3.463819,-6.6691546,18.621368,-4.866089,0.94419664,-0.9638286,-3.5812416,-2.8858275,-2.4972415,-2.7703726,4.4288793,-4.469171,13.326778,-1.6368536,-6.385251,-2.2118015,0.086435355,1.2976594,-7.6029687,-5.1597004,1.1040609,-6.8803735,-0.24877888,-4.4559765,-1.1296319,-3.3005033,-1.8497249,-3.9932597,2.273126,-2.6195807,-0.8140915,1.0516198,-7.674445,1.4392372,6.274587,-5.4211164,0.27635935,-2.9635053,3.2722714,-2.5081494,2.2588785,5.884883,-11.29059,-5.4922004,-8.057036,4.191782,-0.62342525,1.4439167,-0.9586144,1.0623077,0.62308544,0.3594116,1.582357,-4.031635,2.6094558,1.0601951,-2.3859944,-1.0657116,-4.5021462,1.4965676,0.96322894,-3.0572453,0.7671151,-5.390968,2.0021164,-5.595574,2.4972255,2.5875132,-3.6707122,-1.9481937,-2.6719034,-3.9746702,-10.4759865,-1.9986033,-3.749841,-8.986838,0.39497292,6.6943407,0.99833655,5.0925946,3.685092,-3.4144065,-2.6024284,-0.80301785,2.2403226,4.5906324,-8.6154175,-2.4907215,-3.8319316,7.875079,2.488325,4.8493013,0.53874016,-3.1245854,1.0199624,-3.639863,-1.7141516,1.5069517,-2.1519701,1.6839955,-0.45399162,-4.3287287,-4.8672523,2.533579,4.0749073,0.7626543,-2.4929514,-2.7554889,-0.3097793,1.2396305,-0.26809663,4.497886,-2.7860389,3.1604967,1.470513,-0.18888116,-0.32906076,-1.0183253,-1.8693732,10.496152,2.9288366,-2.5073,-1.3005234,1.8431971,-0.87993294,0.8547704,-7.7729654,1.6532916,3.4215577,-4.0146384,1.0238167,-0.69301695,-1.7850645,-3.414856,4.3282075,-0.7593645,-1.6678375,-1.3562878,5.8682632,2.2867713,3.8171372,-0.23348014,-0.9931583,-2.2698526,1.2048512,-1.219888,-1.1726156,-1.6695107,-0.6101714,2.96754,-5.5488896,-2.4505236,-2.4157348,0.15026365,-1.6148522,-1.9572886,4.3760653,1.4842805,0.8679226,0.64246196,-1.8300619,-0.59007996,-0.21430783,0.9255634,-3.945388,4.031233,1.0231924,-0.43402907,1.324573,5.926891,-8.874541,3.0946295,-2.358772,-1.7316662,0.25976515,1.6743674,-2.6735413,-0.48645115,-1.7513435,0.33691475,-1.4566768,-3.2793808,5.460352,-0.28741163,-3.9053166,-0.5328462,-2.9476395,-0.15842247,0.08152239,-0.29913563,0.28962097,-5.3212214,2.8645175,-0.7064599,-0.8049666,1.8323368,-1.7089608,-5.3772597,0.9150261,-2.924748,0.7493559,0.19858024,-2.4687142,0.23532459,-1.4951521,0.07461641,-1.0830841,-2.58606,1.8079845,0.18743071,-3.3505661,0.6865484,0.38237098,0.16204469,0.44409207,-1.8218827,0.062284015,4.332765,-4.3016047,-1.0028186,-0.75737554,-0.57168156,-2.6116784,-4.2291627,-0.8951845,-0.5681145,0.74795336,-0.4269719,-1.9911362,-0.51708525,-1.2436974,-0.39648983,-0.66743124,-0.9319459,-2.1642783,-0.893069,-2.058265,0.69436634,-0.075939395,0.7185615,-0.09187054,-0.34260392,-0.8977038,-2.9757073,2.3096037,-0.5052762,-0.1490735,1.7418008,1.3358644,0.7655567,1.1566441,-0.42142305,0.7900116,0.123063385,-0.66439396,0.8694155,-0.30975616,-0.89489233,-1.5868876,-1.4163465,2.587987,-0.9618267,-0.9617139,-0.18924539,-0.55867386,-0.14604753,-0.9343538,-2.2522113,0.14698128,1.0201209,0.19189751,-0.7624215,-0.22283016,0.20420071,-2.6092367,1.0361108,-0.5816943,0.26039445,-0.66191435,-0.400919,-1.5704299,-0.76888543,-0.6632799,0.21220872,-0.31288674,0.15815604,1.6525497,0.6510556,-0.6787027,0.84341806,-0.80892485,-0.6639484,0.8876666,-0.92629695,-0.4365691,-0.1053779,0.28921765,-0.85608196,0.0655221,-0.9831473,-0.49849415,-0.41243383,0.87467974,0.7919841,0.018817376,0.7626087,-0.59586406,-0.650807
-0.068781964,-2.5781868,0.26817814,2.4724221,-3.9413192,2.45935,-3.561404,-3.1741076,-3.4871132,-2.4443507,10.144101,-0.614439,-0.6125468,6.2186217,4.252839,1.1520941,4.3870115,-0.8744203,-0.43538645,1.5756366,2.144513,-0.46187046,-3.153177,5.0283093,-1.6483792,-2.2854595,-4.0439563,4.4304657,-5.0776405,8.988453,-2.1829085,-0.64709854,-1.8123547,1.6084507,1.0578055,-1.679981,-3.542473,5.6310472,2.4909396,-0.4883713,-0.73665047,-1.4144393,-3.146086,1.6524442,-5.858224,6.6461015,2.731984,-0.012729333,3.0318623,8.613632,-8.066137,-2.082056,3.4708354,4.929493,6.6213155,2.6745672,0.9062058,-3.4915247,-2.3474035,5.0961127,4.8666873,4.0728803,-4.9214315,3.353093,-4.058789,-0.7114431,5.896396,7.56031,-4.514989,-0.10785116,-0.06563105,2.5442517,-0.48954326,3.0918694,-3.9924767,5.0340953,-6.887285,0.7310865,6.008882,-4.659114,-0.9645483,1.9724246,0.5756374,0.1301787,9.434186,7.390611,-2.7415786,-3.2122552,-1.5116242,-6.669726,-8.254412,-2.2724135,-11.962218,-4.2990174,7.9119744,-9.350188,-0.71331084,-0.9117763,-11.44103,-8.203289,-4.4551873,4.707471,-2.6178973,0.790698,-3.6259348,-2.1404917,5.8526754,-6.4780297,9.503148,7.336247,-1.0804739,-3.4842677,16.396757,1.863675,0.6397126,13.018919,1.5652379,2.0175135,-3.587116,12.918493,3.3293307,4.4227533,0.15268213,-1.5434266,-1.4287982,-2.2946002,0.5016515,-4.928324,4.225245,-1.3991139,-1.5357987,1.108193,11.247991,5.4944606,-1.804341,-1.5382345,-2.3083012,-2.358825,10.035188,0.05322063,-3.0810635,-4.6207337,5.067966,3.2703202,2.9127471,-0.3006078,-1.7512859,-0.66910607,3.765008,-0.39633617,6.7959013,-1.1911241,-1.1843132,-2.153426,3.756022,2.0345848,-0.31208912,-3.8186665,3.8763263,1.1428695,0.64653915,-1.5291756,9.159187,6.5450406,5.6091437,-1.4916471,-3.1933074,8.146537,7.598523,3.2217517,2.7110596,3.941721,-1.7302083,-7.037092,1.531487,2.401204,4.732122,3.3937993,-0.8851926,-0.6792522,-5.6686354,6.3680468,2.6289868,-0.26315385,2.5583959,-3.4661865,-3.5317156,-1.1491752,6.259314,1.7567571,-1.8620256,1.0167623,-0.41452596,-10.207872,-7.0451326,-7.763343,5.746691,-1.8939058,0.33576128,-0.80360913,0.40583313,4.8641086,-4.405637,-2.3039048,0.3244446,2.216491,-1.8577282,0.84995276,3.6398096,-2.1287584,-1.1053016,3.2419071,-8.213355,-1.0156395,-2.885467,-0.20222686,0.1887707,-0.43642715,-0.27686596,-0.25579217,-2.5669644,-4.2417507,-0.94880146,0.083194755,0.14124128,6.717026,0.12120532,5.6109695,-3.3329554,-4.5471487,-0.23557045,0.09590372,-5.273151,2.2803946,-0.5860212,1.5959141,-0.9915579,-6.9035935,11.096385,0.37165457,-5.0263257,-1.5625587,-3.9623973,-0.8844335,-1.2239956,-1.1782036,-0.5634232,-4.655096,-3.6291878,-0.042567886,2.7890315,-2.5183492,4.7600126,-2.2872033,2.5134964,-3.9437864,0.6428167,1.5832762,-0.47460824,0.0016758419,0.03560961,0.37014487,-0.31782198,-3.242743,7.203727,-0.6931528,-2.9267566,-0.09689472,2.1287332,-0.572741,-0.14686371,0.8202246,-2.4483106,-5.4418125,-2.6861448,-0.42712167,1.0795561,4.121963,2.077126,-2.2525394,1.800617,-3.1545982,0.8938424,0.12186714,-2.2029445,0.25519893,-0.016107336,-1.4362175,-2.228459,-2.2537465,-0.335461,0.46028695,-1.3226281,0.71638006,-1.8392167,-0.34167272,0.78492963,-1.0200146,0.28444275,0.88933533,3.3977234,-0.90799814,0.6398315,0.5624409,2.9220612,-0.88301754,1.115856,-2.012768,0.3368783,-0.14268333,-0.6426104,0.02387753,0.5796933,0.39695933,0.5901461,-3.1063788,0.32794693,0.36116037,-1.6388588,-0.9299536,0.2909681,-0.19415359,-0.71627873,-0.79513526,-0.6443436,3.458359,-0.8181475,0.1942291,-0.8751933,-1.771962,-0.2810848,2.1113453,-0.16064131,-0.76147217,-0.6844087,-0.67325777,-0.63212,0.16990855,-1.184053,-0.1330691,-0.24515481,-0.9286956,-1.172383,-0.50513023,0.3883318,0.30390087,-0.9478833,0.20201696,0.5592754,-0.54827857,0.10289408,0.2610133,-0.06247247,0.785544,0.7006852,1.0191593,-0.16737747,-0.23476341,-0.042538013,-0.9128745,0.8429461,-0.59411764,-0.89547396,0.08985563,0.68435234,-0.96782166,0.48173106,0.0014885538,1.4202785,-0.10907537,-0.90481603,0.9368844,-0.86173975,0.32966816,-0.3941014,-1.041623,0.32912627,0.1785715,0.8609538,0.85399,-0.85689664,0.7349207,-2.5527174,-0.43128118,-0.10683053,-0.84999746,0.4278584,-0.43391305,-0.2719181,0.35440868
1.2084835,-0.99960506,-5.7101593,-1.000039,-1.5502603,-6.6777205,-4.5662374,-7.1060724,-5.7015586,-5.173009,-7.2751117,-2.313936,-3.1133618,-7.4818263,1.8197076,-9.42709,-3.233153,-1.4197254,-5.9511623,-10.29069,-4.663696,-4.25207,-4.9955,-2.480199,-4.590183,-2.7217405,-1.8385266,-3.190734,-1.0195287,-1.8285487,-4.1702046,-1.7701797,-6.348457,-1.9331272,-2.523794,-2.2718709,-2.7880237,-10.223742,1.0640689,-7.19367,-2.958366,-0.40002778,-2.220506,-12.665914,-0.9351146,-4.126618,-4.5655127,-5.696774,-6.8808045,-4.7035723,-6.0917873,-1.8642737,1.4712571,-0.51299894,-7.8871093,-5.598061,3.5947247,-4.6436296,-4.313073,0.23397405,0.1440702,-10.3321085,-5.9161477,-2.4803178,-4.8148036,0.4740043,2.4164414,-1.4689032,-9.737476,-8.085411,-6.967222,-9.082822,-0.7301989,-0.47678193,3.1796744,-0.88709533,-11.628686,-1.8033772,-0.26889133,-6.0820494,-4.685331,3.1168005,0.52627873,-5.2183094,5.6701713,0.12011219,-5.373565,0.45526084,-9.155182,-4.6923404,-4.753249,-1.3501776,3.6604753,-3.0112274,-1.398398,-15.142178,-3.43661,-3.496629,-3.8340998,4.139343,2.0909278,5.024915,2.0447993,3.4700227,-10.017072,0.9430715,4.6007414,5.2263947,1.6890256,5.509204,4.053591,9.544586,12.8283415,6.1504984,2.0862627,2.2344162,4.629275,-3.9479482,-5.443821,-1.3890641,2.0717664,0.30447724,-1.7691727,3.9703467,12.9758415,-3.2554336,2.7905216,6.273624,4.861146,1.3186218,9.03487,1.8015479,-5.8418202,2.0987234,6.6997333,1.8660363,-2.6606708,8.682148,5.1822906,1.6926702,-2.8861933,6.620375,1.6357104,-4.7819014,-1.8799669,-1.6637259,1.1586367,5.199581,0.11996567,-0.89002556,6.660349,0.4395698,5.613313,1.5194451,-4.0773377,2.0410402,-0.14538884,-6.630067,-2.9773421,-5.971192,1.7400117,-2.8702202,-12.356422,0.36038226,-4.0075574,2.9506133,-4.9517026,-1.699481,1.5454657,-4.977169,3.3142388,-4.0187035,0.5544618,-3.164393,-2.8069575,-13.459179,3.651509,0.5589522,1.4161482,-1.1511166,2.7505012,-0.57194084,-3.9836564,-0.4002379,-0.32459947,4.6569076,-0.94704515,-0.6170405,3.1408944,2.659065,-1.0431052,0.48303807,-0.97800106,3.5478282,5.3862543,4.9156113,0.685489,-0.5939266,0.31696194,1.0369987,-1.9864843,-6.8427215,-0.26307932,-0.37371278,-1.3999894,1.0688905,4.126519,1.7176424,2.114674,-0.42142028,-3.2574165,4.6120257,-4.56722,-0.40736952,1.8286533,0.6754303,-7.584187,-0.0308658,-2.7191217,3.9128356,-0.6807851,1.8396598,-2.3907135,-1.4542738,-2.327523,0.23797013,-1.0839698,-2.555319,-2.7389176,-0.66227907,0.8580498,1.9200047,-1.8637034,-0.879237,1.2001289,-2.262022,-2.1388273,-2.4266596,5.5557194,0.82365674,6.318829,-2.0118554,-4.510412,0.9720602,0.20899679,0.4490576,-1.2587799,1.4520375,-0.86661613,-0.56029284,0.8548592,-2.9628859,4.1870537,-0.5105216,0.021134533,-1.0951803,0.3440609,0.44044417,0.29880053,-0.06224227,0.85302377,-0.19988424,-0.30398685,-1.3152645,-0.2564795,0.7554016,2.4612138,0.5615543,2.7557755,0.42575568,-0.25485775,-3.2509782,-0.15056051,-4.212624,-3.8056626,-0.9546359,0.692144,-1.3209287,-1.1929226,-0.44103146,-0.108184695,0.04157722,-0.5896341,-0.39679793,-0.85262656,0.33597952,-0.34083754,-0.61416316,-1.0573916,-0.62952363,-3.9982667,0.5617551,-1.5010933,-0.4330723,1.1272358,-0.29865065,-0.4624181,0.72407657,0.55380124,-1.8467264,-0.33994657,-1.9330217,0.72778237,-0.042565,-3.136721,-2.5265405,-0.3235117,-1.2292131,0.56506735,0.61448956,-0.87303925,-0.6033232,-0.015689803,0.7275383,-0.096681334,-1.8907145,-0.0044800155,-0.6470353,0.48924705,-0.14253919,-1.0644134,0.019155407,0.64911026,-1.5560163,-0.5406129,1.8018496,-0.38814253,0.96560436,-0.5037533,1.4062021,-2.2245097,-0.47810003,-0.6148006,-0.40292066,-0.8463378,-0.97223985,0.1719654,-0.13669066,-0.94764555,-0.12971804,-0.17384596,-0.91035986,0.7392886,-0.89083546,-0.61016387,0.6052056,0.84101117,0.42492986,0.69230133,-0.036566667,0.47703096,-0.59165,1.0087514,-0.9965437,-0.8937566,0.37854937,1.9543034,0.93766654,-0.9416423,0.34469843,-0.011142211,-0.6997668,0.6338944,-0.8992996,0.3508042,0.9264411,-0.020041924,-0.79233366,0.7414675,-0.92079395,-0.5977344,-0.582964,0.71767384,0.8894771,0.29355615,-0.2529385,-0.25890034,-1.0722789,0.91016173,0.8691905,-0.30815333,0.7815789,0.37242648,-0.24925958,0.19555566,-0.8601226,0.96112895,-0.460801,0.6987238,-0.012185207
13.306298,-1.2249323,7.5921807,1.0889558,15.940732,0.92928535,0.5926407,-4.3308835,-0.12749738,-1.0204052,2.7603934,8.762472,-1.6608685,-6.1795707,1.7172124,0.07840013,2.982268,-4.383429,-8.414638,-0.28818494,-4.6512136,1.9260352,-1.7615325,3.1577246,-1.6581199,2.5241473,-6.946949,5.782607,6.4433036,0.89447236,-0.6676013,1.4544232,1.3494159,11.101778,-3.8381865,-0.8491124,3.418737,2.938338,-2.86361,2.0336244,-0.660229,2.4413223,2.38243,4.4202952,0.38840428,8.449236,-3.3445635,-1.3936348,1.1337532,-1.1372484,2.0293765,-3.5741386,12.860266,-0.62284243,1.6614027,-1.8756671,6.391667,11.753039,-1.6304439,-1.9070514,4.793183,-3.2924418,-2.7532666,6.727541,-8.44658,-0.52957886,18.535002,1.0361719,6.5848002,-6.103249,-1.1628774,1.5281513,-5.914948,2.3801126,-1.794932,-1.6765944,-2.9189982,4.9105096,4.303175,3.9128678,0.54094017,-3.9154642,7.7842865,0.753023,7.8835893,-5.0142913,4.06025,-8.119521,1.4257718,5.732558,2.2197833,-1.8905724,2.7852979,-1.6301293,3.4974968,12.210725,3.1032686,0.009665246,8.199408,-7.0716567,7.8356028,3.8034205,-3.0625453,5.6632423,11.451967,-1.061343,0.33723414,-1.4729198,0.7935489,2.7711513,3.847949,0.94460946,5.174099,1.4450927,0.63505316,12.522305,0.68859285,-8.921313,3.6828394,5.8000345,0.33605736,2.9008305,-1.0332143,7.214639,17.36179,2.802028,2.0814784,4.571722,4.2644725,4.575091,-4.2376595,2.4666307,1.6462746,-3.373205,0.69714075,0.8282811,-1.1612875,-0.9143453,-1.2960666,0.13175988,0.8863891,6.6536784,-6.932922,-1.8480084,-1.8767968,3.635037,0.80767554,-4.542273,-0.5018412,8.375021,0.6847051,-3.365164,3.5551834,1.5987158,6.4347987,0.68529874,-1.7315904,1.8223752,-4.1448946,4.672633,-3.0496814,-0.17121097,5.0694437,0.85662204,1.987049,-0.78991014,-1.883547,2.9084287,0.19257829,3.462254,1.140987,0.94015896,-1.4403746,-3.2672086,4.26842,0.32608575,-6.4570675,1.305293,0.26406485,4.1009192,-2.5952594,-1.489804,-0.72541857,-5.3225493,0.8899563,4.8223367,5.1103425,2.5216541,4.6992,3.1248984,-3.117274,-0.033334367,-0.14305632,-1.7097965,-1.3776314,4.316205,-0.21295041,3.9060469,1.7567625,-0.35774925,2.37256,0.9261559,-0.34346515,3.181404,0.1818179,-0.25630763,7.1722827,1.6567751,3.8673046,2.152747,-0.59126383,1.4185299,-5.4912257,0.063479945,2.3806195,3.406037,1.7720025,0.8993783,-0.81994367,0.005039465,3.28237,5.76536,4.8786883,1.9044684,-1.3431294,2.6111283,0.42757034,3.114782,7.925483,3.6383696,-0.6057176,-0.16923738,2.608613,-0.43576717,0.70426697,0.5044993,2.9285827,3.1521187,4.1756783,0.011403629,3.8324637,-1.0065539,-0.78611606,0.89289373,0.6558098,-0.75118214,0.18568651,7.289374,0.8721793,-1.1271701,-0.9456163,3.637202,5.597427,-1.1061733,-1.5288666,0.3414516,0.31383625,-0.40333784,1.6815193,0.9182245,0.58643335,1.3630277,2.9023495,2.0651977,-3.8400152,-0.08664388,-0.04207327,1.0407795,-2.4367683,-0.1585636,-0.16437456,-0.6775328,1.2760864,2.796375,2.6754904,-0.6390293,-0.07175509,0.9284059,4.753342,0.31720403,-1.7394805,0.2494688,1.0295665,0.72759223,1.9283342,-0.44787636,-0.12424085,-0.11772476,1.4643679,2.9826615,2.3296287,-0.04546487,2.0965114,-0.32362124,1.6954315,-0.64231384,-0.81667215,0.69507885,-0.7076004,2.8056073,0.9339466,0.28785446,0.12701574,-2.273079,-0.61640316,1.4747183,-0.83840996,0.7130354,-0.34712243,0.10157922,0.98232955,0.5049835,0.75966823,-0.6814576,0.8133454,1.1033254,-0.6512864,0.7642744,1.5160413,0.806979,1.6684419,0.7272373,0.9828478,1.3893082,-0.44280797,1.2509882,0.7850633,0.022070307,0.63778144,-0.6321052,2.391648,-0.9189519,-1.5751916,-0.36373115,0.05695214,0.89505506,1.4833351,0.19604023,0.71237147,-0.09889793,-0.13547963,-0.44718558,-1.1306242,-0.42499933,-0.0627888,0.5114194,-0.82900155,-0.9160354,0.7253913,0.3807968,0.38704413,-0.07292105,0.41482642,-0.3364366,-0.28184378,0.5965436,2.3315954,0.700036,-0.41647595,-0.87243176,0.818193,0.55217034,1.4820329,0.08610451,-0.6001074,0.95232034,-0.68251216,-0.0029792646,-0.21128207,0.56266963,-0.64055175,-0.06677571,-0.009620568,-0.65474796,0.28556415,-0.7861281,0.2538978,1.1960484,-0.35363564,-0.3432284,0.15987915,-0.39364174,-0.71801305,-0.76900923,-0.8269547,-0.51626825,0.22261794,0.45668933,-0.19875108,-0.73057914
0.8694446,1.321179,0.84044075,0.8842101,4.1681757,-0.8434931,2.1642234,-0.5087807,14.098919,4.7690187,9.620317,-0.014900225,2.0552173,1.4969748,2.643981,-1.8013268,-2.9969175,-0.64957565,-0.8874178,1.3713738,-2.6094337,-1.4963121,-4.9886384,7.47661,4.777568,5.869014,2.2984626,4.703493,2.0524952,1.5227444,3.377048,2.6372683,2.301137,8.08377,3.9591835,0.38451,-2.7376776,-0.8381786,-1.4279644,-4.870027,0.05014934,6.002856,1.6630174,-3.6113563,-5.666271,4.277621,1.0290264,5.0786347,-0.33666638,2.4629908,7.21912,0.9915703,5.576578,3.815557,-0.56350476,-4.787062,3.8944674,0.6396123,2.7150097,-4.6824923,3.2138383,5.1920376,7.71194,-0.9166016,-0.81929463,-2.7398205,6.38152,1.0571902,6.090564,1.6238072,-0.065014645,1.5060911,2.8081877,-5.1601276,3.478803,2.6553206,0.48075148,-7.536824,4.4695487,4.388082,5.603549,5.398362,6.0738215,5.229386,7.9064717,-0.55737376,-1.2211303,4.5243726,5.088606,-0.45074436,7.3403697,8.962259,6.333383,4.274596,2.38215,1.7363569,0.20052508,2.1525695,0.9279602,5.5490685,-0.66518134,7.133521,5.5098233,4.5115857,-2.6129143,3.6493988,6.011315,2.0983584,0.2305146,-2.1230633,5.306352,3.5590556,-6.587156,-1.0853933,1.944485,3.847515,4.1611037,-1.0917864,-1.8723863,-0.42289507,1.0602872,-1.0731094,4.1387844,6.47461,0.19724816,-4.895551,2.563051,3.6747098,4.5919733,4.191015,6.5508738,6.1648154,8.185479,2.445184,14.274754,3.7047105,8.404637,3.648181,7.63015,0.17651367,2.7544973,2.5598078,0.6992119,1.7435975,5.7861037,7.5463867,1.8804061,-1.9481595,-3.0714161,-2.0676997,3.369853,1.6260821,1.6617565,4.384637,6.306736,-1.9174237,-0.43508357,1.613368,10.035396,-10.068049,8.9854,1.4527278,11.386554,8.112264,16.376776,0.13173816,3.466025,-2.1472857,4.4649744,4.1751437,5.2342916,-1.0723478,3.2979324,-8.248828,1.7165927,-1.4257889,12.778402,2.0853608,-0.08742475,0.31098145,0.76659775,2.31886,-4.79973,1.8001629,-2.8098311,0.60736614,-5.808115,-0.36193183,0.35708323,1.7327312,4.4654174,-0.20026915,1.054251,4.934776,2.8079312,-7.3388023,-3.503849,1.2153994,-0.80910957,1.5026783,-5.3964863,4.271721,-2.8654313,-0.12538835,1.2371789,0.17092533,3.690159,-3.7783954,-3.3058121,0.6567984,3.08088,5.1460896,2.8697605,-0.27809832,-2.9233508,2.5756698,-4.0188975,-0.8100358,-0.8327355,7.2938204,0.057220332,3.616982,4.345422,3.3307176,0.37645817,2.603364,-0.09941373,3.121878,0.1563127,1.9030195,0.59794575,-0.46279505,3.5967414,-2.8710654,6.52566,0.018181756,1.6007906,-1.9575799,0.3883828,-3.4388378,3.0385487,3.3034534,-0.6532052,0.42670622,0.745136,4.5999527,3.2135727,3.55148,1.2222912,0.3422624,-0.94692695,-8.420657,6.083679,1.9160261,-1.2563297,3.5684068,0.023308117,-0.5991437,2.7933314,0.7591762,-1.4678296,0.10601459,0.6613287,2.6424763,-0.7222382,-0.66656464,-0.44799018,-0.53070724,-1.3543085,-0.8522459,0.31408924,0.6794438,0.5852846,1.8373171,1.2962612,-0.06764127,-0.7429079,-2.5400305,0.31461003,1.4736878,2.370595,1.9606501,-0.7025184,-1.0711929,1.8470877,1.0030804,0.9346282,-0.5319918,0.6547949,1.029131,1.875032,0.6903003,2.1692445,0.040668435,-1.4295229,0.11530963,0.33662423,1.5500716,0.9508934,2.3429143,-4.3571525,0.2436027,0.1817898,-0.062382672,4.016243,-3.9423609,-0.6570004,-0.4665237,-0.9778716,-0.5662522,1.5755407,0.62904596,1.0040033,-0.8634639,0.033309076,1.3721635,0.008750578,0.7090701,0.8063381,1.0519062,0.13645875,-0.18846026,-0.9188202,1.5888577,-0.565919,-3.5585742,1.4692343,0.92069674,0.84508413,-0.35402417,1.6484015,-1.223847,0.14590351,-0.33636388,0.79744494,0.8341054,-0.24083576,-0.2898107,0.09565526,-0.76767874,0.89672905,0.8459578,-2.9757876,0.96353716,0.51470727,-0.43120673,-0.85386634,-0.20491835,0.69469833,0.08349406,1.0479552,1.449541,0.12858813,0.5608227,0.074975826,-0.88378763,2.1739569,-0.15574911,0.039728593,-0.29897794,-0.8792252,-0.4154086,0.30505723,-0.5555453,-0.12117028,-0.8026493,-0.016230991,-0.7414204,-0.31427804,0.73555773,-0.03846976,-0.19601382,0.9508887,-0.13497889,-0.35538375,0.49444896,0.76857185,0.24208875,0.18327588,-0.15729943,0.1923417,-0.17417958,-1.4258494,-0.25980762,0.13993682,-0.095135495,0.79971504,-0.9827526,-0.12758808,-0.19680977
-1.7440307,-3.6447203,-3.2538671,1.7121694,-4.979753,-1.9341526,-3.77038,-8.865193,9.196655,-10.17098,-1.6528091,-4.1292486,-4.998938,0.2052127,-5.7915063,-1.935796,3.0883996,-4.39929,-1.8840188,-2.0179381,1.143752,-2.6945124,-1.7724549,-2.6107605,-5.649082,-9.281669,-4.985219,-2.5837452,-9.823455,1.9087415,-4.588365,4.8851013,-9.512283,0.48451215,-10.588317,-2.6307886,-7.064689,-3.1552522,-5.029096,-10.011799,-3.1226308,-4.84691,0.46920186,-2.6144109,7.6343927,-0.04711883,-9.336373,2.5360787,-2.014744,-3.450071,4.68793,-1.0907019,3.9528897,-3.140243,-4.927336,-1.5877743,0.96852726,-0.5668888,5.2031035,-3.6234105,0.07001308,-3.7023127,-7.96234,-7.734419,-2.726394,1.8174855,-0.52760005,-6.447265,-4.2346582,-8.343698,1.5702362,-6.7213006,-0.1389863,-6.9144773,-8.659373,-4.6255317,-0.32053438,-4.513633,-10.45277,0.6443702,1.9051077,-0.45838585,-10.928268,3.759506,5.887787,3.1600716,-5.3133264,4.7701764,-3.9979188,-1.2040583,-2.3706024,-1.8823801,-8.761196,-3.1964536,5.047928,-1.0573052,-2.4469278,-3.053218,-4.2472224,-5.536089,1.6053894,-2.5814848,-3.9596782,-3.840835,7.596456,0.48616463,0.22131005,5.2305374,-1.0446401,-0.8799885,-5.800643,-6.4769845,-1.7187797,-2.2904172,-6.361744,0.22950943,-5.1830626,-3.117115,2.2503028,1.4468462,6.9893947,-3.387861,1.7267143,-7.223086,-7.3558807,-5.188676,1.8065406,0.051211834,-0.08067028,-2.8090224,-1.5127118,-5.209304,-1.6132406,-0.8384628,-2.8208609,5.497328,-5.827906,7.3789053,10.250669,-0.6392069,3.800014,3.3195903,2.5521543,2.1113803,2.6652799,9.262925,-3.9940548,3.7269251,-0.697318,1.7857001,5.5622654,-0.23439413,-2.3052578,-4.446045,3.5731137,-2.6943607,-1.5727583,-5.6529164,1.3453214,-2.0096157,-1.8664447,-2.946702,-3.2988517,-1.0871811,-2.6387837,-0.47088206,-2.2902637,2.186594,-5.752387,-10.889363,0.59539944,4.2715387,1.4425013,-1.5857185,-0.93382406,0.15834391,4.5417256,-7.811039,-1.466735,1.5526364,-2.4917307,-0.0058925147,-6.726753,0.24268684,-1.7098826,-7.3454957,-1.7303196,0.06885475,-0.62116784,-5.0912266,-0.13427445,0.033161588,-0.5611648,-6.9294496,-6.037538,-2.977729,-7.3010273,-1.6365416,1.1536372,2.64765,-0.29702923,-1.1236308,-6.428491,6.6857305,-0.32974175,1.8569623,-3.9161668,1.9657532,-2.1478734,1.1151657,-5.094028,-4.6663494,-4.369497,-0.8234938,0.48001075,0.50203496,2.512877,-0.7466926,-1.3163204,-0.33014798,-1.6355628,-2.123388,-1.4640474,1.3793551,1.3691758,-4.8313813,-0.4400019,1.0521537,5.517741,-1.5061966,-0.74738777,-0.20367442,-2.5497708,0.72398895,-2.0714598,1.4685678,1.1395987,-1.9230266,0.46509308,3.4996054,-4.8984194,2.4678876,-0.687524,-0.54936457,-0.2528828,-3.2477157,-5.2539654,-2.7897134,0.22564186,-1.2211282,1.6453956,1.8120426,-2.548486,-4.034258,-2.264394,-4.930003,0.104460955,0.8569982,-1.8122467,0.15066066,-3.368036,0.5433996,-2.1706004,-0.7562416,-3.9777613,0.4731485,-2.7216918,-0.24453183,-0.098718315,0.37483558,-0.076080345,0.9879172,-0.8668649,-0.58403426,-3.8797092,-0.25206116,1.944311,-6.4324465,2.5564759,-1.6765838,0.27916083,-1.503595,-0.030822061,-0.025483781,-2.5255697,-0.5639936,-1.3219371,-0.28523237,-0.4577052,-1.280621,2.7036939,0.70841694,-0.70091295,-0.23299192,-0.006906032,0.8696914,-0.05838881,-2.257446,-0.47291493,-2.9887536,-0.46775812,-1.3153082,-0.4822227,0.1427778,-1.0098243,-1.9033183,0.90637624,-1.4939297,0.97539216,0.043184884,-1.1250353,0.6817168,0.7961217,-0.036961064,0.55,-1.7052928,-0.21104741,0.33700788,-0.04318341,0.6999487,-0.75907433,-0.9383789,0.39700583,-1.7603474,0.8110332,1.2650721,1.6753399,0.1450237,-0.48765254,-0.24458405,-1.6936877,0.68052375,0.62127453,0.40228358,0.756735,0.6289529,-0.8060089,-0.45470884,0.08192165,-0.21341012,-0.9692257,-0.8515919,1.8381026,-0.61166894,0.12876457,-0.71002716,-1.011208,0.45270377,-0.3495199,-0.78991216,-0.04164111,0.23022863,0.26181942,-0.8605546,0.46652696,-0.32282728,-0.9070533,0.1434547,-0.19786121,0.11637415,0.18165594,0.46322128,-1.1594876,-0.21536656,0.31273842,0.44883475,0.43214455,-0.8578391,-0.01907821,0.24202497,-1.0402296,0.6449107,0.6747555,-0.85945535,0.65151054,0.118086256,-0.032892462,-1.1184272,-0.45903724,0.6933856,0.31011507,-0.685799,-1.6255333,-0.75624835,-0.33033425,-0.9020823,-0.17397332,-0.27919766,-0.020292029,0.86668247
0.54729086,0.21929792,-10.483695,-3.7465563,-0.58536524,-0.36125952,-3.6557567,-2.7414553,-2.7668653,-3.1240966,-4.106206,-0.13403937,-1.4049566,-2.5335407,-3.4517741,1.8660922,1.425285,3.493163,-1.0763144,2.6606207,-10.475594,-0.21450023,2.1171346,-0.7485107,-4.414134,-2.516926,0.26083907,5.9439406,-1.1271324,-0.39956638,1.2384411,-5.7646394,-3.820542,-9.000368,-2.530698,1.39702,-4.3634195,2.016199,2.4261312,-6.109102,-4.3270383,7.5325546,-3.347688,1.47091,-5.633951,-8.942415,-2.9179635,3.3016872,-0.67981315,2.1092987,-2.805866,-1.0364772,-8.881117,-0.24961838,-0.14965919,10.501777,-2.177525,7.084575,3.814134,5.748006,-8.786073,-5.4509783,-6.9748363,3.4082203,2.6340632,-9.957634,-1.8514782,4.715796,0.75624883,-5.143261,0.8473857,10.602367,0.8384832,-1.8976287,-5.8759284,-4.873374,9.051945,-0.72454643,-12.286954,9.100962,7.9180756,-5.3667245,1.3938329,1.0398061,-13.377922,8.845624,6.01168,-1.0278132,-8.458257,0.96251464,0.4842117,-3.9199035,1.2408626,-6.0317397,1.3443209,1.4742075,-11.253021,-11.487752,0.14826699,8.861041,-12.180684,1.3121579,-3.3381605,-7.352173,10.721355,-4.0846944,-2.3271146,4.2574477,3.976568,-5.37568,-13.957474,6.4810233,-1.831493,0.5559302,-0.065503746,-0.65043694,-1.9703473,-1.7365422,2.3448725,8.0328245,2.5759676,9.235844,1.5639317,3.3071172,-0.6165982,4.112351,-7.849051,-1.2656801,-1.7518606,-3.3579235,7.2698174,6.7670774,7.1729116,-6.479594,-2.6005118,-3.1293204,-4.884175,-8.736586,-5.078201,0.740254,0.20968604,5.7062974,2.4394963,2.5366719,-6.4051356,1.2454227,2.9291744,0.55591196,-0.20684302,-3.2973754,-4.445423,-1.0504357,-2.1267674,0.97410446,-2.00662,1.5503211,-1.3818715,6.003061,-1.7775556,-2.9194279,2.2536108,1.3050934,-5.311891,2.4724648,-4.3598237,-0.7062618,-1.5778869,2.4110243,-7.9086256,-2.379248,3.2849345,-7.7705336,4.631838,0.24956994,1.6948321,0.993405,-7.024346,-1.1385419,0.2911497,3.0059452,-2.9696743,1.015572,1.3409669,0.008722844,-2.2599883,-2.829179,2.4195707,-0.9963552,-5.980662,1.4017484,1.0608819,0.5458358,-0.36721614,2.998088,0.91355276,-1.8221976,3.3747585,1.1727859,5.2319765,2.1676986,-2.2490015,2.3050773,2.22415,-5.7839885,-1.2046313,1.3805385,-5.51723,1.9543803,-3.4618585,0.113122076,-2.7666354,1.3773377,-1.3375583,-1.2103736,-8.942185,0.008294909,-1.6085273,0.7187468,-2.0743148,-4.8112955,-1.2100095,-4.8824344,-3.5590515,-2.995253,1.5288557,-1.9848522,1.9363272,-2.799754,-1.6279652,-5.6222405,-2.9649272,1.6937616,-5.151773,-7.0338597,-4.7269716,0.19404928,-0.6208846,-1.0625498,-2.316835,2.115981,-4.9553337,-1.7340889,-4.690454,-0.11761595,0.75835395,-1.4894359,-6.12966,3.7230835,-5.0819044,0.23352687,-0.077389725,-1.8181258,-0.034563422,-2.6609538,-5.2947197,-4.212193,-0.29874727,0.4755978,-3.9742172,-0.5976045,-1.4331964,2.4386725,0.8233242,-2.603706,0.3746458,0.13234194,2.756951,0.25087735,-2.5127873,-0.849995,-0.28057513,-0.30337542,-1.6434696,-2.9507627,1.9366311,-0.7464738,1.0154011,-2.5155096,-4.1548085,-2.3331966,-0.9911211,-3.4960804,-0.9966852,1.0256435,-2.7296503,0.40934625,1.0749623,-0.17286977,-0.69993424,-2.8762107,-1.500489,0.49057022,-1.7907991,-0.5493856,0.014647456,-0.49926278,0.26240712,1.9850286,-0.7280688,0.31879586,-1.3931257,-1.0896124,0.21053022,0.02778239,0.79503465,-1.4440057,-0.87487364,0.025652273,-0.5169013,-0.4611925,-0.7363784,0.12533295,0.18814114,-0.17796946,-0.94471174,-1.6366291,1.1491171,0.55200714,-1.5164949,-0.5014251,-1.0538195,-0.8636003,0.02304389,-0.75491,0.50745374,-1.128759,0.4676205,0.16810288,-0.9193893,-0.7752236,2.8680873,-1.5476136,-0.25192514,-1.6150926,0.12691449,-0.6590241,-2.1791666,0.6273295,-1.2687116,0.82794094,-1.157117,-1.1658835,1.8076106,-0.7075396,-1.0813186,-0.9604024,-0.08428231,-0.1269368,-0.7551094,-0.25761735,0.12683295,-0.85113,-1.1501682,0.42691433,-0.82957345,1.5733762,-0.90505564,-1.016056,0.2710335,-0.8270101,-0.98313427,-0.48930088,-0.23635435,0.9864167,-0.76897764,0.44166157,0.35280934,-0.03771048,0.23512183,-0.10246625,-0.1265168,-0.5714189,-0.7249006,0.080911614,-0.8820585,0.693823,-0.3171012,-0.8032153,-0.46162143,0.13154556,0.26841417,-0.17019358,-0.0066474113,0.56893766,-0.07302797,-0.94665134,0.95403826,-0.3268322,-0.21890388,0.9821753
5.9339476,2.2181852,1.8589906,0.9022413,8.238821,3.2449126,1.7338233,3.7177212,6.532707,1.1150833,3.884256,-2.2906055,2.7657697,3.6107228,4.829569,4.6346674,-2.7850692,5.307736,2.856176,1.6840498,2.2497635,9.581672,5.9509764,-0.89055413,0.14201878,-2.9361324,-3.0322123,9.258753,5.0676756,0.9836974,-4.6089387,1.3117043,3.4214537,1.2720721,-1.1210413,2.8220768,3.3771906,11.56554,3.612962,4.8729925,4.461771,7.1283116,1.3233725,14.165869,-2.857033,8.311833,-3.2597096,1.9773117,-4.8223305,5.5627837,10.905414,1.1130753,-1.1491008,2.5732677,2.5281196,4.0271153,-0.59127295,3.7031796,6.039385,1.8544774,-8.649605,0.9424795,3.6672378,2.9431362,9.425386,-19.01013,-4.1366644,1.9305278,5.503701,7.484461,8.89188,7.0363374,-17.603024,8.998539,3.64108,4.969739,8.131116,3.851527,-5.118833,2.7603402,1.1492883,3.5528502,-6.0286546,3.2251728,0.66173625,-9.097186,-7.0995927,-2.4024708,0.18512745,10.195984,3.9255104,-14.565745,-11.668483,2.1857212,-0.08986834,9.523644,9.485375,-0.45681337,-6.2259617,8.301625,0.87966436,-0.82979417,1.3953164,4.8658843,-6.2602677,-0.58719206,8.691103,4.1929035,-2.5074756,0.028483871,-0.49108925,-2.9479733,-0.052133713,-0.21931607,1.3647689,2.728108,1.7297641,-3.9109614,-3.0893233,4.9621177,-0.1535258,3.6895566,3.2865918,4.5709457,0.6053523,3.8037465,1.0224086,1.460319,-2.4203906,4.3075085,3.4421027,-0.7884234,4.5435987,6.891831,3.3211172,5.95991,4.124521,-0.75501657,3.644635,-0.88699365,-1.9119852,5.2760053,2.272799,1.0019213,5.474078,0.35311598,0.24495558,9.549208,9.14306,7.57087,1.0825807,3.2818446,-0.05444279,-1.5225239,4.0004344,-0.74263144,1.678348,-1.668791,6.999488,1.2665968,3.2550125,-0.70861685,0.08948631,-2.812948,2.2349257,0.32754916,4.397179,1.7807839,-5.400274,-1.4136571,4.0449286,1.9419092,-0.39566374,2.80412,9.186957,3.6797998,-3.014469,1.4579413,1.343739,2.5609298,-1.3483309,1.5066886,-1.1326749,-0.8494997,0.42270538,2.6951435,0.34917125,2.0523403,-3.983495,-6.3656774,-4.564261,0.090418175,0.77175903,5.6456127,0.6026171,-1.9052113,-4.3515763,1.1163516,-2.095463,3.0803435,4.2673492,3.4389713,-4.7010427,0.7059056,0.8024484,0.007765487,-3.000177,0.7569388,2.7410805,0.23898962,3.200797,0.4809324,1.5636109,-0.84629416,0.44323024,-1.4571275,0.9249971,-0.21405588,0.23497929,2.7050846,0.6424755,-8.653337E-4,-2.4302733,0.9038379,-0.7558493,6.159849,1.6974201,5.9389467,-1.3932598,0.7163214,-0.66658133,0.45939305,0.093346596,0.9837701,1.6586808,0.44740334,-0.80630016,1.5606725,1.9954133,-0.1307371,0.82700545,-1.187871,-2.0070505,-0.31571203,1.0950803,1.704403,0.6098386,-0.09884644,1.7889072,0.7104618,-0.06645297,0.865184,1.3242544,5.548735,-1.7143693,0.8140787,0.7744096,-0.5208691,0.5970524,0.035519194,0.6019195,-0.32973102,0.7373596,-0.6683805,-0.78955394,-0.29608968,-0.708779,-0.6135205,0.9040591,0.2928259,-0.23062381,2.4054446,0.66926444,-2.0532112,0.66328275,0.3110813,-0.9486714,0.9199357,2.5908306,2.540462,0.24939464,0.9599257,0.61328727,0.333258,-0.2803827,-0.79119074,0.5633007,-0.9772692,0.011591024,0.09178894,1.7473687,-0.6384062,0.058441587,-0.16644353,0.25102264,0.17686391,-0.033846483,-9.590918E-4,-0.8697607,0.3714863,1.4832193,-0.5791388,0.18066992,-0.052238226,2.0199995,0.8652288,-0.2546455,0.5849811,0.10206807,0.9469826,0.78939664,-0.77080107,-0.52814865,0.2911558,0.7509257,-0.23735094,1.0074502,0.30682316,0.24331966,0.10973705,-0.5462614,-0.25201243,0.050865497,0.67684054,-0.69501936,0.8498947,0.30735812,0.30982143,0.7148755,0.19004774,0.9453292,-0.32653424,0.1932346,-0.82030344,-0.43121606,0.1644121,0.62134194,0.7305055,-0.18707079,-0.5149115,-0.65763116,-0.35449913,-0.92900085,0.13165393,0.17031826,-0.23454718,0.23225965,0.39307338,-0.021275362,0.8724432,-0.016901305,0.9960955,0.06099236,0.6237814,-0.33456707,-0.84673136,-0.47133672,-0.3678685,0.71396804,-0.9893354,0.6912249,-0.6825308,0.80731523,0.11297541,0.7377024,-0.034218617,0.46521616,-0.9922001,-1.0627164,-0.45734572,0.7003772,-0.19006196,0.17542565,0.75497025,0.031106943,0.28847352,-0.59887373,-0.0041777417,0.04783619,-0.998749,0.6456324,0.9455602,-0.106109336,0.39104807,-0.8679328,-0.15123461,0.7043937,0.76435614,-0.2276301,-0.7912979
-2.1260445,-0.27771378,0.052978806,3.284936,-1.3549724,4.706895,-2.713178,0.22926301,-1.8723392,-2.8995655,1.8801869,1.8182735,1.0589132,-1.1190268,-6.7212815,1.7316632,-1.6559569,-6.399462,-0.91764915,-6.887526,11.281474,0.76728255,2.8629184,-4.6170683,-7.9325886,-2.1017766,-3.95879,-1.0457743,3.741429,3.8764248,-0.68510854,1.8457353,3.6704853,1.5560068,-2.4293835,1.7846165,-2.1274946,-0.07545749,-2.460222,-2.7365055,-2.4781468,3.377111,0.15984331,-0.8655146,6.1791244,-4.7843413,1.6049367,-7.4616947,-0.35225287,-7.15566,-1.0213892,0.23114727,3.484522,3.2193506,6.30092,4.0314083,-2.0592368,-0.7459625,2.871844,1.5579529,-6.3406835,-6.0353403,-7.861735,-0.6179861,-3.2084908,-2.7693276,-5.0363817,1.7639263,1.9746872,-4.3243217,0.79645324,0.14083448,-0.78413326,4.2797885,-2.3507562,-5.233717,0.7800509,-1.0578414,-12.645757,6.585515,1.9375985,5.7794423,-1.7202903,2.4648714,7.6467977,1.1951773,-4.808837,6.020708,-1.8959987,2.963593,3.7791343,-5.556259,-4.042257,4.2386346,-3.5564294,1.0123397,4.627764,0.19574888,-4.3907695,1.5467697,6.163499,2.7017684,-2.3179955,4.764177,-2.0602353,-4.5877633,-3.5642545,4.9055586,-4.5279255,-4.635335,-3.7163377,0.26684222,3.3719234,-1.1402075,-6.9812446,-7.9536223,-4.6312957,-12.117155,2.1826448,6.7824254,-2.4976563,-3.0302393,0.7274548,-0.057822313,0.3016246,1.0361873,-4.8923783,-0.96508574,-5.0829673,-5.4260025,-6.801389,3.6440341,10.033733,7.45551,-5.284765,10.456233,6.765961,-0.10548702,-0.28353447,-0.049869075,2.3174863,3.2700756,5.0211616,7.7579017,0.21825688,1.1334629,-1.9760808,5.889623,0.54590243,10.458101,2.2729058,5.499429,4.019869,5.2456923,-1.6302893,1.5568585,-3.2481196,1.4211224,9.889884,-5.6532025,2.9416227,3.0206203,-9.7240095,5.3458085,3.478984,1.158337,1.0843431,-0.71051455,1.2085806,-4.052136,-1.2538772,1.794931,-0.12258109,-6.568943,9.632365,-5.1669292,0.20826107,0.92947966,5.691868,-1.3703802,2.1728497,1.583561,5.0688047,-2.013608,-0.8081229,6.409007,-0.9428932,-1.3561103,-0.60943323,-8.322206,-6.3489285,-0.10440197,3.0100079,-1.1795554,-4.09852,-4.260666,1.7453552,-1.7894269,-4.4819655,3.3487172,0.569934,7.5080543,-4.850649,9.39854,2.0451138,3.9134958,5.031822,0.6672135,-3.922263,2.3362355,6.35699,6.869223,0.34403524,1.9119074,1.0426347,0.9544356,1.871012,-0.71743876,2.3071468,0.12505521,4.1656847,-8.407833,0.5613621,-0.71386105,0.15883486,-6.9568787,1.0381507,-0.3083469,-2.3782692,4.9609013,-0.56829935,-0.6208455,6.213082,-1.1685307,1.040471,0.6389118,-2.7567651,5.7233963,-0.14918645,-1.6755366,-1.405975,-7.919008,-2.1090133,-0.41979882,-0.71016765,-2.9732647,0.28813908,-2.0060928,-3.7287858,1.5055467,-0.6915928,-1.7205421,0.5030599,13.116848,-2.6104507,4.1937275,-0.08521947,-1.6255722,4.420943,0.1384263,4.6393847,-0.057888992,3.1094308,7.9548454,-4.788178,-0.3550393,-0.9084711,0.40872863,-0.54020625,0.2925161,-0.31286713,3.0651317,-0.8050109,0.05357161,-0.540274,0.2853742,-2.199456,3.861471,-0.32545748,3.3457537,-0.20042384,3.3162549,0.31690484,-0.20426422,5.7335744,-0.1895381,-1.8935775,0.77114475,1.6549728,3.0763142,-1.832475,0.11762806,2.7870145,-0.58159775,-0.30157977,0.36072764,-0.024112819,0.90283436,1.4172541,-2.3155744,4.381454,0.8040994,0.13293926,-4.549451,1.6478521,2.7929146,0.44395313,0.66697204,-0.7260085,-0.5046798,3.6658616,-0.25369316,0.08869399,-0.8469723,1.133434,1.2863799,-2.4800181,0.85132194,0.6835153,0.18977366,1.1623938,-0.385548,0.30822444,-1.2994801,0.8527715,2.435183,-0.19202834,1.2554115,-0.86067873,-2.078914,3.9490142,-1.4314821,-0.3215241,0.3090925,0.58043766,-0.8847879,0.5354163,0.38163668,-0.6429681,0.84370613,0.73750293,1.105978,-2.5460072,-0.38450044,-0.1865164,-0.2411746,-0.71942353,-0.25263444,-0.054896146,1.7003859,0.43528348,0.77895427,1.1242733,0.7643689,0.28730547,0.66021925,3.048932,-0.17760216,-0.78864264,-0.22950922,-0.6528765,-0.84205467,2.103624,-0.5637069,-0.80954635,-0.65314066,0.038822316,-0.4783829,0.7922163,0.5914929,0.15671954,0.080749124,0.62106436,-0.24095215,-0.2197809,0.85602427,-0.10498401,1.907493,0.71262515,0.30455855,-0.08514744,0.97269636,1.254916,0.78048885,-0.448402,-0.9618167,-0.5355195,0.9325777,1.0903624,-0.41884768
0.54156023,6.603379,1.065234,6.373883,2.2283857,-3.9406204,0.05058355,-10.694842,8.399086,-5.9633994,2.362796,6.515153,-2.5313466,4.53242,5.811041,3.0115488,5.914282,-3.2192354,-0.47835252,3.9719167,2.557338,1.5477806,-5.6172533,-5.414856,-0.020061543,7.363268,0.64077926,5.0241103,-5.3041825,0.27037823,0.28308502,2.5642798,5.1510096,5.298377,-6.444326,0.4782992,-0.8520991,10.820003,0.49230322,1.7515434,3.883997,0.29307097,3.3163226,-0.9415604,0.9470027,-5.245021,3.8900168,-3.2735257,-2.160867,6.747642,0.9128318,0.76082724,2.4958403,1.7446873,6.5235105,12.79121,4.0824466,0.60845006,-1.1009862,4.0688014,-10.85294,5.5677643,-0.6517936,0.51812506,-7.4732,-2.385228,-1.9907243,0.39286482,7.4873214,-5.301678,-7.7146955,0.42507115,4.2771363,8.002729,3.5783663,5.6865964,1.9351935,-1.669577,2.419095,6.348208,13.80458,-0.19906874,3.3624961,2.4689107,0.6209141,-3.9804244,7.2279367,8.805987,0.3787963,1.7493348,-10.892408,-4.692336,7.4342937,4.5481615,3.4926198,3.664207,7.3851514,2.0091166,9.854145,6.551517,10.202356,-3.0594769,5.8403606,4.947549,1.288336,-2.4881134,1.4333705,-2.2987561,2.392148,0.65254086,-7.366953,2.990303,0.21062724,-0.47633967,0.764492,2.1160116,4.8998938,-2.5175097,1.5245515,3.3621767,-0.44363958,-0.30172768,-1.6759409,-2.1260219,0.6361493,-6.868918,-1.117797,1.0631391,3.0252979,3.7544932,0.03423178,6.925093,-2.116632,2.7024598,-2.2654588,3.1669862,5.5269804,-2.8053756,0.33161518,-0.7010095,3.227617,4.529466,-2.130246,-2.0198374,-0.022844555,1.6690768,-5.0780663,-4.2541847,2.628941,-3.8108618,1.7976313,5.9762893,-0.6222536,-0.2050032,-4.0986805,1.0217042,2.6188922,0.30230144,-0.8629976,-3.129419,-7.182619,-5.75076,-0.98575085,-7.728465,2.294948,0.7791986,2.8207996,6.100238,-3.3503506,1.8811102,-3.7331266,-4.914051,0.3092564,-1.6524876,-10.3035,-5.7816496,2.1907797,5.0559587,-3.186008,-1.7122189,-2.4795773,1.8022329,4.012284,0.24875161,-0.079712175,9.123912,-1.9939233,2.5607524,-1.7283322,-0.56550926,2.1957407,-0.53121394,1.4004806,-0.22145502,-0.13917136,-3.8039713,0.21752301,1.6907461,-0.75629,-3.757905,0.71213675,0.53926784,-0.53818977,3.0601437,-0.053682398,1.1170326,3.5528114,1.231852,-1.6329066,-0.07655184,3.8725133,4.7938657,-3.4697306,-0.286418,5.828744,2.067341,-1.5033965,0.7052957,1.8259652,3.252728,1.97372,7.3684163,9.182248,-1.6757599,0.056066997,4.144337,6.1467953,-1.5695598,2.088019,2.541719,-0.23047057,-0.5556089,2.9502065,-1.8324785,0.69610137,0.91857547,0.16141255,5.872571,2.8637707,-2.4951222,1.2799938,2.076665,-0.21760914,0.06465217,0.9061312,3.3170226,4.01757,5.1245046,-1.7821876,1.0216833,-0.9068568,2.2146132,1.3473829,-3.8926284,-3.8579297,0.94958967,0.64466,-0.004503439,2.5149622,0.28593358,1.1622722,-1.5494028,1.1738251,2.1047206,2.7868397,-0.63986224,3.3983831,-0.35451457,3.3522851,0.8872548,0.17348057,2.2718556,0.7239329,-0.93162644,-2.0204246,1.1232744,0.17719193,-1.2897613,-4.2685475,0.37035024,-1.0983733,2.147818,-0.46566865,0.48467964,1.9697522,0.618242,0.8718028,-0.4524248,1.1477045,2.4114132,-0.03430876,0.25793314,2.9143524,-0.74645734,0.90795004,0.24277245,0.9957694,0.019631777,0.4406135,-4.620014,1.8763624,0.26749584,0.70623696,1.4729627,4.393609,-2.3074012,3.1707644,1.8120712,-0.17502932,0.8160119,1.8698027,-0.85346967,0.5374061,0.20907833,0.6101827,0.74630725,0.45914975,-0.46509963,1.0739951,0.13044274,1.0907899,-0.62731004,-0.01349015,1.4213451,-0.17304133,1.050091,-0.40418884,0.59202224,-0.07287462,-1.8420129,-0.26987398,1.156313,0.7722618,1.0052651,-0.27191725,0.262025,1.2552018,-0.13650191,0.48892877,-0.42797282,0.76198393,0.15216519,-1.2759202,-0.639111,1.0129223,0.50593656,0.23475021,0.5236166,0.9073653,1.3917804,0.8617365,-0.13209537,-0.35274908,-0.6866331,-0.8364095,-1.0432954,1.7385354,-0.5761919,0.76216424,-0.98208815,-0.354568,0.42864284,1.8353838,-0.84147614,-0.25136083,0.49240687,-0.011072713,0.09155878,-0.7656328,0.9816207,-0.5643276,-0.96667546,0.29122806,0.84224325,0.0029805424,-0.74862814,0.12140587,-0.112870336,-0.67615885,0.9240977,-0.23270679,-0.019273818,0.18413772,0.49184617,-0.03459249,-0.26848662,0.1410708,-0.8253831,1.1096509,0.07626746
-2.4666908,-3.7831066,-4.53363,-6.0139027,0.8528003,-6.550859,-1.8269184,-0.32447737,0.7945721,7.305103,-1.5968447,-2.389326,-3.4884043,-1.4421148,-1.4170556,-4.4672637,4.051613,0.78747845,-9.91375,-4.236833,2.322393,-5.4889297,-5.3883247,2.439243,-6.554887,-7.534008,-12.431254,-3.3255658,1.7620054,-0.0031905111,-7.2120695,-0.56742364,-0.8575284,-6.1440854,2.6632464,0.04324102,9.950176,-4.929134,-2.3262715,-2.9776525,-6.732158,-0.08386111,-3.8202798,-0.9974429,-1.7056159,4.1356635,-7.61331,-8.988755,1.8406744,-4.8988276,0.064301096,-4.122731,0.95527804,-6.4032955,-4.2573915,-4.0549116,-1.2731246,-1.1391882,-4.3562703,-6.285491,-5.0984077,-0.33599105,-5.438631,-5.0393395,-2.4223015,-2.8976245,0.8474929,1.5335337,-5.8622136,-1.1965903,-3.7243195,-3.4991677,4.6660075,-6.403076,-0.45830154,-6.6370673,-5.7807646,1.16217,-1.6428528,0.39879227,-3.0262148,-2.864655,-4.9604187,-0.66701263,-1.4340045,1.2866048,1.3709131,0.15736963,-0.22205439,-2.2928371,-3.3130062,-3.4364126,2.0084937,1.2150804,-6.008763,1.3084532,-3.3868496,-3.5039818,1.8924944,-3.4937265,2.486647,-5.231016,2.074601,-4.1807284,2.0745938,4.0906577,0.7371953,-2.8190014,-0.4052329,0.06855811,-0.9492204,1.7849146,4.601391,-1.201515,2.6192393,-3.704164,-0.6969003,1.2504051,3.2844644,-4.329151,-0.09702437,-6.516157,-1.0233434,-1.0808206,2.743884,5.2386713,2.5761788,0.003906957,-3.527348,5.1095667,-2.870628,-5.593019,-2.0087621,-3.391104,-3.1520202,-5.0862455,-3.526002,-0.4449247,-2.4826853,-0.20228042,0.6224844,-2.9654357,-3.6739352,-2.518552,-8.248786,-0.9592716,-2.9965458,-3.5930488,-0.13462996,-8.806254,1.4645609,-3.5725603,2.2194479,0.37355885,-0.3934925,-5.003801,1.7376034,-0.45497262,-1.9506472,1.2846253,0.9286998,-0.8931588,-0.3743502,2.7729547,3.6723113,1.8412645,-0.47379565,-2.0028896,-3.7777925,1.763428,-3.4026396,-2.127079,0.44057208,0.74486655,-5.356484,-5.3540406,7.7862086,2.52656,0.48275852,2.3435683,1.5751632,-0.29380742,-1.4684165,2.2576537,-4.5346675,-4.8927135,-4.3036523,2.4896224,-0.8709874,-1.8394802,0.1031297,-1.0069796,2.8027484,-2.4953241,-4.540863,0.26868203,-6.9849844,4.9493384,-0.30121762,2.6998153,-1.862422,-3.196976,4.448965,-1.1656066,-0.4244083,-0.6294226,2.7746685,2.0846376,-1.6239219,-0.765095,-0.4935077,3.6148634,-6.6030083,-1.0365804,-5.7431293,-1.5148348,-1.8298922,0.13859741,-0.076872475,0.40092224,-4.776892,2.151005,0.42918572,-1.7879348,-0.8107569,5.4906583,-2.1757107,-4.227419,2.5508595,-1.6449381,0.16686656,1.0177919,-5.8124256,-0.24172609,-1.6418253,0.86450666,-1.1556519,0.9816885,2.8151288,0.3621022,0.59092313,-1.1580188,-0.6971367,0.6116747,0.7543464,-1.0050117,-2.5637212,-2.404013,0.46747553,0.025958491,-0.21013543,-1.9149435,1.0181731,-3.317427,-1.9846771,-0.9628103,-0.7120046,-0.92530644,-0.4231551,0.044469472,0.7517151,-0.30227524,-1.1228837,-2.5623152,-2.4067905,0.15146539,-1.1733292,-0.5432481,-0.9705916,-0.41356575,0.20970397,0.38370126,-0.34689772,-1.1482064,-0.9881203,-0.68013775,-0.09638348,-0.6603493,-2.082596,-1.4519241,1.5808842,-0.014212127,-0.6801335,-0.06559628,-0.2110444,-0.55640775,-0.5716823,0.30441025,-1.1888252,-0.04723483,0.71541125,-0.8434146,-0.673405,0.666383,-0.94919616,0.4645765,-0.4261669,-0.22865869,0.6520309,0.4657726,-0.049962506,-0.8014073,-0.7318826,-0.16764644,-0.17128913,-1.8674895,-0.7684273,-0.529715,-0.5841199,0.88165873,-0.9993886,0.8175568,0.70661664,-0.22613019,0.09468216,-0.7618834,-0.51404756,0.6067017,0.60942006,0.34588546,0.02856629,-0.080350935,0.9982878,-0.059018765,0.32568184,-0.2827662,0.81835467,-0.007246346,0.026145954,-0.53661376,-0.9223507,0.8690734,-0.027613768,0.44163337,0.5498967,0.2916852,-1.1270503,-0.7110613,0.30587864,-0.27833208,0.4608906,-0.37288204,0.8954482,-0.9712766,0.9685038,-0.6373558,0.14672366,0.44777977,0.25508994,-0.17769252,-0.085265,0.68434364,-0.7523087,0.6670219,-0.20304029,-0.664158,0.12753445,-0.22670308,0.22816749,-0.5511256,0.8532917,-0.29241726,-0.9699247,0.25540152,0.37547594,-0.114419706,-1.007817,-0.0322219,0.09224482,-0.8001478,0.5444874,-0.52562296,0.6181721,-0.81304646,-0.18212326,0.37468308,-0.374741,0.6470424,0.5676365,-0.79434097,-0.47503895,-0.76107687,-0.21127695,-0.709487,0.20642085,-0.762456,-0.28994286,0.0031393585,0.20647158,0.64546436
0.5370661,2.7728422,0.35777843,1.1269566,-12.654409,8.045526,-0.46778145,1.4688175,-1.533656,0.07148493,0.30661666,1.0763966,1.754179,1.4491116,-5.6819158,1.313916,8.273133,0.6187959,5.7213097,0.39243016,-0.11054094,0.5728,4.1050506,1.675261,0.8861473,4.2213974,-2.2621624,5.4316316,-3.0052552,0.5638506,0.7746379,1.3385364,-6.699635,4.6848397,0.19872138,1.8380202,1.2476938,-1.4583937,10.953484,4.2279224,-5.897425,0.85947186,4.564091,0.31831825,1.2699183,-0.009657943,-2.865674,-0.12567277,4.0672054,10.8822155,-7.424451,3.8747897,4.9831805,-3.8808067,2.3322632,-4.5810966,9.212981,1.9911972,-0.5697335,4.008788,2.7586038,1.4183047,-3.3111238,6.453973,0.3896443,-3.5578716,1.9978392,2.4507985,0.2352621,-2.509471,7.3611794,1.0948867,3.0076969,-8.278859,5.7607265,3.1974652,1.6055402,2.2227073,5.7627172,3.8384297,3.863359,1.1554635,0.05471815,-9.925811,-2.4298813,2.7776098,-2.3538373,-1.1746615,2.6237712,1.5685443,-2.0688164,5.8224063,5.1682644,0.82173306,4.84605,4.2432103,-20.034082,1.0041642,9.675646,7.0412908,-1.6344525,4.5782723,4.6916633,5.73366,-1.6702526,-4.0798683,-0.3584739,0.9752481,-5.7371945,4.2193403,0.021298826,6.3790765,3.4193072,-0.9871943,-1.2914767,5.1394453,0.7648481,-3.812565,-4.5269303,-5.4658546,1.1640888,1.2607468,-1.2683204,-5.350274,-3.4470162,-3.5581088,5.3893743,2.7724938,-5.873328,-8.38726,7.0964894,3.9932039,-3.6693196,-14.265747,0.14957502,5.3253474,-3.4073074,0.3901719,-1.2284034,0.30245024,2.6869214,-3.2738543,-2.0042796,4.2161684,-12.220568,4.4766755,1.3932222,6.1895943,1.0572604,0.47001088,-0.6639756,-8.39941,5.222746,-3.5259635,-3.5272965,4.279186,-1.6482437,6.4835706,5.4668846,5.1119175,-4.962568,0.93093294,7.9109354,3.5332243,0.9895205,0.9600504,4.059014,3.3621416,1.4272683,-5.033286,5.7792077,-5.940143,2.2271502,-0.46320605,0.07648454,-2.293421,-2.3828073,8.947143,2.3353894,-0.802389,3.1196122,-2.455508,4.164905,1.1610786,5.30896,16.063742,0.6390569,-0.06395206,8.0800705,3.6546285,3.4209514,-1.2905957,1.6404927,-9.80202,1.5538688,3.2675126,1.8383795,2.8977551,1.2418131,-1.8107895,1.2643392,0.5296295,-1.3532788,2.5791616,1.6205869,-3.4784882,6.9001155,0.81060475,-0.33013386,3.404143,2.1032302,6.988035,7.0234456,1.7742568,2.9632566,-2.529415,-4.2255435,-0.099292204,-0.8650781,3.5003245,7.0539207,-2.3548822,3.5845208,-1.5324696,-1.6000525,7.3679376,3.4219594,3.797644,4.641793,5.637608,1.1829196,-0.77792543,5.1505947,-1.7468733,6.564061,-0.9897737,5.447624,4.032635,-2.692361,-0.5949722,7.4655995,-4.511675,-2.8473048,-0.7600686,1.6051522,6.3045654,1.4466707,-4.5515194,-7.6711836,-1.12994,-2.281151,5.178778,1.330647,1.0477513,-3.8537366,1.6228551,0.94602704,-0.51464224,2.3383703,-1.5732708,-0.28650185,0.28469655,1.1642644,3.277942,-1.4068414,0.5514826,4.935511,-0.27400807,3.4590344,-0.013503311,-0.44585535,1.6592472,-0.16023242,-5.519571,-0.8391651,-0.019966692,-0.053438842,-2.3646073,-1.2748306,-1.1277744,-1.7662839,0.54009044,0.95609546,-0.5817163,4.7776494,-0.9943341,1.5981997,-0.26628625,1.926515,3.3689852,-2.7129645,1.1022819,5.5107746,-0.046706006,-1.4518511,0.57839364,-0.9432842,3.642287,0.29883084,-1.5367856,0.5236699,0.99642277,-0.41868314,4.660012,9.135576,-2.1825223,1.2678173,0.5932517,-0.84955895,0.42825082,2.186583,-1.1394025,0.60701525,-0.4117484,1.32936,2.2807615,2.9588583,-0.6708277,2.0230067,-0.51328677,0.5228192,-0.46992132,0.9755802,2.4477253,-0.7585259,-0.6448917,-1.6831046,0.7001221,0.6716003,-1.3316482,1.245453,-1.5181724,-0.7214148,0.0698931,0.47413015,-0.27407327,1.6612544,-0.91708976,-0.30132863,0.7256466,0.16630812,1.7347753,-0.5130837,-0.42899913,-0.09389649,-0.63643867,-0.13453954,-0.9467341,-0.62364733,1.9640936,-0.34950858,-3.6467586,0.28415352,-0.092031695,0.7862423,-1.0587887,2.1287403,-0.5796432,-0.8531306,-0.13668099,-0.42400974,0.98697954,0.73168427,0.85872453,0.66365296,0.7680333,0.14617644,-0.19751713,-0.20170102,-0.23077343,-0.21399248,-0.11304773,0.6951004,-0.49957937,0.6120744,0.6457875,0.43105125,0.31408492,-0.41163808,0.5792195,0.17900608,-0.15713279,2.4362552,-0.39740548,-0.7440017,-0.2849649,0.57466674,-0.8155094,0.93816173,-0.2458518
-1.4796004,1.6977371,3.7670562,0.53367597,-7.2436676,2.0263546,-1.7940729,2.413145,7.267025,2.3650997,-12.506468,0.61854535,3.083556,1.4621599,5.563803,0.50831264,2.5810983,1.2864639,2.2852054,-2.9506438,1.5495764,4.6856155,2.8146307,-2.5488539,-1.323156,-0.31274804,-1.6314313,6.1985497,-1.428895,1.3462355,-2.737134,2.43207,-1.8315523,-11.676388,-5.6191072,2.1472843,-0.25595385,3.011188,0.38155904,4.16688,1.7061961,-2.0406747,1.6062549,-0.45617908,6.0504766,4.9629755,-5.3801746,3.4824474,-3.1914182,9.130174,2.3495398,3.0883248,6.4038577,-4.899004,-1.2835386,-1.3956128,0.9348013,3.3934882,-6.383186,1.1669952,-3.9039915,-5.8090563,-0.7571108,5.96926,-3.6166377,0.0066518625,-1.0957681,3.1874726,3.0750782,0.54822004,1.8874136,1.2668555,4.2003984,8.739606,-0.65885144,0.9982557,1.6237249,1.3105646,-2.0351715,-9.424451,1.364925,3.1874847,4.0752206,1.7150633,5.6525035,0.8290123,5.45015,-10.674116,4.611193,1.727126,-5.84239,1.7538035,-1.5308405,1.025137,-0.92840797,-3.691938,0.59961647,10.878273,4.9530425,-3.9528606,1.3367078,-3.546742,-3.0087745,5.013435,-5.6534443,-3.4570732,2.1760511,-11.079689,-0.55411893,3.061853,-1.0189016,-0.08092856,1.8156334,3.7104964,3.8032615,-3.3882194,-2.3965385,-4.653814,0.86654025,3.6771991,4.303048,-4.2666855,2.156972,8.990089,-1.6275117,1.0902573,2.2451305,3.6437206,1.9582781,0.5665253,5.2121925,-1.1728745,0.32424378,6.521554,3.3531713,1.2628232,4.550927,4.063091,-0.8806715,0.37628832,-0.054780573,8.071821,4.567864,2.4840486,3.304263,1.1289004,3.0116813,0.55700487,6.627516,5.4569387,-5.684387,2.7557943,3.0877736,2.362853,1.4849977,-0.7238532,6.8974385,3.9679995,-1.2693313,7.1724563,4.3036757,2.1834707,-0.1588558,-1.2178881,0.069901064,1.6101689,2.2806318,10.648147,0.6557153,-7.457872,3.2568243,4.7424507,0.77363694,3.999315,1.0841033,8.424346,-4.6210084,1.8746791,3.6161854,3.2855031,6.691634,3.5588608,-1.4355743,2.9569564,5.678161,8.679278,2.308276,2.2492971,-1.5323198,1.8567811,-3.185964,-0.20853274,2.9446876,-3.7641947,6.406445,0.92410636,0.54280156,0.46890283,-1.7871573,-1.9652088,0.00812163,4.602582,5.865777,4.2418785,1.2591331,0.35810336,-0.23945488,0.69425297,3.7842064,-0.13354054,3.3347306,3.4346595,-4.195206,0.909847,5.7641506,-1.0069418,2.7364078,-0.70905346,1.8832252,2.75614,5.048876,-1.2612976,-1.0411813,0.3199024,-0.42834812,0.73279727,3.5563927,1.1500148,0.64855355,2.526408,1.0722034,-0.46429837,0.1619538,0.5222799,-0.7915909,1.1280805,3.31121,7.4665546,1.5879809,-1.9109942,4.2883773,-1.1314155,0.39786357,-0.3930716,-0.6395803,1.9787632,6.2080746,-1.3591574,-0.15450497,1.3764918,-0.4060261,2.170837,1.521531,-0.26351255,-0.2618792,0.4703401,0.2731041,-1.28898,4.5169415,-1.1258072,-1.0643047,-0.38067055,3.5416152,3.667366,4.183749,-0.4937747,5.6119766,0.17953387,1.3824602,0.38060102,-0.8325112,3.64067,0.16903871,-1.2347492,2.2988486,-0.5482084,0.08212884,-0.6109652,0.48135942,-1.2858304,-1.423643,1.1406827,-0.58008826,0.87725484,3.0802252,-0.81168264,0.3956525,0.6731548,1.8402197,2.089992,3.4134297,0.6554816,1.0362421,0.18866566,-1.6794695,0.8805179,-0.18547504,2.5514135,0.06782119,4.0299106,0.5607911,1.1485449,0.3467278,1.8965976,3.6023746,2.9221895,0.055372663,0.59238505,0.32167545,-0.056116235,1.2831337,0.4031272,0.87464184,-0.7571186,1.3085749,1.3067956,2.0174654,-0.3769604,-0.251466,-0.6076259,0.60604465,-0.8536947,-0.099650025,1.5713837,0.78667307,1.7749835,-0.13729258,0.58904284,-0.7967822,-0.8097417,4.1894445,0.089911096,0.5428671,1.136161,-0.050396506,0.8544148,1.9200121,-0.9609188,1.185115,0.04386505,-0.324559,-0.15710296,-2.2893093,0.018944731,0.057236835,-0.18964082,-0.8151922,-0.58778405,0.68973064,1.4829856,1.0091552,-0.6364298,0.39996335,0.3209584,0.64768827,-0.53078777,1.627391,0.5492027,-0.8079604,-0.35211438,0.7327953,-0.25652477,0.23908703,0.45438355,-0.7289105,-0.9663232,0.35709083,-0.73463583,-1.4942976,0.351537,-0.16595547,0.6373513,-0.8341911,-0.0990889,0.7148798,-0.6228978,-0.25135195,-0.40371957,0.90902555,-0.8833594,-0.15544374,-0.05396518,-0.5446553,0.3795453,0.485139,0.20276174,0.009509674,0.912389,0.17508075,-0.3665219
-1.7314023,-3.1656754,-1.520568,-3.3650644,-1.3984259,-7.633316,-3.1232398,-0.30263764,3.4120333,13.500761,1.5727918,0.14203519,2.6970046,-1.5296124,-1.646766,0.65261996,3.7565935,-5.2639437,-2.9918656,1.976081,4.0389,-6.0888267,-7.0913315,-2.0887573,8.104809,-1.8547277,10.136785,-4.015052,-0.38312733,-1.238067,-4.49829,-4.7558494,0.12182468,-5.9064293,-6.6174173,-0.3602192,-6.2848897,10.497268,-4.331765,0.37008357,-6.7302,2.4977908,0.9366593,-1.1776836,-2.4326103,-1.7446147,11.659964,3.2249959,-2.7757707,4.561492,1.1163483,-3.7596798,-7.221423,3.0187187,3.446809,1.636901,-5.451521,0.8491992,2.515359,-3.0844383,-7.100239,-8.336686,9.445126,-6.1248474,6.2880344,-3.5899947,-2.205674,1.6070514,7.902869,-10.192849,2.8573668,0.9449642,12.943699,-0.16827549,-6.6728735,0.0016960645,-1.0883673,-1.2497327,1.2163333,-4.64347,-3.4074259,-6.79642,3.0144331,-3.4126558,14.854113,5.551946,-3.083388,-2.5856495,-4.1500654,1.8365079,0.5023456,0.46313706,2.4637673,2.2159297,-4.8855987,-1.1414587,3.0713074,3.2622077,13.869331,2.2145233,-3.2547448,3.282791,-0.085649595,4.329813,3.5454159,-5.9263577,4.159171,1.4495015,6.3079743,3.7842247,10.169827,3.3363981,1.5121738,3.1801953,7.3522496,2.226517,-0.21590354,6.013964,8.647228,-3.434552,3.962825,1.0453084,-2.9410825,0.23257756,2.0122123,3.2834194,3.308991,-0.109892316,-7.723345,0.5921611,-0.5754199,2.713532,-4.457363,1.3822381,0.7265121,-0.47793612,3.2314672,3.5028336,-3.2970843,0.06796146,-6.838563,-10.036738,3.3776462,-4.009301,-2.9698224,-8.016743,2.437508,1.0682023,0.17700398,-4.4681134,-2.9369903,5.548701,-0.20270441,-0.14461811,0.99539083,1.3474442,4.3666387,6.0820413,1.0468904,-4.135635,-6.1466417,-2.178718,-0.70245224,-0.17021537,1.6272205,-1.7701972,-3.034221,8.367399,0.09407737,3.9376013,2.2395604,-1.9426826,2.3393278,6.237502,0.08869261,-5.286948,-1.8577716,-1.3648578,-2.4420345,-0.9921443,-1.8387389,0.99169713,6.7984753,-1.6442187,-4.0806527,0.40268233,-2.342835,-4.3492484,-4.7438035,-1.6906868,2.687478,0.74567384,-4.544798,-3.014922,-2.8785644,-0.39845335,-4.681592,7.0552373,0.71354955,-0.5456524,-0.7328752,-4.782093,1.627262,-1.0246599,-0.09763883,3.5440395,-0.04695384,0.02954625,-5.076544,1.9530813,6.7869563,-4.479424,-0.2023097,-1.3770884,-2.501835,0.95403486,-1.1752429,0.36174315,-0.1878837,1.5795151,0.61444247,0.621703,-2.0906212,1.022631,0.88683105,0.7309704,-0.54153615,1.2021065,-1.296236,-3.2769825,-1.3073533,0.9699433,-1.8366095,1.147137,0.8667076,-0.83317745,0.9039612,-5.4357495,7.837979,3.165285,1.448419,1.8349457,-0.5387342,0.027725102,-0.7010464,-0.9933035,-1.8452386,1.7296199,-0.8116088,-1.1013098,1.289961,-0.3417853,-4.2809224,5.0022087,1.1800611,-4.7300253,-0.054912113,1.7137314,-4.1485896,-0.6640514,-2.502971,3.199951,-1.6802987,-5.0313935,-1.513134,-0.9461755,2.4988053,-0.6567265,2.7881038,0.7976882,-0.15350933,-3.893344,-1.0761733,5.5223064,-1.0903345,0.49767652,0.5226427,-0.0021535093,-4.7571473,-1.7242559,2.3205376,-2.569756,0.9814396,0.68164533,-1.9910681,0.30786946,-3.2344017,-1.0573422,-0.6453452,-3.692203,-2.8429875,-0.62211716,-1.0402681,0.57290745,1.2993771,-0.1939052,0.5918065,0.733769,0.58670086,1.9425852,4.3933067,-1.418865,-0.8142767,-1.1181481,-1.87503,3.879352,-0.74445343,-0.74588305,-0.5619495,0.47862145,-1.8214402,0.7316879,0.23512042,-0.064192005,0.041333955,-1.5465921,2.2918262,0.49066857,-1.456628,-0.8819553,-0.9671884,-0.8916019,-0.43906265,-1.9473145,0.4139574,2.7662196,1.4370106,0.5044833,0.12222139,-1.6710012,-1.67148,2.7290666,-0.643154,-1.5554156,0.4690521,0.7984924,-3.0292714,-0.68031687,-0.6225226,-0.67772084,-1.112006,-0.2677527,-1.3477831,-0.2042447,-0.57976985,0.6253834,0.1749726,-0.38279554,0.76393855,-1.0219916,-0.47898436,1.0614743,-0.81959,0.29116067,0.13760595,-0.21899463,-0.30141702,-1.071985,0.21093103,0.8136107,-0.22542165,-0.93481874,-0.6264964,0.21482794,0.82164407,-0.09737166,-0.6645201,0.7283451,0.19568665,-0.14507179,-0.721582,-0.39561984,-0.40116242,-0.5496241,0.12692848,-0.07879163,0.3931381,-0.16949123,-0.30552927,0.12392303,-0.5002802,-0.01329867,-1.5245622,-0.4992908,0.29305795,-0.6613808,0.14275236,0.7730599,-1.5271189,-0.6958642
-2.1528766,-3.1356864,-3.3800397,2.7270987,-2.5590236,2.092408,2.2784574,-1.4152317,-1.0241966,2.8937745,1.2357512,0.3742442,-3.185663,1.179637,-2.5329056,-2.5273728,11.563556,-1.103783,-0.68900543,4.886106,-9.021972,-2.423561,-6.955535,-2.7417364,-2.674276,-6.8834815,-9.702219,-2.02388,5.9483137,-4.1924686,-7.7922883,8.446493,-2.3165302,-2.341538,-8.636567,-0.016012866,-0.17594232,-4.190511,7.648163,11.405033,-2.7240484,-4.452704,-2.6356854,-3.2528443,6.078478,2.0056007,1.1243869,5.182641,-6.1708097,-4.7591705,-6.627108,-3.2373667,-5.7436714,-2.2630155,-6.220571,-3.5062392,-5.5549407,-6.5622573,-1.8238827,3.5067441,-0.33892098,2.8281698,10.85272,-0.15829644,-2.7475955,-5.6608973,-6.142213,3.1354032,-6.6140246,0.03706306,3.6355546,-0.7851113,-7.572897,-4.0015273,-1.9577035,-5.283095,1.018434,10.365603,3.0111246,2.551672,5.768131,0.59260625,-1.4562229,1.1821843,-1.3556433,11.952132,-5.597354,2.4813304,1.451485,-4.765718,-3.3980808,-1.9866894,5.7016563,-7.720652,-5.0318055,0.6411224,4.9231267,3.0913975,-2.651665,-6.6345053,-6.9745927,-2.7670186,7.2634706,-2.2632823,1.6927255,-4.473318,-3.1136594,-2.0572867,6.3898654,-3.895095,0.14387271,-1.6796141,4.738062,-1.006518,0.9191122,2.7951784,-5.8922353,1.7273874,4.5316367,-7.109056,-3.5069056,9.091479,-2.6384945,1.0997502,8.900171,-3.4007428,-5.992448,-3.0620205,-8.263879,-2.143821,12.066066,-1.6115218,-2.4516752,-6.441043,3.129141,3.15779,-6.6815004,1.9037876,5.910952,-0.76773685,-3.585072,-0.13888994,-2.7820172,-3.7288718,-5.9977436,3.373073,-3.7138076,-3.8929992,2.5559077,3.0096464,-6.4160123,1.2579646,-3.7901425,0.7830271,1.4925138,4.8264565,-5.303522,-2.2081172,-9.68859,-5.2972245,-4.2810106,-0.50392365,-3.0448496,-8.181126,-3.829608,0.15789238,-0.8715185,1.9772031,8.261625,24.030554,-12.319126,-3.3423743,-0.5846031,1.1966991,-0.5882033,11.182805,-2.6378343,-9.102197,1.0001386,-0.26259616,-6.5772395,-4.7737327,-7.3176627,-1.0009972,0.62541455,-0.83145016,-0.7828355,-2.7890127,1.2273871,-5.407976,-9.112424,-0.98043936,0.29587376,2.3538587,3.1527863,-2.1277597,-0.2720331,5.0897655,-1.7216715,2.0512667,-2.01775,-4.902147,7.2257724,-0.6289685,-1.7926935,1.9439826,-2.192611,-1.0434712,-4.5053034,1.160763,-4.1507196,-8.932588,4.5187616,-0.6283046,-4.2179594,0.6744661,-3.732675,-1.0590234,-1.70424,-1.9568766,-0.74590975,4.3933396,-0.79542875,-1.4314085,0.2841219,-0.3663429,-7.713977,-3.6419199,4.2347846,-2.6967041,-2.5002847,0.6808377,-3.4340274,-1.0249597,-2.8171952,0.22602582,0.5607728,-1.278278,-6.3582187,0.5067224,-5.517833,-1.4214927,1.7485719,0.77576697,0.36878338,-1.1654474,-3.3107421,1.319612,0.077988766,-0.058107708,-0.50498044,-5.9899926,-3.3314242,3.3090618,-0.120686755,-3.5236452,0.50633574,-0.43879524,-3.6918833,-0.49198648,-1.3694862,-0.2736859,-3.2303348,-4.034943,5.97859,0.7582311,-3.064485,-0.14388235,-2.4470675,0.16700737,1.122451,-1.604706,0.4390358,0.43062243,1.9315978,-0.65467125,0.051612493,1.8136722,-0.5411633,2.1807969,-1.1358541,-0.93712294,0.115693614,-0.59585863,-2.2781026,-1.198225,-2.6382878,0.3328844,-1.1167632,-3.5360758,-2.8462212,-0.30488065,-3.7629638,-0.022104792,-2.1911345,-0.17253402,-0.6246722,-1.8185666,-0.04561154,1.0952486,0.63378185,0.41522568,0.10740843,2.4655175,1.2690024,-0.9611301,1.5306975,0.01357278,-0.83711505,0.12510204,-1.8086056,-0.14237717,-1.0161558,0.6929619,0.142141,-1.1178329,2.1854758,-0.69057286,-2.3842556,-0.527389,-1.1746346,0.54347444,0.8070112,-1.743208,-0.74833524,0.80270433,-1.724929,0.941096,-0.7082622,0.20772843,-2.0220337,0.018358286,0.36753726,0.2017769,0.9160291,-0.45899,-2.465032,0.8435964,0.02797642,-0.63117665,0.2628694,-2.3796768,0.6084832,0.4355859,-0.564407,0.56363493,-0.44282106,0.7562279,0.2275045,-1.354659,-0.4997706,-1.9893447,-0.047981624,-0.91384494,-0.16358794,-0.37699774,1.3532959,0.8411247,0.61811954,0.8302644,0.13313176,-0.07050537,-1.391757,0.41847762,-0.29420847,0.6984897,0.6135937,-0.3350772,1.1117605,0.63939726,-0.86975634,-0.2966972,0.67457944,-0.34147325,0.26312605,0.2308112,-0.13620533,-0.043478392,-0.5352457,-0.7963784,-0.112683594,0.27400318,0.53724074,0.42536056,-0.21726938,-0.71780396,0.36767992,-0.28100002,-0.17656882,0.1869623
-2.3552213,-0.46689716,0.27504703,-1.4728967,-1.8514628,-0.8692538,-1.3447233,-0.18649237,-3.0035787,-1.1332009,4.7749596,-1.9552968,-0.4834909,-0.1315106,0.7258316,-0.4012377,-0.6593016,0.52118623,-1.3522292,-2.2147527,1.1463053,1.8229365,-2.9799426,-0.59539515,-1.7050247,-0.78423923,-0.73321605,-2.078203,1.7283443,-1.9022386,-0.3316901,-2.3424816,-1.2562101,-2.538184,0.5639999,1.1814159,0.51149213,-2.8981152,3.2311249,0.38153708,0.32542482,-3.770717,-0.8922915,2.9840364,-2.023669,1.6895379,-1.3077685,0.40114596,-4.860915,-3.6931176,2.0544188,3.6677768,-2.5430782,-1.6842823,-0.29558408,2.4919693,-3.3264265,-3.4587443,-1.5891039,-2.334811,-5.8103447,8.626925,0.16380152,1.0129939,-0.90670353,-3.3208299,-5.4711733,-2.2002292,-2.6928034,1.1642247,-1.7857158,-1.4416863,-6.7205544,0.8581811,-1.591807,-1.0768169,1.5153444,-3.0323262,-0.5024218,1.7044871,3.649393,3.440631,-1.4436948,1.7512828,5.733518,-2.409699,2.6392677,4.6512265,2.2967305,3.9255245,4.9131193,5.150445,-6.1657662,0.72059983,0.11279887,4.8628583,4.3142595,3.2784734,1.3007133,7.4497604,-0.06836149,0.21759236,-0.8840504,-0.42596304,-6.665946,0.11896921,-3.5683486,-0.54675895,-4.5889034,-2.4748948,-3.040625,-6.3971033,-7.3098083,0.84230083,1.7605531,0.03864237,0.46628386,-2.646528,-5.466287,1.4007385,-0.6771406,-2.2010322,-0.29198855,-1.2390469,-7.242283,-0.3217262,4.1752295,1.0242879,-0.5491326,-0.1552547,-0.29714268,0.87025946,-0.4932178,4.816213,-0.3001937,2.0641768,-3.2426922,0.33762473,-1.3382213,2.7284887,-0.05303454,1.8318814,-0.74810225,-0.75126904,-2.1089725,0.7383755,3.1295,0.71175444,2.1798387,4.8054013,-3.216985,-1.9006042,-0.6547046,4.0690255,-0.27154917,0.71190065,0.21055275,1.9661617,3.71875,1.5860896,2.9690936,0.22298296,-4.004439,3.9721975,0.81109923,0.11643594,-0.38103187,-0.7184213,-0.6080507,1.1959656,-1.6357986,3.576334,-1.011376,0.19778168,2.8628807,2.9334464,-1.0401769,0.9941728,0.018124033,-0.2658177,-2.145962,-1.7509569,1.1280305,-0.3707837,0.3428556,-3.2762399,0.8208344,-0.41752592,-0.6064726,4.028014,-1.5794327,-0.022943929,-0.36898792,0.6705543,-1.6655653,1.8358408,1.8954146,-0.31399596,-2.6218011,0.5685152,0.33273342,1.9954023,-2.6532393,0.24718046,-0.75128126,-1.291963,0.16210932,0.302555,-2.4114697,0.16192797,-2.4026747,-1.1805499,2.0982091,-0.3494309,-1.8555807,0.3421191,-1.1666985,-0.05371892,-0.09247338,-1.2049447,0.8641193,-1.9846123,-1.0910703,0.22426999,-1.2004198,0.6642692,1.1430247,1.460008,-0.6791175,-1.0216714,-0.5776419,-0.939833,0.18145436,-0.4892862,0.18728077,-0.499357,-0.716997,-1.8545022,0.44038248,-0.8626488,2.217726,0.32491246,0.79342556,0.85227525,0.5412643,-0.03408161,-1.9528576,-0.13681634,-0.61920613,0.3756472,-0.6760818,-0.99834406,-1.4326687,-0.23175335,1.2406619,-0.13511077,-1.1823158,-0.2987311,-0.7688486,0.22056907,1.7998698,-0.30331108,0.19349305,-0.4557774,-0.2476329,-0.16867915,-2.045799,0.7447051,-0.68731064,-0.17696951,-0.19338207,-0.9898555,-0.03502995,0.34806892,-0.20834288,0.7320488,-0.94568896,-0.18810648,-0.15921752,-1.030866,1.1495764,-0.6491153,0.7692871,-0.9601399,-0.3731225,0.36190027,0.5016711,0.31576523,-0.08982398,0.073934354,0.86084837,-0.8725477,-0.5354013,0.058242667,0.38675812,-0.80348194,-0.31138995,0.572769,0.37448433,-0.46555412,-0.864664,-0.43674967,0.8995682,-0.83501375,0.045202747,-0.65115476,0.423836,-0.43807343,0.20318207,0.6892279,0.34473145,1.1013342,1.0475723,0.2101198,-0.42326996,-0.8760589,-0.40883616,0.5303632,-0.858324,0.87810624,-0.70732546,-0.9934969,-0.7702215,0.6826074,-0.49346414,-1.0723426,0.35230756,-0.9933335,0.14542697,0.13717772,-0.3197806,0.16094725,0.19899692,-0.029601844,0.17059574,-0.6853201,-0.7596569,0.054141216,-0.11225042,-0.66618454,-0.37919548,0.6736642,-0.38950595,0.022907427,-0.5308517,0.8265413,0.81640667,0.9746065,0.49073076,-0.7754902,0.5244331,-0.44599074,0.9505816,-0.33304474,-0.16785729,-0.10447971,0.29196703,-0.55684763,0.82975626,-0.4737354,0.62085074,-0.10924,-0.042132493,0.13534434,0.5136575,-0.45443517,-0.82874644,-0.6143494,0.2813445,-0.81980735,-0.79612386,-0.38651153,-0.75760746,-0.9805802,-0.48582846,0.24455778,-0.07235629,0.5417795,0.34021112,-0.04924899,-0.14219253,0.057086103,-0.6879676,0.07593043,-0.25442818,-0.8297684,-0.9232506,0.1686491,-0.8746551,-0.31941548
-6.636121,-2.3765311,-3.5446537,-2.4283214,-8.753285,-0.6246697,-1.0399946,-1.118962,-4.1106396,-2.4028833,-0.012274116,-2.8972776,-4.2475686,0.510076,-1.4955839,-2.2292469,-2.2364373,-3.285742,-1.5853865,-2.4106007,-3.4305274,-8.172861,-1.3388232,-0.09504275,-0.14461969,-0.47842044,-1.2436081,-1.2637995,-2.866115,-1.9012847,-0.7345399,-1.5332597,-4.983993,0.6293939,-1.5870082,2.8881254,-2.081666,-4.5474057,-3.8377168,-5.392871,-1.7528102,-2.783188,-2.5674875,-8.915655,2.254538,-3.4798067,-0.4866116,-5.681054,-3.3092685,-3.4672136,-0.917755,-1.9045297,-6.7461987,-3.132767,-4.7552958,-2.4857295,-3.9114797,-1.7407067,-4.2609034,-8.424219,-1.2754068,0.9629649,-1.2869726,-6.806563,-2.3283422,-0.012611328,-2.4114463,-5.116356,-2.1995645,-10.2740135,-5.8078775,-12.906782,-0.3401385,-7.891941,-2.7684243,-0.23392986,-2.394978,-1.8957043,-4.231267,-1.0837945,-5.8796544,-2.8468163,-2.0834334,-1.230809,-1.9830234,2.0598788,-1.654926,3.2474124,-1.9058225,-3.709205,-1.8366263,-5.5766563,-5.96383,-3.921416,2.823985,-3.535031,-3.7261748,-5.4587507,-1.9975251,-9.591367,-3.381923,1.3056475,-6.6897316,-2.2107775,3.652738,2.188865,0.98510146,3.6484988,2.4504452,2.5320864,-0.16205758,3.6478972,1.3785566,2.7025435,4.853229,-2.336485,-7.186858,5.1087923,-0.24703869,3.06426,2.9980907,2.2698908,0.9127177,-0.13316385,2.109286,-2.595367,2.6393094,4.9335027,2.906318,4.3271747,0.9735116,-5.55236,-3.4539897,0.17192371,0.0702459,-0.45834526,-0.4234695,0.88794935,-6.954602,0.43956086,1.8714467,-4.045454,-2.3105845,4.2445326,-1.2788577,-2.8177156,-0.6372672,-5.3854527,-2.0519905,-1.0620683,4.4535737,-0.5641607,-2.0393655,-1.2948879,-3.065641,-0.9370688,0.54585105,-1.3647785,-3.8009133,-3.8020234,-4.2251835,-1.616232,-0.8416553,-0.6143588,-9.86658,1.3622948,-0.5792991,-6.8088326,0.7233274,3.3567948,-2.0909896,-3.5733218,-3.1614475,-2.7102218,-1.8750805,-7.4906936,-7.094593,-2.0101845,-1.4037362,0.26049238,-3.3510733,0.66167724,3.3231394,0.97347534,-0.7000027,-3.5092692,-6.329326,-0.05379743,3.7135577,2.2630365,0.53730094,1.1797957,-1.2945892,-2.1486254,1.6739365,4.1963177,0.6569649,-1.5987142,-0.3481755,-1.9515048,-2.0091887,-6.5987782,6.30512,0.033375893,0.20816478,0.15690643,3.0485735,-1.6124963,2.4765735,-0.45510772,-1.6702126,-0.8064561,-1.578186,-0.33884475,5.5174546,6.411889,-2.1572123,-0.6404537,-2.1734266,-3.3044245,-2.9922998,1.7257757,-0.6969264,-1.7030348,0.34070912,-6.0603113,-3.8496003,-5.922537,0.79596424,-0.8752441,0.031814404,-0.40898302,-0.8182941,-0.36650223,2.0618176,0.16474336,-1.3889275,-1.9534556,-4.0566363,0.7548166,-0.22535549,2.1893241,3.9105563,-0.6732882,-0.38543558,-3.9317706,-1.6356452,2.690655,0.47812217,-1.1654513,-0.39172333,-1.1951033,-1.5837498,-3.0850787,4.048731,-0.097020924,-0.31589296,-0.305746,0.77452415,-1.0204226,6.215093,0.596266,-1.4599969,-2.1714985,-4.1365433,-0.98085666,3.7339494,0.08819345,1.4828122,-0.3301195,2.096427,-2.2218602,2.410533,2.7704697,-2.1289227,-0.25497067,-0.8351788,-1.7637768,-1.0227563,-1.4630002,4.7125545,-0.9484464,-0.11957081,0.0011294809,-0.7700353,0.6007328,1.8178617,0.52733505,-0.79746175,-0.54759103,-0.7776087,-2.362486,-1.3098838,0.5376004,3.906291,0.44701484,0.8232622,-2.6357486,1.1222569,-1.0756431,4.691323,0.16001375,-0.48411742,1.5747861,-1.7966462,-1.1864557,1.7778884,-0.4229867,0.06418466,0.06754333,-1.2228603,-0.5784857,2.632035,0.23981105,-0.12165158,-1.1137561,-0.27828243,-0.26287964,0.6717995,0.02937674,0.15004542,-0.29876742,-0.93367517,-1.1049495,0.45413622,-0.8222055,-1.8109691,-0.031970207,-0.39041933,0.2270343,-0.7275855,-0.029121762,0.14209473,0.52952814,-0.002092845,0.59278476,-0.30716705,-0.7359619,-0.4072949,0.9357632,0.25555307,0.61639565,0.23766889,0.91674,-0.1364928,0.65040267,-0.21455361,-0.2898269,0.46613306,-0.9045674,0.73071,-0.3763592,-0.1566234,0.5841086,-0.71882147,-0.60012853,-1.1598032,0.3752544,0.38920823,0.71501964,0.9512415,-0.5431829,-1.3185117,-0.72628224,0.89616144,0.6626868,-0.41309786,0.28372973,0.1568137,0.0695605,0.07988223,-0.6823571,1.0314326,-0.107196696,0.79233974,-1.0052404,0.62618446,-0.22977537,-0.75679255,0.908962,-0.4803279,0.12479513,-0.3100403,-0.19218726,0.46583006,0.79955274,0.8185194,0.75850207,-0.009262195,0.9632963
3.1982408,0.29583153,-0.91815907,-1.9455595,5.5080175,-0.3932071,1.0182548,-4.2278414,5.1313434,-5.42951,-2.742139,1.0998486,-1.699665,-2.9224067,-2.6391973,-1.3629229,5.6352873,-3.949087,-1.5458151,-1.8621207,-5.3750167,-1.6048357,-0.51988435,0.37267554,-2.904106,4.0023417,6.5878425,-1.1286962,-6.145442,-2.2448595,9.328917,-8.552828,0.85417056,-1.1305647,2.2614596,0.0047561796,-1.1653849,-7.202989,-2.2113404,-1.9572822,10.207371,-4.2504735,-7.757126,-5.5086293,-0.71114975,-5.144523,-2.7043545,0.927171,-1.1209949,7.061105,-1.765218,-1.0704205,9.261337,-6.4456778,6.5457606,-8.772558,22.061153,2.2720797,2.1595697,1.0683295,-0.7828241,1.3972797,-3.7900515,-1.0087621,-6.932844,0.08213431,-9.402277,-5.162403,8.384982,-3.7180305,-3.23384,-4.7102623,-7.089623,0.7449142,-0.8611607,4.900784,-7.173999,-6.8276153,9.346543,-0.23135442,-0.28460285,-3.1154034,14.219639,1.6454062,1.8234828,-7.939077,9.273833,-7.1312714,-0.749145,-3.5848112,4.3266535,-5.48054,6.352144,7.5668025,0.15492372,-0.40360707,-1.5894161,-3.0099452,-4.725627,-3.6299005,-3.590807,-1.7298043,6.0946465,-5.952137,3.3242722,-0.9825814,0.028201332,1.5212864,0.1298993,-0.35550264,0.8322295,2.1469955,-3.6411436,-0.55564755,0.45070073,0.759671,0.19504021,-0.5018696,6.9687853,-3.670869,0.5676348,0.4224152,-0.56217355,-3.41842,3.058981,-8.067313,-3.020371,2.1423469,2.12124,-5.7036247,-4.2873516,-3.7018812,2.1827722,-3.5740545,-1.1068462,3.8994687,4.0520077,0.60816145,4.2358317,0.3499967,-2.3542948,-6.9506545,1.3179598,0.84482527,1.1148078,-1.3938568,1.8858163,-0.94559175,0.38348693,-1.0675391,-0.10933082,-2.4123642,4.027789,-6.9604683,-7.6494365,3.459159,4.1415157,0.69583005,1.0326359,3.4033785,1.0691266,-2.9689322,-2.3100982,-0.94835085,4.7823277,-0.56985486,-0.8532805,5.7979193,3.7501535,-0.89930797,6.802435,0.92392355,-1.0257578,-0.7018396,1.0328876,0.18928501,2.194249,-0.403925,1.9919107,-2.1777046,4.637287,4.0982704,2.3146677,-2.685502,-0.905753,4.533157,4.275045,-5.3077064,-3.0415187,-4.790781,-2.222939,0.7576055,0.32359764,2.4780376,-9.495268,-8.035823,-7.7335496,-6.804061,2.8700154,-3.7564974,-0.2496872,8.49003,-1.1871033,-4.1351404,-1.0234333,-2.7018168,-1.2227181,-4.0139003,-0.24947746,-2.7781851,-1.1777493,2.7675712,2.848629,-1.0060661,8.543706,2.1470387,-1.1556497,0.6579894,-3.1111746,-7.946664,-4.511542,2.3184295,1.281725,-3.0375764,5.0975285,-6.2310605,1.4589819,4.4930463,-2.673101,-2.6029365,-0.5113748,0.13729905,-10.706368,-5.2540603,0.67234546,1.3108987,-8.971709,1.118315,5.3321705,1.2239571,-1.1174608,2.6853254,1.9940777,0.16865289,-0.43116584,-2.9820442,-0.5000575,4.5506196,-6.610056,-0.37617993,0.56700706,2.4043214,-0.66732717,-3.0182385,1.6809094,-1.5782146,-0.050039954,0.21318716,-1.2466061,-0.47943243,2.6118705,2.0762691,-2.7359724,-4.2332783,-0.80058914,-0.96068734,-0.88155603,0.042516008,2.778179,-0.26537892,-0.67123467,-1.8946015,-3.4823837,4.312733,-1.7864319,-1.2313533,0.3311962,0.4478202,-1.164056,2.8337338,-0.023479003,-0.7853088,0.48107082,-0.5227325,-2.4565172,0.5697926,-2.130686,0.6945537,-2.634022,-4.0173492,3.599413,-0.44178405,2.9917328,-1.1508578,-3.0400746,0.45247614,0.70637083,-0.25679854,-1.2283422,-1.5807611,1.8468058,-0.97308195,0.5802009,-6.5977893,2.2571042,3.0791678,-3.0894399,0.82848954,0.57573146,-0.48161823,-1.6918205,2.4052374,-0.48821607,0.5361581,-0.15262035,-1.2424941,4.5927653,0.8862986,-1.8645169,-0.07242323,-1.4715605,0.74202555,0.30335554,2.7212102,0.38113064,1.2701316,-3.508956,0.20614626,-0.0062452955,0.50179535,-5.318059,0.058816604,0.8916851,-1.2790192,-0.40914735,-0.17627901,-1.9390808,0.92375433,-1.2152998,-0.29032966,-1.0059005,-1.252732,0.46073878,0.26924264,-0.9450062,-0.9455711,0.7943771,-0.2377112,-0.37580705,0.6867274,0.054448996,-3.738975,0.41829422,0.36120906,-0.58833516,-0.62081295,1.0212556,0.54383135,-0.008598462,0.09204403,0.05560676,0.96649987,-0.103954256,0.37666783,0.87195086,0.37765515,0.73503566,-0.7402183,0.846816,0.7942401,0.47406018,0.63614196,0.6364874,0.15437225,0.40091434,-0.7200241,0.21582086,-0.7468713,-0.4440701,0.55238485,0.98169595,0.5410486,-0.9886514,-0.42480648,0.4045999,-0.81935626,-0.12310395,0.2570429,-1.0393783,0.06119419
-2.1465945,-8.895011,-0.89285773,-0.28024644,-4.39515,-1.2063781,-6.681767,-2.804737,-0.5776281,-0.4983151,-3.9742477,0.5546488,-1.2587618,-4.393595,2.0689178,-1.8313516,-2.3988733,-4.145943,-1.7590549,-6.1540923,-2.937599,-2.9096563,2.7720888,-2.3790703,-6.151588,-3.7888353,-4.424217,2.1247773,1.2413825,-6.5531354,-1.4904752,2.569755,1.6713867,-2.4390554,-11.897197,-1.59585,-3.1866837,-0.04909191,-3.6632211,-3.3087826,-2.507067,0.56519586,-1.2142959,-3.1231456,-3.9775043,-4.6313906,-2.2443948,-4.45585,0.8576974,-3.3204677,-2.6404757,-2.0763786,-2.3995085,-5.605819,-4.9123144,-1.9556503,-7.9845524,1.0107915,-1.1845537,-0.090376265,-0.45301417,1.3367153,-2.366238,-0.01687661,-3.9517214,-5.598805,-0.11217263,-0.6069686,-5.1370416,-3.6350706,-0.016593827,-5.127513,-8.338005,-2.2574182,-1.2165153,-4.6497326,-5.8368964,1.0166669,1.1402144,-3.5506022,0.4369646,-6.4342637,-3.2372696,-3.4037576,-1.4355981,-2.9611328,-1.5441327,-0.39082602,-5.319315,-5.7092505,-1.7288239,-5.056172,-0.6351979,-7.403709,-3.9310043,1.2054065,-4.0140877,-1.1326485,-5.1949244,-5.7391357,-2.3375618,-1.1722578,-3.6578736,-4.4165015,-11.045104,5.2609763,2.8266528,-5.274541,-0.31879082,-1.4978261,1.7859066,-2.2982228,-3.7138226,-0.8229161,1.1587845,0.69277555,-0.18939893,-1.6735754,-13.1118965,-4.9857535,2.1773863,-1.353694,1.1488233,3.5678983,-5.839991,-0.5918934,-7.151105,-0.6474834,-7.531475,-4.479138,2.4317784,-2.19989,-3.5601354,0.73178536,-3.4536393,1.9450713,-2.7201226,-1.5464298,-5.9844904,-0.7975893,-3.2259128,-10.711738,0.18347266,2.6535935,-0.9830074,3.0939054,-3.92285,1.7468625,-0.9357873,0.43916464,1.9833889,-6.5804043,-3.637776,-2.0413592,1.5100095,-1.6007667,-6.044105,-5.290041,-0.9210409,2.2364097,8.411666,8.4778385,-4.812096,-1.6477729,12.22813,0.4133639,-0.8605897,1.0466744,3.0680811,0.11510176,-2.572954,-1.7572323,-0.31469202,-3.7159564,-5.8319993,-6.066709,-7.10237,-1.3179097,-1.2794187,-0.8615206,-2.5836225,-0.33660397,-8.14646,-7.7160134,-6.975343,-8.503021,2.3071628,0.2745676,-3.873449,-0.6720093,2.96862,-0.6840973,0.69262075,-1.0693471,5.306086,-9.195634,-8.5462885,3.3797483,3.4202914,0.84007007,1.2114128,-0.19788076,1.4335616,-6.8186393,-3.952318,-0.4810962,-0.16129684,1.7695601,5.2289596,-0.01270172,-4.22783,-5.8022075,2.542575,-0.9783261,-5.8284082,0.6752502,-11.3975115,0.60736555,-0.56009936,0.23875953,-6.7187295,-2.7033365,2.5017471,-0.58568263,-0.44104588,-2.2813172,-13.681259,-10.124346,1.0964878,-1.2181174,-3.8614972,1.4050221,-5.1094785,-2.4720154,-4.6590643,-5.642474,-0.2296278,-6.530813,1.9800949,-0.13167283,-1.4990015,-0.47395828,3.613111,-0.8808369,1.2260249,-5.4082427,-0.7195168,-3.7070005,0.9534579,0.5019422,1.7344259,-7.8649716,0.22881672,-0.16760929,-5.5721602,-0.9041988,0.9254949,1.1857466,-1.5457197,1.5246075,-1.3260689,0.42833185,-2.8395607,-0.52156883,-6.6116204,0.84352875,0.1088848,-1.2321173,-4.1713004,-0.13053526,-0.84384096,-5.1028876,0.7535417,-2.5974753,-1.3216369,-1.0519309,-0.29539046,5.129316,1.307156,-3.7022877,2.4704375,-1.0719582,-0.50004834,-0.1720225,-0.69260097,0.19364695,-1.0180688,0.67654425,-0.3644132,-0.6566315,0.21262614,0.06717755,-1.6841468,0.815733,-1.1447662,0.23953438,0.8089043,-1.3766326,-0.50042725,-0.81356806,-4.4348335,-0.14635974,0.10890285,0.43555182,-2.1326776,-2.206911,-0.7217035,0.40886799,0.09467215,0.29701304,-1.2960343,0.48257858,-0.35336936,0.29465345,0.4876593,-0.87757427,-1.7107635,0.9278549,-0.82835484,0.49315262,-0.9519275,-0.9276481,0.96635884,-0.15885417,-0.1939619,-4.4560366,-0.35874355,0.4006492,-0.962011,0.03074327,0.23764618,1.6452576,1.2115179,0.94592845,-0.23927826,-0.15952246,-0.9165803,0.12790406,0.6139097,-0.51769596,-0.47398823,0.10718487,0.0066255573,-0.5414253,-0.32979232,-0.838158,-0.552147,0.044014204,-0.15507522,0.29487053,-0.82330316,-0.09324339,0.29060334,0.1391689,0.5009351,-0.768741,-0.9529418,0.29593408,-0.9422809,-0.4570383,-0.39692003,0.0781964,-0.37022674,0.012502842,0.21463776,0.8353538,-0.6476577,-0.6842571,-0.7785801,-0.30348396,0.089189075,-0.2994472,-0.25813794,-0.04887249,-0.8041791,0.4136133,-0.013108853,0.5789933,-0.75617707,-0.094469294,0.70663375,0.3773324,-1.3795795,-0.37910342,0.23242188,0.76388174,0.69304305,-0.13544236,-0.9141093,0.106352985
3.5023098,-0.92137754,-4.386794,-0.705823,-3.1659987,-6.973602,5.572405,-3.1304066,1.4768057,2.4907615,-0.5663748,1.5070053,-2.5236688,-1.2474189,-0.2683685,1.3801583,7.9609513,2.8601613,-4.1450677,3.6196606,6.8833065,-0.19350654,-2.1755922,2.412953,-0.23603146,3.9225025,-2.3452034,6.136732,-1.9735813,3.0367312,4.8370824,6.354851,-5.2946925,-1.7190758,3.4857678,0.51569843,-5.293552,6.04802,0.15968727,-5.3072824,-3.0413818,4.932951,4.4363375,-1.1725583,-0.5210782,5.6855884,-0.1386464,1.8608865,3.9213636,3.9394336,-8.692589,-0.34211302,4.6836166,0.21722408,-4.3255553,4.0228653,-2.7132556,-9.6546335,1.2293506,0.0037402725,3.5500414,4.8667884,12.687461,0.23135489,-0.4184736,4.302128,0.6407847,-4.923519,-0.8226794,1.9234986,-2.2275455,2.266517,0.10902261,5.995607,2.8161237,1.6844643,5.075306,-3.3465452,5.8244133,-0.38329604,-6.5428615,-6.4190063,-2.2514386,0.771619,-9.799428,-1.4912513,-1.6378989,8.81779,0.39125907,1.9041295,-5.4981236,0.2622984,3.8120253,-6.757319,-0.12069615,0.3135197,2.8987062,4.9283457,2.4575286,1.360393,0.4807849,3.8398795,-7.1309915,-3.5867217,5.574822,9.084462,-4.1213155,-0.8968154,6.8580685,4.8648295,4.87116,2.8674634,-1.1434273,2.4068892,2.7798629,11.131203,1.258822,6.9897485,-2.4174905,-0.14593102,-3.261005,4.091424,-5.714364,-2.0648656,-3.2155862,0.6753938,-1.1974945,1.1274402,-4.8175273,0.6847286,1.3631175,-0.11156785,-1.7125031,2.2211235,-0.040115092,-0.55032897,1.3556076,5.863459,6.894082,0.8891384,3.309078,2.1603944,0.095367536,2.4601595,-0.31373715,2.4821255,0.15047069,4.7265,4.447407,-3.7361248,9.245309,6.4960856,1.8076038,2.2377667,2.4722252,0.43696487,4.374687,5.425506,-0.74146366,10.904872,2.3334246,-0.41524637,8.984521,-0.7798266,2.428308,0.6331004,3.204797,-4.898474,5.7324147,2.8800673,-3.786164,2.069587,1.2431111,-1.6157378,-1.1147329,-0.9247054,4.1721015,0.60521394,-0.8233393,4.221535,3.4597769,-1.1390103,-0.397667,-1.792643,-0.6312403,-0.2746026,1.9880414,-0.65460956,0.35006097,-1.9942406,-0.4443479,-0.13080114,3.871915,-2.6921957,-0.62135035,-0.6915803,0.7423406,1.5610952,0.542956,12.816457,1.2065104,0.6487041,-0.82689804,2.3402445,0.44382846,0.79377186,2.311958,-0.44912595,3.3225038,0.17871301,2.091261,3.6225011,1.6962708,0.6387685,1.859334,2.85786,-2.7035844,0.45976576,1.6544327,-0.09754398,2.8680415,2.3813095,1.4940108,-0.43921536,0.073413886,2.5430565,3.0979066,3.046517,3.8218231,2.6262937,1.4659139,-0.1841895,3.5859942,-0.6177134,-1.2549337,-0.039333005,1.214703,3.4892282,4.0457835,-1.6735562,3.7375138,2.2984807,4.6031547,0.089401074,0.04821354,-1.5240598,2.631935,2.5590672,1.0638579,1.4924953,-0.24004999,-0.5545851,6.549089,0.8590221,-4.405047,3.3590484,0.6896769,0.13632677,2.9430046,0.83572,-0.1844152,-1.5219219,-0.43762222,3.0046897,0.7819999,0.10471721,3.2225516,0.26532936,-0.37535325,0.42235202,-1.1418809,1.5697364,0.12575799,0.30265006,1.1718612,-0.07743585,-0.7220323,0.86162573,0.28740034,-5.6616163,-0.24335061,1.0553786,-0.24031743,0.2130417,2.0442564,0.7209595,1.2130381,0.3097793,1.8710554,2.9783452,-0.65042555,1.2748617,2.1903262,-0.7407203,-0.662125,-0.4997038,-0.16582325,1.9758195,-1.0057966,-0.8338926,-1.041165,0.4578799,0.825938,-0.42384404,-0.064074084,-0.43878207,-0.7392049,0.8481003,-4.1194737E-4,-0.9459523,1.9461302,-0.29389232,1.0235226,-0.45479962,0.18528026,0.7061639,0.18145303,0.050837535,0.46711016,-0.37995455,1.8282934,0.5542028,-0.90086013,2.0751534,-0.7345564,0.36746067,-0.9331222,-0.93049014,-0.361582,-1.6944528,-0.36326355,0.75921565,-0.8115698,1.5549276,-0.4702393,0.9971909,0.67476714,0.43322802,-0.37387305,0.5993879,0.82157195,-0.16511135,-1.3885354,-0.6037799,0.24171045,0.6500708,0.35514992,0.7971298,-0.04747864,0.51613355,-0.9674512,-0.1840944,1.2815484,-0.09914908,-0.32399634,-0.046803545,1.2341326,-0.14360867,-0.3478607,-0.8749829,0.6075046,0.3883384,-0.07949083,-0.4028329,-0.85334647,0.53162307,0.3719705,0.39425358,0.36765543,-0.6188034,-0.79644006,0.75788605,0.29921407,-0.35653135,0.57893926,-0.3890305,-0.9736484,0.6335556,-0.05071357,0.59596074,-0.6224518,-0.5831427,0.18726805,-0.32620946,-0.15917672,-0.76961493,0.16688655,0.32131085,-0.4605259,0.9708556
-5.311675,-1.6677223,-2.6083858,-6.096467,-4.4956484,-3.8081975,-8.797967,0.13837269,-7.3286643,2.513691,-1.0328275,-3.6462052,-4.114916,0.20537934,-3.162483,-1.9979228,0.71851367,-5.044491,0.92524797,2.561211,4.1151595,-1.6889782,-7.695856,4.583187,7.2014394,12.305023,-2.6461155,-2.0802362,-0.59167206,-1.1597196,-2.8702207,2.120971,8.245041,-0.6717014,12.067532,0.8099684,-2.2344246,0.6109907,-1.810799,-1.972564,-1.1892365,-3.3391132,-2.7389932,-7.245955,-8.489514,-7.771489,3.5180194,-2.0339212,-8.644643,-5.1235824,-6.1245017,3.1511047,5.237785,-5.909988,-4.056117,-5.1747227,-2.3596733,-7.36991,-6.774152,-6.6676693,5.235577,1.8778924,2.6969635,-2.6071754,-9.21303,-0.35333005,6.088693,-7.0455003,-4.9372663,-9.007137,-5.5752788,-2.2020147,13.861482,-4.5345073,-10.131281,-9.191019,0.9904943,-0.6895754,1.3675166,-5.7424145,-8.956488,-6.489393,1.401333,-1.3384544,-5.3340807,2.254162,-0.55218077,0.48991823,-0.55236673,-3.6135368,-4.6065087,0.57760036,5.98805,0.64550066,-5.76753,1.5551978,-3.9076633,2.781157,4.015683,-3.4448025,-0.8892756,0.0011104293,-2.6911595,8.679353,0.48694617,-0.4935848,-4.756922,-6.808927,-0.6978142,-4.840257,-3.9020424,19.490808,5.3762903,-1.0135555,-1.2201438,-5.599222,-4.109468,4.5981383,-4.378976,1.5838454,-3.3733296,-1.678685,-5.0097036,-2.485499,-0.30934036,-5.0569243,-0.81120384,-1.5404986,-9.859959,3.2105489,-5.330683,0.3233779,-4.4441667,-6.5108514,7.4091554,-4.057411,-7.2598543,0.6137857,2.6326299,-1.4983125,-2.6106837,0.5064605,2.7669675,0.3736889,0.68823254,-2.2253587,-2.8773115,0.10139077,0.39040035,1.653785,6.23996,-1.0771852,-0.49062952,-1.5259374,-9.009279,6.3818307,-2.3365514,1.552034,-3.7640464,-9.769575,-3.23702,-3.6538556,1.0197415,-1.3923982,4.7020354,-0.33090386,-1.8508699,-4.6636972,3.9399393,-5.142589,1.0332654,-3.5702255,-0.27938858,8.940552,-4.918938,-3.3396142,4.408135,-4.423796,-2.9384987,-3.4213383,-4.749854,-2.4809692,-5.0189013,-2.2954233,-3.3212335,-2.4112694,2.280495,0.13218048,-4.9024763,-1.856157,2.372546,-1.1125088,-0.9798379,-10.82441,3.0122447,2.2269173,6.92718,-1.0855012,-0.077606305,-0.11740716,-0.056276035,1.6665174,-1.2174423,0.20847988,-2.541918,0.9556539,-6.285246,2.6945097,-4.513054,-2.2826717,1.1592973,-1.4921864,-7.4165535,-1.0150816,-7.8274145,-1.8432955,-1.2656466,-0.1311234,-0.7095523,-5.5501785,-3.2759926,-10.607588,-5.825024,2.9784858,-2.145996,-6.1731935,-1.8326867,-0.545822,-0.8398777,2.290948,-1.0121903,0.74942064,-4.01646,-0.32374242,-4.4052014,-1.5097768,-1.61179,-1.7388994,-6.8855047,1.4497067,-1.7187676,1.4101659,1.8584001,0.4214289,-0.22840181,-5.8663807,0.029955713,-0.31476784,-0.4214801,0.4694031,1.3730186,4.3430953,1.2964963,1.5982838,3.7005246,-2.1970181,0.45951903,0.16281517,-2.3414986,0.72019374,1.4318888,-0.047976106,-2.2103682,0.9905725,1.8233762,-0.29655638,-4.907875,-0.91114944,-2.2182314,0.7853868,0.42457002,-2.0843573,0.51696014,-6.5172925,0.4078271,-0.37048805,1.9888793,-0.9693929,-3.481756,1.4675918,4.43901,-1.3100061,0.21157043,-0.071596146,-1.9728317,-0.9125388,-1.5689551,-0.6405234,-1.0906584,-2.554518,0.6804708,-1.0199777,-1.4371275,-0.8324555,-0.38385254,-0.26172587,-0.55585325,-0.7223707,0.24607176,0.39756176,-0.90639096,-1.7432348,-0.28288105,0.96890706,-5.0551505,-3.671098,0.82734984,-0.28302434,0.725886,-0.40179703,-1.4274727,0.8150971,-0.3943851,0.7690178,-1.0388321,-1.7089102,-0.49487677,0.26771238,0.34129634,0.8141514,-0.5272697,-0.30082437,0.98336005,-0.5873762,-0.89405745,-1.3942146,-1.5062115,-0.55277914,0.3689063,2.0576215,-2.4063196,-0.44843712,1.7370155,-1.349419,0.9815448,0.07058122,-0.061710197,0.17539528,0.27076253,-0.060967866,-0.39899617,-1.2927665,2.0162077,-0.60269505,0.10343773,-0.4905807,0.47502258,-0.057650704,-0.27596045,-0.34620366,-0.11031334,-1.4876342,-0.18151823,-0.20415613,0.573456,1.0407128,0.638118,0.18464854,0.7961451,-0.45784247,-0.4131837,-0.84238,-0.1549208,-0.51043963,-0.44335297,-0.22414638,-0.97726965,0.082334325,0.54410315,-0.36594442,-0.6647785,0.42716798,-0.03467254,-0.77859485,0.20535675,0.28219095,0.66136634,0.42398092,-0.067429624,0.37278163,0.38065255,0.5267908,0.69687337,-0.2544548,-0.38681543,0.07481554,-0.295012,-0.22552535,-1.0204307,0.9817263
5.7714567,-1.9620081,-2.3721988,0.71973366,7.5164795,-1.5366262,1.0727223,0.82474864,0.13364166,-3.2396953,-5.2870092,0.12245032,0.63338876,-5.727747,-5.9478955,-4.2011228,0.038009904,0.23128267,0.66638345,-0.13936764,-11.419911,1.0951988,2.4725132,1.6456373,-1.350045,15.334544,1.6627454,-8.842925,-2.3304987,-2.4900908,3.1344225,1.2996796,-3.0231678,-1.3658475,-0.07279767,0.47510853,2.4810755,-1.4306879,0.20421505,-2.9809163,1.5559492,12.614059,-4.6929193,-6.6973567,3.1131675,-9.341547,3.063048,-1.5581447,-0.15598673,0.80005676,3.904515,3.00407,-1.4169886,-4.3394637,-0.3164814,-3.3173716,-5.3282614,-5.6584053,-3.5750475,0.0051941033,-5.1796613,6.8939714,-1.1300126,0.6407526,-2.611096,-0.1329618,-4.2527394,-3.9572425,4.943965,5.6356387,-1.0250472,5.8107834,-1.9547071,-0.56387323,-2.710136,8.39855,2.2957854,1.784483,10.582949,0.2131939,-7.3192186,-7.1818,0.45931858,0.86750305,-4.09973,-5.713013,-1.3449675,-6.4066505,-10.342753,-2.1939967,-10.952451,-2.3273447,7.7971554,0.7559206,2.3284304,-6.0204864,-4.6464267,-3.0188088,3.8544245,0.08925261,1.60989,-3.5430605,-8.470788,-0.8414653,1.2177176,6.011935,-2.3998187,-5.2612143,-10.31168,-1.4936695,9.980785,0.75853336,9.484619,-3.737228,0.1707514,-4.9551287,-4.111851,-5.718763,-6.8729644,0.84614426,-0.2600659,1.8609778,-4.9671764,-0.069993496,11.29413,-5.8617783,2.03675,-3.9197628,1.3514963,-0.5040612,1.9983433,3.3615074,-1.9117855,-0.03588082,2.9623528,-0.92307913,0.5230624,3.9402113,9.037229,1.5801573,-3.3385224,7.9174337,4.1997576,4.9493556,1.8335067,-3.2392535,-1.5674853,2.9242475,-1.6880124,-2.503779,9.737773,-4.7297416,-2.8291438,-0.89433295,-4.557321,-3.2964802,4.581078,-6.6063924,1.6436305,-1.0769883,-0.084380165,-1.9268581,14.350655,-0.34886432,2.1432483,-0.009338726,-3.7037506,-2.6877577,1.0246825,2.5925562,5.185233,-7.640583,-0.52878183,-6.0580974,-3.0056207,-2.1545923,4.786385,-1.2392901,-3.5052028,-1.7349846,1.9765661,-0.6988909,-3.1386786,3.9981897,-2.6841176,-2.1898148,0.43274745,-1.8091711,4.7591114,3.6742275,6.522068,-0.20644267,-1.2720746,-2.4040358,-0.14165273,-7.930532,-0.04232347,-3.5868075,1.2016562,1.138426,0.93396914,-9.327131,-2.743485,-2.0266569,-1.1919854,-1.4165318,-3.128044,1.568058,5.6045113,0.47599423,-1.9587545,-2.6079495,-2.4686084,0.1342111,4.3865747,0.24082851,0.50970536,0.36392203,0.41652966,1.0859305,-2.7367315,6.0721707,1.8080585,-1.6953499,1.1331915,-2.560717,-1.7200054,-3.66844,0.93953454,-1.9069488,0.8200985,-0.85394853,-2.8900664,0.22209762,0.6726397,0.54374135,0.9320601,-4.9464617,-0.3003325,1.2757161,-2.7722626,-0.54544115,1.4951724,-0.7095244,0.31188238,1.5833373,0.35488236,1.8091698,0.711944,-2.076022,0.9815257,-0.7999462,1.1496568,-1.906465,-1.4179776,-0.07159563,-1.3557132,0.46903986,-1.7703418,-0.5436272,-1.5483719,-0.12841637,-1.8403919,-2.5948331,4.5173826,-0.95133615,-2.9782057,-0.37500086,-0.7292452,0.9469923,0.8585989,-1.915968,0.14786117,0.101508744,0.8327681,-0.781667,-0.39970738,1.1366884,-2.7458205,2.486897,2.0403104,-1.5935496,-0.9032563,1.0056098,-1.6898654,0.7321691,-1.9882987,-0.46599588,-1.4365933,-2.4101715,-0.6545513,-0.7208065,-0.9820975,-0.8248335,1.320481,-0.27712286,-0.0013065935,-2.424497,-0.9983581,3.1389482,-1.0174112,-1.2133677,-0.7105381,2.3554697,0.50391936,-1.2132688,0.56125087,-0.15216362,0.50614065,-0.18008152,-0.5863267,-0.05065969,-0.95650095,-0.24762131,-0.75228953,-0.5198392,-2.3363936,0.7854718,-0.32701835,-0.044500142,-1.7246596,0.9346555,0.5794861,-1.1375446,0.2729098,-1.7945727,1.6272867,0.6374509,-0.02065872,0.45123816,-1.1876166,1.4909102,0.1215898,-1.4001124,-0.28186116,0.941316,-0.57860494,-0.40135366,-0.7352969,-0.8666467,0.3699512,-1.1749232,1.3684456,-0.8292037,-0.913757,0.27744743,-0.027653592,0.90644604,-0.9387142,-1.3878143,0.41110155,2.257048,-0.26131934,0.69810146,-0.6868361,-0.57601804,-2.5988355,0.6597424,-0.53178555,-0.5719216,-0.8663402,-0.3349489,-0.14325972,-0.7226329,-0.88566095,0.5637565,0.66704327,-0.10397575,0.17440954,-0.17274362,0.09925062,0.73202074,0.52622175,0.8690596,0.075281896,0.7022504,-0.3122686,-0.5647389,0.7227703,-0.26713842,-0.45073935,-0.42868492,-1.4611171,-0.6078292,0.45407596,-0.8034398,-0.21401452,0.6510184,-0.091910444,-0.831044
