-1.0779513,0.25280645,-0.48140404,-1.2703692,-0.13359758,0.23629825,-0.67820024,-1.187185,0.76610667,-0.22827779,-0.5332787,-1.697703,0.18022218,-1.2600459,0.16043666,-1.3328054,0.010523172,0.8235564,-2.1637952,0.16607954,1.0960578,0.9359627,0.7059867,-1.1949679,-1.2900139,-0.7992733,-1.6710144,0.804476,0.8909693,-0.18259072,-2.8067052,-0.44398257,-0.9347589,-1.8500072,-2.454491,-0.2687076,-0.70041174,7.93537E-4,0.039786052,-0.7989364,-1.929806,-0.071952835,-0.3488929,-0.4187573,-0.45495617,-0.5849856,-0.6588739,-0.35667557,0.32585028,1.0825311,0.49397895,0.66667926,-0.96134984,1.3180461,-0.70926434,-0.09128502,-2.6166792,-1.2022572,0.44877243,-0.8787467,-1.5207256,-0.2912956,0.34466925,0.87026596,-0.78977525,-3.1730356,-2.2869427,-0.6807317,-0.93378854,2.549583,0.6567729,-0.39124572,-2.8208714,0.7457061,-0.29396287,-0.5747571,-0.3792418,-0.66323566,-1.1856436,-1.1428282,-0.28016445,-0.5500753,-0.18274018,-1.2650111,-0.66942084,-1.8451967,-2.1256502,-0.55519706,0.5292803,0.20949747,-1.1186417,-1.7974461,-1.3916014,0.027615774,-1.700934,-1.4929127,2.7005117,-1.1509397,-2.881855,0.86173576,0.8793408,-1.9019936,0.34497017,1.156903,-0.52187586,-0.88374513,-0.055880185,1.009215,-2.9910815,-0.6177737,-1.9333291,-1.6749775,0.21794666,0.02448204,0.09544762,-0.97504926,0.32767475,-3.965057,-0.6572512,-0.2820079,0.3769835,-0.8560343,0.11419532,-0.44705534,-0.8412369,-0.17716841,-0.18199693,-0.90566427,-1.0987802,-0.24438669,-0.5939364,0.3470442,-0.26006767,-0.4555729,-1.0896432,0.93352634,2.347069,-1.9169084,-0.925699,-0.8067079,0.96307385,-0.25253284,0.9223828,3.965805,-0.8690392,0.27334026,-0.7348417,1.2183622,-0.030687606,-0.4711695,-0.08528419,1.7971073,-0.6792715,-0.5026053,-0.92235667,0.05124797,2.9807172,0.17810538,1.7592747,0.64072186,0.8828674,0.30702466,-0.8333727,1.3305944,2.2631629,0.031185668,0.7975399,0.7223591,-0.67522544,-0.43508315,-0.31754822,1.1407055,-0.1737526,-0.23015037,-0.6641854,0.69976854,0.013061533,-0.43087223,-0.0137267895,-0.42035848,0.84342915,-0.3969855,0.6986074,-0.38595286,-0.5953698,0.9032301,-0.17752631,-0.8916588,0.1754625,0.025815554,0.6039841,-0.18058199,-0.53980774,1.4009266,-0.40668747,-0.30575135,0.09234202,-0.36072975,-0.35513076,2.0071812,-0.51989055,1.0027417,-0.9536152,0.6328846,0.21953973,-0.34020302,-0.087157086,0.8390899,-1.3275793,0.6093387,0.07938226,-0.14541072,-0.1094003,-0.3919394,0.6769063,-0.71218437,-0.04484698,-0.54383796,-0.2202549,0.05144907,-0.4562141,0.28,-0.90943944,-0.37576038,-0.5145849,1.0337707,-0.15382259,-0.8113453,-0.10850025,0.56479454,0.5625193,-0.44449753,-0.1279364,0.0061330656,0.93458235,-0.41555914,-0.48648834,-0.11140672,-0.508945,0.9621284,0.4626003,0.5220724,-0.4911653,0.6843094,0.3781756,1.010712,-0.47564635,-1.9536927,0.56510884,-0.34191555,0.21598706,0.66210294,0.5098577,-0.10101324,0.71171594,0.4738892,-0.33222416,0.9978928,-0.038342044,-0.627564,-0.06775355,-0.48735914,0.90915966,0.6876548,-0.8953305,-0.3955861,0.15960751,0.69998944,-0.97830695,0.22109672,0.751205,-0.8202548,0.10812297,-0.080689415,0.7448226,0.9254813,-0.42983714,0.11767283,-0.2394758,0.65026903,-0.9725893,0.4148814,-0.13297977,0.53282183,-0.2521229,-0.98638004,-0.9450917,0.8704003,0.033678606,0.58840173,-0.35416096,0.19906661,0.63355356,0.15547755,-0.5688967,-0.14677477,-0.72468233,-0.6851035,-0.1356204,0.09782298,-0.7379193,-0.2603822,-0.70853806,0.64257705,0.5288272,-0.07687009,-0.40303817,0.7682565,0.49624532,-0.18829392,0.9521326,-0.30859393,0.47903946,0.77936053,-0.82200027,0.80161583,-0.519888,0.27900073,-0.33898836,0.9244417,-0.09829141,0.13309158,0.49869022,0.9265696,-0.16653876,0.90757877,-1.0027257,-0.1620637,0.7982415,0.50789815,0.7198754,0.5773557,0.9119164,0.1729348,-0.20960768,-0.0649532,0.04587657,0.06074043,-0.79698527,-0.7255608,0.15293412,-0.02700448,-0.9384478,0.29238233,-0.69093204,0.80006146,0.04403309,0.32364452,0.4184323,0.0040680086,-0.86331165,-0.4985956,-0.79238516,0.2877515,0.48589057,0.9594596,-0.8345938,0.9126124,0.0069126454,-0.013713366,0.5908305,-0.7359915,-0.9702912,0.78530484,0.7408985,0.040405624,0.55697095,0.6375821,-0.18632424,-0.5041251,0.7975299,-0.8590167,0.07871533,-0.17443523,0.5058994,-0.81947845,-0.4893418,0.9431247,0.27129778,0.45956454,-0.3553745,-0.95872724,-0.28566256,-0.9973374,0.31677353,-0.85462034,0.34109968,-0.80920964,0.70369285,-0.39759558
-0.47433975,0.21647339,-1.0633005,-0.55190164,0.68386614,-0.13222641,0.33323625,-0.23528308,-0.6485411,-0.3251593,-0.07551316,-0.44643283,-0.14553685,0.24037552,-0.008043731,-0.42549604,-0.29453206,0.11499304,-0.9150949,-0.42730352,-0.5972269,0.616959,-1.0530685,0.6308795,-0.09876391,-0.3382719,-0.6966509,0.31439686,0.3829221,-0.41209498,-0.87781805,0.2612654,-0.19727229,-0.38170063,-0.758422,0.6148353,0.36290526,0.8858214,0.5220035,-0.46394172,-0.7926628,-0.19557406,0.1374908,-0.14600168,-0.59323955,-0.13175032,-0.6429644,-1.1422045,0.80399215,0.60102606,0.15037441,0.32035264,-1.4037801,-0.8572694,0.3720113,0.2449563,-1.0173286,-0.5225862,-0.6391634,-0.5721242,-0.30354622,-0.042834155,-0.9333204,-1.2193012,-0.40056825,-2.2247603,-0.36881387,-0.735189,0.69386953,0.6293834,-0.9531712,0.3094889,-0.32974964,-0.033234447,0.55482346,-0.6712943,-0.6953552,-0.8246879,-0.8249294,-0.4287646,-0.26229188,0.3205828,-0.7655152,-0.46847418,-1.2210052,0.3418084,-0.64892286,0.8338922,-1.0321707,-0.9828877,-0.41503203,-1.5655118,-0.8845918,-0.38622317,-0.13432074,-0.68943536,-0.22747052,0.5064596,0.2596571,-0.4752305,0.25691283,0.23169065,-0.050263207,0.18799046,-0.39459866,-0.9893064,0.13019852,0.4380823,-0.8619433,-0.04484156,-1.1712432,-0.91704625,-0.4220151,0.42972937,-0.25794074,0.541289,0.58008164,-0.9950827,-1.0313497,-0.51121706,-0.14472722,0.19348009,0.15444218,-0.815012,-0.32073575,0.32914278,0.63400567,-0.67404115,-0.07275039,0.48450515,-0.52395254,-1.0142087,-0.62756187,-0.63026804,-0.20095383,-0.54741937,-0.35887352,-1.008148,-1.5016122,-0.69429654,-0.039808758,0.30213434,-0.40758598,-1.0792639,-0.56868196,0.19894809,-0.046748586,0.4343232,0.17238577,-1.2420666,0.6008321,-0.88739437,-0.8145225,-0.774322,-0.7578875,-0.91639656,0.50149965,-0.9742554,0.07671837,0.65572065,0.3072567,0.49880168,-0.18134007,0.7894677,-1.0414169,0.8078359,-0.4858228,-0.9826173,0.20646526,0.14190198,-0.85281694,0.82478,-0.9214851,-0.3680548,-0.07066155,-0.38136622,-0.602286,-0.5933024,-0.052921668,0.83867323,0.2179829,0.30321753,-0.61970246,-0.69678235,0.49012578,-0.80998915,-1.1360868,-0.26794264,0.54488564,-0.13749246,0.26488683,0.61914265,0.7762833,0.27326578,0.6804783,-0.83187175,-0.015760968,-0.84984106,-0.3995383,-0.78317887,-0.32756284,0.41553438,0.010589697,0.42061707,-0.69822353,-0.49115196,-0.68166673,0.39009336,-0.9204096,0.7807033,-0.086747445,0.5343264,0.4694222,-0.044298958,-0.180634,-0.20920816,-0.48188236,0.6220963,-0.6977486,0.19212273,-0.5646299,-0.029773818,-0.4633356,0.56280345,-0.80532837,-0.3865842,-0.331807,-0.55779475,-0.5688337,0.0457081,0.3673862,0.5682707,-0.13577694,-0.28405148,0.21008316,-0.025360854,-0.21270251,-0.4021827,-0.05225876,-0.08366549,-0.8456749,1.0433769,-0.8333468,-0.6178173,0.9128214,-0.41061047,0.23090927,0.49014202,-0.03725417,0.695057,-0.8100538,-0.35091752,0.35343677,0.032235295,0.212699,-0.88915396,0.34561914,0.9646627,-0.38031474,-1.0004499,0.8441595,0.4968902,0.71201795,0.93243104,-0.36594543,-0.42092526,0.22754326,0.049207255,-0.9480969,-0.17409459,0.13527158,0.61945873,-0.81365085,0.75848275,0.7706762,-0.56728584,0.88975865,0.7756586,0.22901197,-0.3035201,0.33721265,0.96453977,0.6995346,0.1880238,-0.51200974,0.58478314,0.23170781,-0.5608227,0.32118016,0.28733197,-0.08264141,0.13309489,-0.2635235,-0.8257442,-0.5562709,0.8316555,0.22122079,0.52224827,0.5962333,0.032499533,-0.095506184,-0.8358189,0.85521525,0.9158198,0.14691615,0.12095544,0.23924673,-0.94613034,-0.38651013,0.517417,-0.44747117,-0.3781833,-0.15255411,0.045290813,-0.011209681,0.3948312,0.09560736,-0.3681521,-0.24284057,0.06254916,0.58533853,-0.51739645,0.4076743,-0.47968218,0.03380649,0.88488483,0.65847033,-0.62789357,0.29328835,-0.9666563,0.92079693,0.94456726,-0.64510274,-0.87424934,-0.60264546,-0.24415703,-0.12351408,0.3222235,0.8977583,-0.89975536,0.6661877,0.4028152,-0.8080369,-0.02797131,0.91418177,-0.49889988,0.53332925,0.121401325,-0.6854677,0.15169743,-0.12728553,-0.053484492,0.44393328,0.32484725,-0.24790034,-0.8608821,-0.7203742,-0.7235519,-0.07421437,-0.27266178,-0.60074383,-0.7121054,-0.40276688,0.73987097,0.7268807,0.4084557,0.05012358,0.40152636,-0.21878067,-0.62498724,0.9753417,0.47101384,-0.6981019,-0.37597245,0.6439649,-0.7000254,-0.12923153,0.0021056333,-0.98478264,-0.15422373,0.1681462,-0.95545703,-0.006294275,0.05470793,-0.11448379,0.9260834,0.49191964,-0.2106928,-0.0895246,0.4597146
0.454554,0.7760266,-0.21592468,0.35243347,-0.42604142,0.2707207,0.13082539,0.81666577,-0.2285696,0.13916734,0.12996061,-1.0669134,0.64458996,0.24419816,0.04756433,0.7527094,0.110553354,0.9140132,-0.78226113,0.58124053,-0.46675006,0.7058986,0.6518675,1.2617292,-0.10358322,-0.46606234,-0.43171427,0.54200536,0.37596083,-0.64134663,-0.28130677,0.7866557,-0.8273152,-1.0568904,0.30328378,-0.19513506,-0.5243083,0.09295571,-1.0247958,-0.12934364,0.70558125,0.21499713,-8.0195453E-4,0.20962067,-0.22147381,0.73316246,-0.18812025,-0.7632728,-0.1124694,-0.81467676,0.8856056,-0.07971642,0.9787777,-0.60339326,-0.05893713,0.6396094,-0.9168318,-0.23435378,0.016960198,1.0360664,0.41605082,-0.2865397,0.20862576,-0.5716028,0.16540635,1.875345,-0.93582594,-0.59878993,0.08021166,0.5307412,-1.0822698,0.23001042,-0.46670213,-0.6007384,0.968873,-0.5254414,0.43154177,-0.61193305,-0.34048313,-0.04262011,0.24550182,-1.0066242,0.2246464,-0.13556837,1.1574732,0.31410372,1.0661336,-0.22119795,0.4490083,0.09697496,-0.4372998,-0.0761023,-0.27820617,0.78528583,-0.26065937,-0.5698859,0.9462144,0.44656816,0.66155726,-0.7531125,0.027833784,-0.83077055,-0.6483235,0.08612455,1.1359466,-0.67935324,-0.536843,0.17105372,0.43922234,0.36868867,-0.76383907,-0.4023505,-1.7484866,0.79664254,0.0775258,-0.5590999,0.36932337,0.50657886,0.78655136,-0.03966887,-0.111741915,0.25416294,-0.7872791,-0.18230386,0.5625179,-0.18735957,1.0894375,-0.19831325,-0.6054271,-0.526131,0.2818442,0.9487541,-0.08304885,0.8877607,0.9380096,-0.9541657,0.542452,0.4335589,-0.18796457,-0.62701297,-0.281959,-0.55658114,0.6889886,0.3254768,0.16148575,-0.11633429,-0.13160294,-0.028813789,-0.27803656,-0.43121713,-0.31132743,-1.0018553,0.48008132,-0.77986455,0.33636776,-0.46471688,-0.74598485,0.5923586,0.4974512,-0.19242147,1.0232934,-0.19896248,0.5856966,0.1273466,0.011476062,-0.28666297,-0.60978544,0.0014789545,-0.9710402,-0.2682231,0.12290667,-0.4612782,0.39921236,-0.9657497,-0.0021360863,0.11272338,-0.5165736,0.7635517,-0.39793423,-0.65940595,0.18597224,-0.93287325,0.33093554,-0.77061784,0.8707373,-0.33081067,-0.1697858,-0.6007016,0.14176819,-0.16362305,-0.1137653,0.32343486,-0.41710532,-1.0550327,-0.96137583,0.7758247,0.38126272,-0.77500343,0.97234,-0.059307978,-0.2519745,-0.32270324,-0.55858696,-0.28540385,-0.84449404,-0.59428114,-0.21042432,0.45533997,0.75614184,0.16807641,0.0014469675,-0.07329371,-0.27980924,0.2224794,-0.27311933,-0.47821218,-0.23484288,0.85049224,0.3337845,-0.5700372,-0.7150418,0.57277447,-0.7513017,-0.7081301,-0.15632878,-0.590292,0.6303035,0.67445993,-0.1891009,0.2528179,-0.75597394,-0.5922604,0.6404319,-0.39443403,0.12728241,0.15853778,-0.4850147,-0.57229465,0.31655565,-0.87971956,-0.8351036,-0.48896527,0.3319589,0.7607534,-0.5323399,-0.054870665,0.5433022,-0.8029163,0.14413811,0.35794595,0.27551693,-0.62295395,-0.22723149,0.1833091,-0.4775786,-0.7040484,0.25335407,-0.6581778,0.4611957,-0.25633675,-0.2528914,0.12389239,0.079158776,-0.009354163,0.83977777,-0.20762007,-0.945985,0.14595905,0.5045548,-0.068802506,-0.5124232,-0.80007625,0.33219787,0.4195189,0.24591495,-0.02532017,0.9304433,0.2797843,-0.9195728,0.2782404,-0.43656805,0.87474406,-0.5272177,0.71326387,-0.6356697,0.60848325,0.42760256,0.45395038,0.38406757,0.1905432,0.69909275,-0.4989959,-0.2776632,-0.69562113,-0.105977856,0.87551534,-0.5028281,0.20662126,-0.82770437,0.53449464,0.062881574,0.4709963,0.20913394,0.6729425,0.35606226,-0.4331331,-0.16274643,-0.98088634,0.30489054,-0.007012381,0.59047407,0.6645414,0.27848744,0.23536189,-0.9220741,0.4387647,0.48027903,-0.1206109,-0.84367716,0.95222425,0.1578226,-0.009606498,0.7712399,0.15329894,0.023815097,0.31603643,-0.87134206,0.93861413,0.27634755,0.5784568,0.96582806,-0.6394223,-0.2922464,-0.6477316,-0.36514,0.7528661,-0.84182054,-0.44927868,-0.42093143,0.009481449,-0.06608411,0.67799294,-0.97861683,-0.25497755,-0.46313265,0.6796974,-0.074987866,0.8742499,0.7878479,0.44717544,0.6916733,0.061224286,-0.057531647,0.035973705,0.122758575,0.81493336,-0.55838335,0.5901495,0.79706556,-0.097652406,0.5104651,-0.46154842,-0.2228436,0.2507779,-0.8690576,0.51886016,0.18956816,-0.48689944,0.6432002,-0.028289745,0.85417825,0.082354486,0.116582036,-0.24989907,-0.6186111,-0.5020164,0.21806434,0.36293623,-0.5047809,-0.09496036,0.07804974,0.32226196,-0.25841725,-0.49043354,-0.9751355,0.9038766,0.55475545,-0.17675497,-0.6526148,0.47820172
-0.64016014,-0.15591072,-0.0358345,-0.22658934,-0.28758898,-1.2805318,-2.0394406,-0.87058765,-0.47891414,-1.3440272,-0.997239,-0.27792263,-0.3396005,-0.41805267,-0.65121573,0.5486061,0.7930431,-0.089028426,0.63364005,-1.3250679,-0.5379267,0.36737818,-1.334636,-1.5423604,-0.17594959,-1.2712882,-1.5223578,0.5801214,0.7420912,0.035723686,-1.2722718,-0.50011575,0.84495723,-2.5602007,-2.1941788,-0.7163259,-0.12274332,-1.4020497,-0.3506362,-1.4756806,-2.60507,-0.70204353,-0.7463978,-1.1084504,-0.61047477,0.10511487,-2.0776541,1.2911046,1.1038437,0.7602517,0.75623816,-0.8173422,-1.1271683,-0.5083844,0.07760684,-0.5091322,-0.3986458,-0.13489416,-0.5305047,0.37352768,-1.9103155,-1.3609211,0.57117116,0.62379944,-0.30915093,-2.5549846,-0.12395425,-0.35498226,-1.1611513,0.14975111,-1.2798868,-0.40415922,-0.13292459,-0.117604375,-0.8050245,-0.58419764,-0.71077096,-0.33020043,-2.3159704,-0.47914407,-0.22141418,-0.124099225,0.7109634,-0.74590164,-1.6245486,-0.65825486,-1.482636,0.19388928,0.25141886,-0.058906253,0.2602565,-2.0850391,-1.4512697,0.28537935,0.81394285,-0.36641958,-1.3552109,-0.31715986,-1.7663844,0.021213716,0.23997247,-0.6611863,0.22810112,-0.10320672,-0.4669915,-0.14792559,-0.016282683,0.02270668,-1.6911714,0.040316973,-1.2533115,-0.67776185,-2.3818128,0.15806311,0.10864546,0.6561401,0.499356,0.037108365,-0.44077137,-0.11701374,-0.6932963,-1.2254826,-0.87764186,0.9878634,-1.4505092,0.16596335,-0.9143599,0.43188074,-0.24829936,-0.8237727,-0.36607015,-0.2479914,1.163495,0.84101367,-0.22646026,-0.16049467,-1.6055622,0.0065435953,-0.5566479,-0.01806999,-0.041496318,-0.45291895,-0.14976159,-0.7009853,-0.7936143,1.069959,0.58409053,-0.06312839,0.36956117,0.9001926,-0.8167248,-0.15389255,1.0861009,-0.3791615,-0.071545586,-0.10594852,-1.0234375,-0.7743078,0.77787685,1.5672593,-0.34999946,0.36063996,-1.4302142,-0.92130435,0.05890816,-0.03257018,0.2691547,1.0770683,1.2520792,-0.09479862,-1.5276555,-0.016502734,-0.4719945,0.0073130247,1.164798,-0.41211542,-1.2603428,1.2307845,-0.44705543,0.6088819,0.22136083,0.68009156,-1.3012103,-0.6619161,-0.7240751,1.2028166,0.07323932,0.14190125,0.20250607,0.38575327,-0.27111548,-0.8991364,0.20503572,1.33479,-0.38947552,-0.136394,-0.63955057,-0.49721262,-0.43454334,0.9419975,1.1837928,-0.58369255,0.4105841,0.61784494,-0.5051442,-0.60163987,0.8970624,-0.31645682,-0.28315952,-0.5234408,1.1108772,0.21234713,-1.1161563,-0.059021585,-0.033684526,-1.151789,-1.4518833,0.5563243,0.22630823,0.99589103,0.14932874,-0.23720334,-0.8576588,-0.6659623,0.053027827,-0.3207023,-0.06601214,1.058078,0.5765723,-0.73334223,-0.06666275,-0.5785623,0.25195846,-0.82927275,-0.5522362,0.85109055,0.54727006,-0.67892367,0.41419914,0.20788015,-0.9202906,-0.9510563,0.66677904,-0.6056886,0.9856095,0.74712133,0.042273894,-0.9092842,-0.12389863,-0.90904826,0.21239798,0.8752042,0.4892833,0.700472,-0.17412251,0.29342228,-0.8668591,-0.34768224,-0.6731439,-0.8336764,-0.35329774,-0.6058314,0.6719615,-0.05183289,0.20886661,0.764057,0.51620126,-0.4080653,-0.9277379,-0.56679034,-0.3113423,0.46029693,0.895455,0.4329831,-0.8014627,0.3797678,-0.03520055,-0.050307605,0.27759895,0.5497697,0.65331185,-0.9819878,0.40093124,0.61914146,0.053217266,-0.3977662,0.19015282,0.25523686,0.8462956,-0.7249596,-0.6152479,0.5070974,-0.20112213,-0.19259931,-0.065659426,0.14841104,-0.24707018,-0.59402466,0.26686355,-0.52386606,0.058277074,0.8192326,0.37539682,0.05472865,-0.691376,0.5590056,-0.68886375,-0.50071436,-0.40890214,0.12678939,0.8218244,-0.40737072,-0.039104905,-0.9196196,0.68139505,0.6013161,-0.09176793,-0.82395136,-0.25267762,-0.46613947,-0.903001,-0.4930575,0.58802724,0.62345314,-0.90566355,-0.72174776,0.9414406,0.16256052,-0.5637534,0.9641934,-0.5518518,-0.8923573,0.036193352,-0.120314926,0.84448963,-0.8476491,0.8851906,-0.11328799,0.6372842,-0.1789327,-0.932711,-0.031743117,0.24680749,-0.09712271,-0.4050517,-0.8622976,0.51572496,-0.2668975,0.22383812,-0.88747793,-0.5177592,-0.3476368,0.29980534,0.2500756,-0.45043296,-0.8251118,-0.53398186,0.7562905,-0.3429419,-0.4984829,0.5232734,-0.35376474,0.81981575,0.8139817,-0.91470236,0.22705664,0.29379296,0.48788318,0.659496,0.7360732,-0.17078863,0.3050059,0.09965378,-0.79105824,0.6252701,-0.88914216,0.45558771,-0.35555014,-0.6942471,-0.21192314,0.9132466,-0.6417269,0.22056688,-0.7013277,-0.038279753,-0.767819,0.56046623,-0.056123935,-0.65882415,-0.32321393
-1.8938638,2.022038,1.9638649,-0.3483536,-2.8543227,0.7657729,-2.1830595,-1.7464551,0.6129134,3.1773405,-0.072283104,0.32237646,0.973648,1.7810479,0.52659446,1.0937215,1.7462771,-0.8222152,-1.0783203,0.24786256,-1.105568,-1.6101772,-0.9133218,2.4153516,2.503943,3.9977396,0.44119048,0.13627408,-0.2696783,0.61823016,2.3176687,0.6521788,-0.3811071,2.114786,0.045621403,-0.75785834,-0.5954052,-1.9176009,-0.7664931,2.4432602,4.4046073,-0.50748885,0.16641988,3.9817204,-0.84627885,-0.21038446,1.3197118,-1.3477639,0.40665278,-1.8621254,0.2225228,0.25946492,-5.4198675,0.044611882,-2.105435,0.20451482,-3.3133142,0.011369637,-0.47054783,1.3732935,1.6498429,2.5462222,-0.39856234,-0.27255836,0.30561575,1.1030777,4.819652,0.55910015,1.1934681,1.2846411,-1.2542702,1.7843206,0.9203805,-2.3126473,0.42733783,1.2889432,2.1854634,-0.09908644,2.3096483,-0.014363056,0.22885999,-1.6128764,1.4534967,0.18203747,5.0243106,2.5181026,-0.39202952,2.1952963,-0.21009275,0.52114385,-0.42885783,-5.317203,-1.3422045,-1.2830963,0.15237166,2.2132132,-0.20858423,-2.2975545,1.2585368,-1.8125186,1.2163224,1.2981826,2.983532,1.9891567,3.407368,-0.6665902,0.795919,-0.6653713,1.1831143,0.76785743,-3.1800718,3.0743124,1.2546622,1.1199622,0.409947,-2.4897716,-1.6104218,0.38686,1.8292105,-0.43951035,0.4256036,0.5569437,-2.7916996,-1.2076029,3.7368448,-1.2378932,-0.12757069,-0.17928433,-1.3088944,0.06402301,0.9458347,-0.44264123,-1.1586863,-2.4906697,-0.68468094,-0.88339055,1.4896951,0.47981578,-2.061238,0.71283,-1.7828972,-1.4335983,-0.9280978,0.0060852994,-0.3494657,-1.1128486,-0.8246647,-5.8655972,-1.9783884,-1.9533788,-0.32626063,-1.4862257,-0.083572686,0.21913166,1.430068,1.0034727,0.65448314,-0.16542448,-2.5689924,0.46631268,0.49466744,0.15020718,1.5785084,0.10664396,-1.2240918,-0.40562633,0.21616419,-1.7889735,-0.9741886,-0.7126666,-0.59465444,-2.2350507,0.2250892,-1.5692742,-1.0202615,-1.5744057,1.7551891,-1.2096695,0.048013702,-0.35470486,-0.05570173,-1.1698643,-0.37830663,-1.0520911,-1.0861157,-0.7641694,-1.6592944,-1.1228913,0.37734818,0.5995625,0.35016388,0.8543289,0.47867128,-0.8837169,-0.25984383,-1.5450541,0.7878519,0.16199759,0.93040454,-0.78053397,-0.8920388,-1.8729036,0.37716377,0.24619794,-0.39317223,0.8038426,-0.09037221,0.22187012,0.10429682,-1.1176388,0.13099238,-1.290505,0.05205031,-0.09228649,0.09674536,1.1256448,0.7301511,-0.66642135,-1.0113331,-0.54698765,0.6150942,-0.7059244,0.89721745,-0.36171374,0.9986405,-1.3054296,-1.298375,-0.6449428,0.24731359,-0.94658375,0.38421533,-0.18179436,-0.7448558,0.75013727,0.84132296,-0.19575779,-0.67463857,-0.98049355,0.15198843,0.23907685,0.5997196,-0.2305828,-0.17653601,0.37620008,-0.0012872177,-0.031546935,-0.34578976,1.5979174,-0.18328074,-0.6471275,0.009406555,0.53265923,-1.4567221,-0.73966557,0.3237248,0.88422495,0.8359478,-0.681427,-0.5256431,-0.88423187,0.5471361,0.9285116,0.7227342,-0.77511805,-1.290137,0.6793375,0.42355132,0.7537084,-0.50524944,-0.640915,0.86743367,-0.14003363,-0.3084525,0.38946286,-1.1156354,0.8310809,-0.96533614,-0.59929115,-1.2265584,-0.45263463,0.22978988,0.615413,-0.9256692,-0.17084329,0.5141979,0.2200823,0.41855395,0.939931,-0.057486534,-0.63723296,0.2458232,-0.15719922,-0.62096465,-0.29016542,0.8266866,-0.684162,-0.6622372,-1.0167453,0.5291581,0.5294466,1.5812037,0.015979126,-0.16788581,-0.031627253,0.71108234,-0.724102,0.06012236,-0.8537172,-0.6929057,0.9069286,0.89800745,-0.90856284,0.67606556,-0.3075057,-0.54228026,0.3532794,0.0885455,0.20599534,-0.24197097,0.046558503,-0.15046117,0.95847684,0.34708685,0.4515526,0.9720252,0.33573082,0.052137557,-0.64435387,0.8146598,0.70386416,-0.15895295,-0.2538725,-0.09872037,0.67041254,-0.46392387,0.50367546,0.8141574,-0.70195043,0.388326,0.6695304,-0.3610291,-0.7577017,0.30653358,-0.2985522,0.13574511,0.83713096,0.69871855,-0.66899043,-0.31221431,-0.0031025233,0.8616507,0.717671,0.7522544,-0.8122109,0.15921195,-0.080538,0.81981194,-0.51456183,0.34826156,-0.5700077,0.90004873,0.15932673,-0.91006553,0.44538325,4.4321507E-4,0.58795655,0.7290283,-0.44649848,-0.44322032,-0.51715297,0.7205647,-0.43125042,-0.14854948,0.93457115,0.32832575,-0.7893383,0.20865752,-0.6256162,-0.22452046,-0.86685765,-0.04435294,0.90215826,0.6274563,-0.18047781,0.5627336,0.93783534,0.20081377,-0.53016716,-0.40061015,-0.18008551
0.30405256,-1.1472734,-0.3626696,0.39694488,0.28509697,-1.7297289,0.23137468,-0.93863577,0.24815096,-0.6884502,-1.3641367,0.6507348,-0.07913881,0.26832467,-0.29247835,0.50405216,-0.4483154,-0.14923978,-1.1331407,1.1947851,0.16100845,0.41481143,-0.22135094,-1.2644168,-0.13921161,-0.5989949,-0.15916443,0.4409104,-0.4148062,-0.61865246,-0.81819355,0.853195,-0.08592097,-0.6134341,-1.4828426,0.45925727,0.5690723,-0.14983714,0.36516687,-0.96223396,-1.4751836,1.0724494,0.174815,0.51023966,0.57437503,-0.5045943,-1.7116998,0.91998494,-0.72238684,1.0201532,0.7979999,-0.37055182,-0.44598532,-0.37780383,0.8578813,-0.48566258,-0.21231103,0.6154118,0.4733636,-0.43284616,0.3966866,0.1601243,-0.4039248,-0.9195554,1.7146094,-1.9913952,-1.6178492,-0.680778,0.3155706,1.8345379,-0.64238,-0.33494624,-0.5532279,1.0401993,0.16278623,-0.111503,-0.60217977,-0.65294397,-0.7020999,0.014610863,0.5003286,0.86739355,1.2582921,-0.9298631,-0.7832522,-0.75328904,-1.0872488,-0.9882034,0.52913463,0.78151256,-0.74792147,-0.4705806,-1.4438058,-0.1094184,0.68019384,-0.096325405,-1.173814,-0.084689066,0.3872175,1.3102545,0.2073439,-0.22344661,-1.2025132,0.33502698,-0.6378351,0.5219558,-0.3297318,-0.4226891,-0.040847983,-0.44200101,0.021893289,-0.39318243,-1.8904428,-0.03038903,-0.3941039,0.78604954,0.705258,0.498426,-1.1273024,-0.16707909,0.6294404,-0.39758962,0.24608102,0.6175268,-1.0535971,-0.4562966,-0.27193487,0.53242815,0.2678124,0.046093244,-0.5089363,-0.17937976,-0.26007378,-0.34831837,0.19878894,-0.5095751,-1.1520653,-0.2903914,-1.2109014,-0.17898773,-0.7302548,0.654774,0.5535566,-1.3767213,-1.1696149,0.5659033,-0.03216409,-0.6714894,0.097849995,1.2669102,-0.25957692,-0.6305806,0.8332876,-0.3777357,0.084283285,-0.90453386,-0.12339331,-0.5820664,1.3344935,1.4234681,-0.865241,-0.70015526,0.022572128,0.3099818,-1.2726798,0.9448296,-0.9280059,0.49283814,-0.86159533,-1.2666811,0.062368914,-0.3595587,0.825365,0.022838831,0.8110166,0.9983678,-0.6109392,0.031101102,-0.06525213,1.0187478,1.2298033,0.32368433,-0.91380215,0.35870698,0.096205026,0.3257811,-0.21110685,0.6815788,0.5876141,-0.09884883,-0.80970514,0.32951358,0.98369485,0.79187256,-0.50434387,-0.9036436,-1.0487001,0.7737427,-0.07219008,-0.23624761,0.82145804,1.2196156,0.018308124,0.91882956,0.53199667,-0.81037843,-0.102068774,-0.88847315,-0.5729626,0.8706425,1.0186906,0.7600298,-0.7687464,0.77015096,-0.8216779,-0.35866836,0.15024939,-0.26363236,0.018468307,0.9290691,-0.56243366,-1.0598873,0.705068,0.45127895,-0.561556,-0.43334794,0.54866916,0.97581655,-0.56307894,0.41503084,-0.65386903,0.21438476,-0.15283158,-0.88192743,-0.25522646,-0.15607777,0.5643446,0.5497962,-0.1327248,0.26221627,-0.6640518,0.20955242,-0.28685224,0.74357975,-0.8688898,-0.56177694,0.8701587,-0.12815475,-0.8499877,-0.4165636,-0.4517031,-0.125271,-0.8139757,1.1239961,-0.91297376,-0.7702937,-0.99672985,-0.19278052,0.5512698,0.80739397,-0.40256605,-0.060283568,0.5640589,0.84319395,-0.6234349,-0.14243238,1.03877,0.036352444,0.12310531,-0.7905795,-0.8440285,0.8953149,0.37499288,-0.65213406,-0.57626724,-0.6872585,0.13325989,0.5375732,-0.24524938,-0.26066518,-0.9912826,0.5857506,-0.9733932,0.46120682,-0.6975855,-0.93609196,0.31408894,-0.65604186,0.34099713,-0.5411971,0.03307841,-0.5796075,0.6288853,-0.67105967,-0.72521824,-0.0036031324,-0.048466276,-0.3640665,0.23681407,0.22794968,0.22745757,0.6943256,0.94807774,-0.1796418,-0.025988448,0.18678705,0.8111789,-0.38478065,0.05390054,-0.15453853,0.5096223,0.14610364,-0.9629697,0.25784165,-0.25111222,0.0399537,0.44667745,0.7244437,-0.860178,0.64752555,0.32864046,0.12934606,-0.46131673,0.510369,-0.50168777,-0.4617927,0.21083666,-0.96809417,-0.03475955,-0.05349393,-0.068199106,-0.46564284,-0.4718402,0.8914087,-0.36315256,0.6510171,0.1619204,-0.115919076,0.53321254,-0.9554417,-0.38266185,0.27736744,-0.08648494,-0.38852608,-0.51957494,0.48029423,-0.87436277,0.6921839,-0.7396424,0.62391543,-0.84609675,-0.41023254,-0.18964131,0.6067251,-0.09393564,-0.6639456,0.2714022,-0.18004638,0.60647905,-0.9785485,-0.15773341,0.7189744,-0.88586736,0.36634818,-0.2382533,0.70619893,-0.31650206,0.0022702,-0.280126,0.05276234,0.23335819,0.4439303,0.9109227,-0.06342607,0.53934824,0.34165198,0.416076,0.22536865,-0.40304157,-0.4381782,0.31936353,-0.8664039,0.6264571,-0.78064084,-0.17296107,0.62886864,0.5169728,0.89617395,0.0058632395,-0.2597736
0.9422435,0.11639272,-0.30600065,1.032444,-2.0923798,0.03424544,2.0412912,-0.22917978,0.90962654,-0.78739023,0.4647685,-0.78611165,0.2494597,-0.23885204,0.8669853,1.650426,0.48387185,2.0569494,-0.092874594,-1.5188689,0.8805078,1.9274586,-0.1104054,-1.3034796,-2.9391778,-2.8102207,-2.2961595,0.5738226,0.34959367,0.40803573,-1.6007409,-0.80901474,0.37934998,-1.5321643,-1.0867133,-0.6721793,-0.89771295,0.13089758,0.49075043,1.322537,0.16859937,0.90994966,0.04651445,0.95721877,0.58079565,0.5411893,-2.319389,0.4453576,0.34808815,-1.0693846,-0.63457966,-0.074853815,-2.2294922,-0.53654534,1.0159888,0.39759395,-0.8102989,-1.2067527,0.15625387,-0.6677928,0.96353257,0.22987248,-0.03899698,-1.8210968,-1.2175456,1.8183903,0.55273205,0.008103368,-0.8453691,-0.8202935,3.0412064,-4.2769637,1.0573803,0.96800536,-1.1153835,-0.28431085,0.43178156,0.3502199,2.179937,-0.56140596,0.328839,-1.2342134,1.981786,-2.9268148,-5.057679,-2.249133,-3.1726465,0.46583784,-1.2481223,-0.51577026,-1.4553525,2.2258933,1.2762178,-1.4463449,-0.32029378,-0.23213826,-0.9701103,1.7131412,-0.1803321,1.3118811,-1.2317095,0.71273744,-1.0716178,1.8804783,0.78660184,0.19691578,-0.45126384,2.1156528,0.09609336,0.71474004,-3.466718,-0.16308574,-6.8617244,-0.843659,-0.09835266,1.3051463,0.72476935,-3.9743688,-3.2346883,0.86351234,-0.62342256,1.8606046,2.112343,0.8599936,-2.8534875,1.3839558,-0.056624163,1.326195,1.849136,1.4509457,-1.5519639,-0.3706424,1.9638186,1.4227569,-2.9515688,-0.14900438,0.13138889,-1.9385463,-5.802001,0.12351384,0.119021945,2.5844154,1.0862179,-4.476214,-4.5068946,0.35511884,0.6891565,-0.4399957,2.4632251,1.5293971,-3.992007,0.55672747,0.96242976,0.24797781,1.430172,0.74575573,-0.48644766,-0.8863569,0.83069885,1.9976307,0.6795993,0.46790072,-1.1994141,-1.93215,-2.9253187,-0.42377612,0.17112799,0.7262414,-0.23005906,-3.6351993,-2.0548983,0.8540669,0.5675951,0.7843865,-0.0054550027,0.5852474,-1.5820924,0.80321544,-0.096404955,1.0519212,0.43194178,-0.25836763,0.2262029,-0.7580824,0.039718412,0.902375,0.39935395,0.26608774,-0.42238075,-0.3050052,-1.5570046,0.5397817,-0.10134356,0.530258,0.045117304,-2.357457,-1.5226616,0.7224937,-0.45003572,0.98065126,0.6428484,1.603745,-1.1061546,-0.7174046,0.8917743,-0.84805936,0.08062046,-0.5696007,-0.28523052,-0.2937136,0.48276407,1.3366568,0.989564,1.0854254,-2.0690145,-0.95897675,-0.58220404,-0.946867,0.60263175,0.5968329,0.023834044,-0.6589719,-0.32582015,-0.15386263,0.5759927,0.12471198,-0.21815799,-0.7283755,-0.11736539,-0.788662,-0.39270833,0.71637166,0.8591812,-0.15109426,-0.89388525,0.31053796,1.3912443,1.4367492,-0.14512415,0.45290968,-1.2827469,0.3471658,-1.0556707,0.16787767,0.3892383,1.061214,0.20711298,-0.95158756,0.9419746,0.899435,-0.76041704,0.33996028,0.56192493,-0.6157457,0.33915257,-0.46369264,-0.25523823,-0.76452696,0.18150602,0.11409949,0.38791844,-0.2857493,0.10708246,0.32367316,1.3023958,-0.7682865,0.19950348,-0.9588012,-0.56814593,0.45827153,0.7063829,-0.5658964,0.84295326,0.835487,-0.75060326,-0.74308527,-0.027086096,-0.92247266,-0.4359318,-0.7792316,-1.5683353,0.46413246,0.980622,0.79784256,0.929655,0.3657408,0.7065021,-0.21227567,0.5369071,-0.1418633,0.67692566,0.3048217,-0.36964318,0.40041754,-0.40302444,0.8334134,0.35876036,-0.37844494,-0.903652,-0.4749602,0.5153563,-0.19121608,0.5345179,0.9827969,-0.46616644,-0.47410405,0.00962928,0.6239304,-0.103963,0.44606274,-0.38950837,0.8429295,-0.83245385,0.42596108,0.18029262,-0.6671062,0.8639307,-0.41459692,0.39352554,0.29538342,0.8248201,-0.75104946,-0.024293417,0.35988718,0.45881858,0.4187462,-0.47803637,0.20263386,-0.80649537,-0.29732633,0.54518163,0.59579563,-0.2135339,-0.31621826,0.88450193,-0.53026044,-0.33702865,0.20477463,-0.07619331,-0.30865255,0.019500881,0.4759145,0.3025404,0.35781395,0.46971738,0.5087283,-0.093123965,0.61227167,-0.06865288,-0.933136,-2.6205747E-4,-0.4586341,0.29907522,0.43099687,-0.5769967,-0.4499849,0.22208852,0.29112518,-0.6500136,-0.95410746,0.89154077,0.80816597,-0.3703675,0.7381749,0.058896255,0.84764403,0.83240074,-0.2657047,0.8877085,0.21862686,0.35085732,-0.78593236,0.50590116,-0.9037776,-0.14041822,0.18091531,-0.8894735,-0.17766085,-0.48232695,0.829312,0.9198162,-0.040819537,-0.8407019,0.74095595,0.6439748,-0.42870903,-0.29310805,-0.6718338,-0.79536146,0.004374651
-0.6007436,0.23163088,0.6168503,-0.030540176,-0.5206826,1.331569,0.114588514,-1.5490338,0.5590142,-0.020749548,-0.40546048,-0.24178053,-0.44997814,-0.12942608,-0.10723886,-2.2498062,0.29174358,-0.14844815,-1.6081073,-0.24501628,0.19417354,0.969871,0.31061223,-0.606852,-1.8013726,-1.1726284,-2.875563,-0.4600698,-0.7809436,0.3531829,-2.0900338,-0.33913618,0.25975987,-1.4161627,-1.9331017,0.34372085,-0.8405823,-0.4388939,-0.73297036,-0.6217102,-0.9396409,-0.34039965,0.74015266,-0.18471433,0.30575097,0.86069006,-1.5983229,-0.5555346,0.08511705,0.026656745,0.86971325,-0.89104134,-1.5730374,0.4438746,1.1440821,-0.13418563,-2.6315424,-0.24388081,0.6952407,-0.31571934,-0.45696694,-1.4670367,-0.71800613,0.7366218,-0.8374174,-2.7730176,-0.18489203,-0.22866364,-0.071521044,2.3366408,-0.06657769,-0.1415804,-1.9144661,0.19595197,-0.45063654,0.625085,0.21604733,-2.3314435,-1.9066952,-1.3940333,-0.064132705,1.8446493,-0.06165059,0.33866438,-3.5827053,-0.4404846,-0.025061874,-0.74019396,-0.015320267,1.6742648,0.081203915,-2.7233346,-2.4896474,0.8755256,0.29158512,-1.1541096,0.12954496,1.5264059,-1.7947222,-0.40205353,-1.2387806,-0.035325263,0.7593152,-0.8572158,-1.3196626,0.40379715,0.14018233,-0.58962744,-1.0801829,0.95607424,-0.10865553,-1.3505675,-1.3801821,-1.5483592,0.029497972,-0.3998739,-0.6715625,-2.823758,0.5175799,-0.97123104,-0.75310355,-0.02957346,0.46726966,0.8952592,-1.6503562,-0.78432906,-0.5328136,-0.56918025,-0.97899634,-1.0068452,-2.2842953,0.1603073,0.5227129,0.02739138,-2.1129322,-0.033378858,2.0443034,-0.35027364,1.7601929,-0.983211,-0.9448811,1.2497934,-0.5602866,2.4034872,0.564721,1.1900167,0.86816394,0.27597833,1.4457688,0.6409598,0.35510567,-0.20132019,1.0245057,-0.9937803,0.3871922,0.25433603,0.77708143,-0.81727207,1.7744628,0.8926216,1.2605928,-0.2227546,-2.5987308,-0.394105,0.8527448,-0.8438411,0.053591914,-0.51085234,-0.21345218,3.3248782,1.8576546,-0.7160442,0.040613286,-0.35427088,1.7703598,0.6556719,-0.44692582,-0.2292317,1.0825624,-0.16198327,0.85722286,-0.84181386,-0.79760385,-0.40392825,-0.20659675,0.8595275,0.537312,-0.046937395,0.64180905,-1.1890364,-0.191861,-0.87639153,-0.09502478,1.6771371,0.3510795,0.9568103,0.42943588,0.8463122,0.27472427,0.92806005,1.542163,-0.25626892,-0.51517874,0.9135604,0.4695025,0.3457729,0.8752245,-0.0887914,0.527404,-0.20282362,1.1846211,-0.5036664,-0.23926377,-0.36707982,-0.6034341,-0.2841524,-0.59080017,0.3624537,-0.792872,1.1461326,0.91819376,0.9274438,-0.1772276,-0.36922306,-0.64541584,0.4298465,0.7886992,-0.8141607,0.6312528,0.26465657,-0.5333967,-0.17718153,0.27633172,-0.3358447,-0.73502743,-0.4779081,0.013109988,1.0674572,-0.1364551,-0.010141339,-1.1960407,-0.93026763,-0.7551002,0.20358378,-0.90801483,1.1382657,-0.6166532,0.10596056,0.73737305,0.63755095,0.2645268,0.8038116,0.95225114,0.28556025,-0.9383616,0.92531043,-0.10591604,-0.45996365,-0.007067091,0.28819808,-0.87287694,-0.58393294,0.4382676,-0.5068085,0.89536244,0.68129736,-0.8868439,-0.17786549,0.63583386,-0.74099505,-0.96123564,0.010304816,0.18556742,-0.5767832,-0.14148986,0.08979068,0.9731745,0.30488226,-0.07947022,-0.86556506,-0.1003623,0.20573431,-0.9247046,-0.6829831,0.98379797,0.025068285,0.23655945,0.0034334876,-0.2032961,0.464365,0.16933927,0.71937525,-0.25589842,0.43741664,0.26512626,0.52465147,0.10918635,-0.3677071,0.5587724,-0.9073638,0.1974523,0.24592231,-0.39617932,0.23640475,-0.40586388,0.019596767,0.46845958,-0.2692408,0.22785492,-0.46842626,0.7567538,-0.9115516,-0.35291263,0.33968008,0.7574444,0.20899649,0.18734235,0.20911215,0.28095502,-0.41525766,0.8955669,-0.88005227,-0.6885948,-0.18260732,-0.76482147,0.4880738,-0.33529475,0.21301278,0.4785792,0.5512588,0.7954259,0.88801736,0.027874656,0.44389084,-0.82378745,0.34188822,0.073592015,0.19989996,0.5416276,-0.16847013,0.59125376,0.2414364,0.24512471,0.8385355,0.7719839,-0.23245649,0.13353688,0.675302,0.9316248,-0.03301577,0.5964602,-0.64629847,-0.16515717,-0.78072476,0.23672122,-0.6715097,0.16003293,0.3209694,0.3546128,-0.27417752,-0.39141753,0.36988902,0.5413064,-0.2257875,-0.15976068,0.56862736,-0.97719955,-0.43671212,0.04877231,-0.059369788,0.07121476,0.51661026,0.75861967,0.999498,-0.08296702,0.2263581,-0.84855354,0.683827,-0.73487353,-0.0429084,-0.79979026,-0.11214578,-0.6149164,0.38113925,0.10577397,0.95048887,0.5922483,-0.08172847,0.73573047,-0.77042276
-0.9444643,0.22190551,-0.47583035,-0.2916392,-0.32285458,0.32252178,-0.45369577,-0.4148608,-0.07810985,-1.8295866,-0.8645749,0.51229733,-0.3212863,-0.30254224,-0.52530897,0.51845354,-0.29869318,-0.93925244,-1.0871729,1.2303941,0.17164782,0.12343729,-0.21917202,-1.6842537,-1.2053721,-1.2477263,-2.081888,-0.12895314,0.6958077,-0.44271424,-1.1407548,0.44727162,0.23548642,-0.11396777,-0.51095676,-0.5145627,-0.87070143,-0.091147356,0.36098745,0.04006526,-2.4305558,0.68515414,0.27064618,0.03873966,0.6518848,-0.7320182,-1.7014767,-0.32923567,0.9854225,-0.57168454,0.9402121,-0.5758855,-0.79718834,1.4443487,-0.41302603,-1.3174534,0.1394778,-0.61225694,0.14056268,-0.92091966,-2.2990627,-0.06595565,-0.19855423,0.9019674,-0.52765036,-0.88443124,-0.5891364,0.23639819,-0.6687873,0.28544164,-0.79769784,1.6965926,-1.2569901,0.7348705,-0.5354785,-0.18099625,-0.23601933,-0.92613965,-1.1055098,-0.1573983,0.8340003,0.19718927,-0.013660574,-1.2837166,-0.8912169,0.34081346,-0.86643684,0.100611106,1.0470482,0.31087068,-0.18538454,-2.5293355,-1.719139,-0.33972684,0.17198986,-0.1129342,-1.0661337,-0.32207385,-0.5639175,-0.71837044,-0.11074996,-1.0261415,0.6115018,0.29280528,-0.41418958,-0.35230225,0.5367763,-0.0893059,-1.9130087,-0.7430639,-1.2854306,-0.26246253,-3.0347044,-0.25592828,-0.33154234,1.9782398,0.1166181,-2.383661,-1.6501653,-0.3581511,-0.36556742,-0.101530656,1.0634437,0.7247928,-0.6874562,-0.3180522,0.26481137,0.1721244,-0.62024397,0.523895,-0.29740533,-0.3516488,0.4204482,-0.6315772,0.6331486,0.62195766,-0.9790399,-1.883361,-2.9486885,0.5150586,0.33553302,1.1001691,1.7253695,-1.073832,-0.86108774,-0.52579385,0.27401748,0.31893095,0.20954621,-0.56254613,-1.6670836,0.5983377,-0.51156396,0.6748994,-0.20756194,0.76170737,0.43496746,-0.6301585,-0.36476347,-0.12999435,0.2862356,0.2825298,-1.2974479,-0.6723186,-2.069115,-0.97359324,0.7072843,1.7197332,1.531953,-1.7696489,-0.37590376,0.6470459,0.004381632,0.1931137,1.5239397,0.98901457,-1.6695068,-0.10600185,0.5078687,0.79434574,0.57515466,0.05841071,-0.2026509,1.0339988,-0.4828736,0.60099256,-0.11782848,0.42177764,-1.2575396,0.0037055875,0.14048536,-0.7099871,0.35342562,-0.28403887,-0.4266057,-1.6872084,-0.02422775,0.50477284,-0.7155014,-0.25778696,0.20479037,-0.29534933,-0.48149368,0.8163615,0.94544435,0.5148073,0.38814002,0.53302187,-0.28332484,-0.22385502,-0.8075663,0.36268842,-0.9132134,-0.37921414,-0.32476526,0.27365375,0.5263544,-0.9147984,-0.26787528,-0.38296664,-0.31001502,0.06611582,-0.3942223,0.12809369,-0.29994458,0.2622632,0.44480264,0.16540061,-0.45464814,0.20692007,0.12743005,0.11937239,-0.18219054,0.43066272,-0.0019459636,-0.1084988,-0.28584427,0.08936773,0.034896925,0.15577391,-0.91219026,-0.08365602,-0.39544898,0.62573284,0.9050488,0.7843846,-0.49060535,0.5088158,0.63306046,-0.26148313,-0.1312933,-0.39120972,-0.7849597,0.20904952,0.7363418,0.2491546,0.98825127,0.9609675,-0.8667157,-0.8584148,-0.13940169,0.02490723,-0.14162727,0.7628938,0.13773021,-0.37741503,-0.56777555,-0.5813103,0.79739726,0.04990583,0.8805132,-0.39119345,0.46436965,-0.21788923,-0.86602175,-0.4400565,-0.60561335,-0.7432299,0.7778634,0.43629304,0.376724,0.2064361,0.7037985,-0.28060302,0.69780046,0.27770028,-0.32894877,0.05283011,-0.3613099,-0.18050946,-0.27167088,0.10467075,-0.67183846,-0.75465804,0.61247027,0.43748963,0.20685045,0.27574137,-0.4197621,-1.012578,0.26468638,-0.00624018,-0.49298868,0.75024146,-0.5842718,0.08047724,0.1389392,0.77219784,-0.10411422,-0.7096551,0.16437136,0.7810485,-0.7774136,0.68242526,0.20374675,0.2946738,-0.67042,-0.04197188,-0.44021913,-0.18933673,0.24763487,0.3508916,0.55816627,0.4244893,-0.42915967,-0.4902165,0.911884,-0.23277736,0.86586344,-0.55292565,-0.48439774,-0.46162072,-0.80244154,0.6803874,-0.9493824,0.22713873,0.7580447,0.6610065,-0.64870924,0.298614,0.3549954,0.64706284,-0.6782088,0.9092057,0.7614287,-0.7301336,-0.00595731,0.48474523,-0.6501723,-0.2986731,-0.94801944,0.014667295,0.69680774,0.9196579,0.028578725,-0.5603304,-0.037444826,-0.46315214,0.023121815,-0.71261173,-0.4400661,0.83085924,0.9067149,0.6197401,-0.4609848,-0.8697552,0.2541961,0.9724741,0.57286006,0.9906191,0.13484958,0.02113721,-0.404468,0.89712536,0.017921926,0.72113454,0.58327544,0.1453756,-0.83164394,0.5117129,0.9612973,0.35690632,-0.16013665,0.5311293,0.5128148,-0.005606556,-0.6038428,0.65473366,0.63488656,-0.9613388
-0.3467537,-0.28712916,-0.560442,-0.40764582,0.35749632,-1.2762015,-0.6085019,-0.20401701,-0.07852358,-0.64039916,-0.18209673,-0.77930397,-0.64717054,0.11877631,-0.4758853,0.15312038,-0.32588106,-0.52056575,-1.8045127,-0.21291055,0.6819347,-0.2654771,-0.26437902,-0.4444127,-0.11945783,-0.60622656,-1.1646873,-0.7424378,0.3714615,-0.08524698,-0.34473017,-0.47847357,0.7787388,-0.29396525,-1.3900131,-0.46185353,0.111508906,-1.1904776,-0.94267035,0.43880537,-0.4713172,0.005872384,0.7091503,-1.0994487,0.5634353,-0.8855249,-1.0047085,-0.7533671,-0.64002675,0.34359205,0.59829825,-0.32300204,-0.41334328,0.02187717,-0.44687375,-0.8892121,0.5138777,-0.35474756,-0.21857138,0.5898913,-1.1800003,0.82645816,0.30933702,-0.66021526,-0.10754388,-2.3741848,-0.118182674,-1.0937802,0.62756926,-1.1181943,-0.7465654,-0.6579728,-0.4189383,-0.5942722,-0.9682823,-0.58568317,-0.11527045,-0.9423357,-1.439885,-0.41280723,-1.1262772,-0.79118973,-1.393114,-0.90949124,-1.3794221,-0.9169959,-1.7174753,-0.6553401,0.37492728,0.25768912,-0.14392418,-2.007777,-0.055338997,-0.1087327,0.21337673,-0.5416952,0.4061702,-1.0055803,-0.24331343,0.26152903,-0.8386196,0.07442824,-0.36516935,-0.8626326,-0.9742737,0.70283705,0.08837177,-0.06155945,-0.89680564,-0.87017876,-1.3738439,-0.32760733,-0.9273232,0.1125829,0.6179353,-0.22369635,-0.9457678,-0.7893265,-0.667712,0.49470615,0.5957285,-0.8975396,-0.69249594,-1.0374923,-1.3449188,0.93025434,0.470402,0.16483249,-0.09158776,-1.0518585,-0.77824426,0.16411781,-0.587353,-1.305271,-1.2879679,0.6948743,-1.4894421,0.028840302,-0.8799833,0.5866377,-0.80296856,0.7946928,-0.4024036,-1.5899812,-0.15987767,-0.9601325,0.07501185,0.40461203,0.076744765,-0.5335132,-0.19827138,-0.47163364,0.67668986,-0.94726914,-0.15001547,0.7285827,-1.1333398,-0.4796598,0.37341505,0.3012359,-1.312116,-0.24006513,0.35315424,-1.0961769,-1.0624876,0.30990276,-0.00991266,-0.18317054,-0.42505926,-0.9541467,-0.37168765,-0.2755504,-0.9493187,-0.72888553,-0.801836,-0.9275805,0.022011122,-0.37313455,0.6535533,0.24958101,-1.0660934,0.35432473,-0.053887784,0.67600596,0.53735423,-0.68715215,0.09608394,0.61938095,0.54099876,-0.23427391,0.51228577,-0.09839087,-0.8774799,-0.5881804,0.444729,-0.07942736,0.30234617,0.58627266,0.5167135,-0.98433876,0.48019272,0.36474445,-0.41168573,-0.124789566,0.85617906,0.17160513,0.699379,0.20604631,0.47652858,-0.77162814,0.3132658,-1.1732727,0.8373395,0.12370221,-0.04488617,-0.70566213,-0.18857361,-0.054853156,0.35763818,-0.77469766,-0.59129107,-0.022247806,0.06922083,0.089902595,-0.9277872,-0.7453544,-0.23637228,-0.7204677,0.43425778,-0.99637735,0.04227938,-0.8914054,0.41250798,0.11285582,-0.45019513,0.42032588,-0.9801601,0.60431165,-0.5258681,0.36846077,0.018405046,-0.7206503,0.16445467,0.6498484,-0.77913296,-0.3632274,0.46814892,0.6246814,0.8590053,-0.26062173,0.027880114,0.7507933,-0.0051582824,-0.6125665,-0.55716705,-0.91930574,-0.92178357,-0.37257424,0.10075537,-0.38456914,-0.53016263,0.9059014,0.19582759,-0.7751603,-0.42829162,-0.99490756,0.4085104,0.8463757,-0.90734476,-0.6241106,-0.370008,-0.31924218,-0.63132244,-0.80583966,0.91084504,0.5679986,-0.43228322,0.87651414,0.03104684,-0.5056047,-0.72472453,-0.4067522,0.5496494,-0.84190667,-0.17475915,-0.012676912,-0.39723155,-0.76806724,-0.16577978,0.9288872,-0.97062063,-0.11438553,-0.82015806,0.9807882,0.6128509,-0.0015361389,0.14996535,0.3389942,0.8469415,-0.48108816,0.6328711,-0.21862277,-0.18756689,0.46283445,0.44832653,-0.28578037,-0.5485641,-0.84257156,0.16284943,0.47439253,0.85112286,0.9480786,-0.41158217,0.66201437,0.026519537,0.02949507,-0.553053,-0.85157335,0.9391401,0.6840431,0.8494615,-0.5065958,-0.12655552,0.25266814,0.02684749,0.16195974,-0.8613801,0.31863254,-0.11685078,-0.7592948,-0.0875823,0.9762932,0.95582914,0.23380728,-0.45257285,0.2690449,-1.0131081,0.4490662,0.0360161,-0.6269512,-0.6592981,0.7264382,0.68849695,0.19937088,-0.30117366,-0.7088888,-0.5045987,0.9910456,-0.45653024,0.28266165,0.5295017,-0.7072876,-0.25104922,-0.29208896,-0.22709416,0.61208004,-0.78729606,-0.70183355,0.6399007,-0.45532274,0.38902003,-0.97927314,-0.93720126,0.5159475,-0.8830071,-0.51613194,0.6740995,0.6734123,-0.18063149,0.5565397,0.58662,0.9480594,-0.42995512,0.8034963,0.6263661,0.012584445,-0.58222353,-0.096153766,-0.44074085,0.2659669,-0.10079089,0.23631892,0.5402707,0.9107154,-0.20375018,-0.4048095,-0.17692068,0.69269365,0.65333086,-0.5374685
-0.5096097,-1.0555338,-1.0438457,-1.0913705,-0.24384384,-0.5148105,-0.8740221,-1.5502157,-0.37594587,-0.8751552,-1.2962935,0.1373315,-0.25175673,-0.99025536,-0.3567236,-0.718564,0.14162219,-0.6809436,-1.0147274,-0.1709709,-0.77102256,-0.86301816,-0.018840093,-0.31961253,0.4037808,-0.45549992,-1.3898207,0.16863716,-0.9833819,-0.83841556,-1.1714966,0.4205366,-0.89881164,-1.6224822,-1.781795,0.27831182,0.020721888,-0.8554605,-0.75848305,-0.10688332,-2.2297344,0.09053711,0.5537465,-0.18137836,0.448079,-1.1355969,-0.8399046,-1.2371461,-0.0386117,-1.301511,-0.8890958,-0.64238256,-1.6991435,1.074975,-0.59875643,-0.8901658,-0.9066975,-0.43841267,-0.17465109,-0.12951134,-0.934179,-0.5226438,0.3695064,-0.2695733,0.34450555,-2.5249453,-0.8274864,-0.93677086,0.48886064,-1.094392,-0.2725924,0.12786856,0.13863178,0.34488356,0.35923824,0.54791355,-0.89894295,-0.666549,0.09613894,0.6603299,-1.499846,-0.16240676,-0.8269152,-0.33326164,-1.1223046,-0.99044657,-2.1884782,-0.22641253,0.19839442,0.55974555,-0.3661865,-1.5298275,-1.224133,-0.16415109,-0.032188896,-0.4628557,-1.5922571,-0.17670012,-0.9322223,-0.870462,0.20110445,0.918826,0.66390496,0.17592305,-1.4473433,-1.0023513,-0.25566196,0.686767,-0.9800437,-0.6210532,0.27358958,0.12921222,-2.5504827,-0.5168537,0.54906017,0.49831027,-0.13201305,-1.6149702,-1.4024328,-0.49004278,0.9083167,-0.08387751,-1.1496205,-1.2149053,-0.91741854,-1.2076988,0.8140772,-0.38933274,-0.02431004,-0.45289725,0.43938798,-0.4088719,-0.6990912,-0.5159889,-0.091229424,0.40798312,-1.2048397,-0.12763801,-1.0131992,-0.22989291,-0.3349589,-1.2747566,-0.44564512,-1.3145012,0.41761416,0.3789541,-0.25363836,-0.51759636,-0.9077836,-1.0197171,0.05212037,0.52242774,-0.77378136,0.5052344,0.6227575,-0.824107,-0.14214441,-0.20313549,-0.011775474,0.35695988,-0.65146005,0.11583735,-0.49384233,0.45678416,-1.0260408,-0.89964867,0.2164476,-0.880075,0.88973945,-0.7180698,-1.2596103,0.2766099,-0.82750607,-1.272656,-1.3882797,-1.1528773,0.22757724,-0.95557773,-0.14529891,-0.7734925,-0.8303336,-0.024932805,-0.40469825,-0.008459211,0.6945667,-0.3604386,-1.2088195,-0.83607185,-0.89742005,0.57335216,-0.6875525,0.19022256,0.7488035,-1.334227,-0.20806485,-0.80071163,-0.98020774,-0.107681185,-0.31387576,-0.8975084,0.37990943,-0.6004275,-0.38779593,0.85499656,0.32769978,0.42402825,0.4487671,0.8548506,-0.43433318,0.74366605,0.2616086,-0.45601493,-1.0864835,-0.8025115,-0.3052155,0.5369313,0.34225923,-0.011829041,-0.6903089,-0.29634443,0.8193294,-0.48087117,0.10624947,-0.22992134,-0.19593628,-0.65526825,0.10630793,-0.8430921,-0.84072983,0.04934582,0.27954355,0.15718566,-0.73027265,0.37484032,-0.96831024,0.35871044,-0.9351518,-0.16054101,0.08847269,-0.7074448,-0.23925371,0.47790977,-0.32487875,0.9786427,-0.39688691,-0.39965492,-0.82356495,0.66879314,-0.93045634,0.011692724,0.36075988,-0.44341704,-0.012169069,-0.8044428,0.3571876,-0.33412167,0.94135714,-0.6885289,0.56212646,0.3845197,0.9241947,-0.56422937,-0.74089056,-0.30577022,-0.48737788,-0.7522326,0.15614979,0.20661469,-0.32675856,-0.6403807,-0.82830524,-0.6256611,0.7323851,-0.853803,-0.99425954,-0.8095401,0.8737465,0.15081759,0.74583083,-0.831119,0.6044329,-0.660985,-0.079949476,-0.16178459,-0.5515294,-0.06729985,-0.7141019,0.46991655,0.6371815,-0.054805096,-0.9406633,-0.5801675,-0.24265656,0.3433057,-0.16241506,0.5532854,0.47794735,0.13281001,0.7700957,-0.54254234,-0.6123561,-0.60825354,-0.566862,0.56991404,-0.07006981,-0.9135965,0.5770379,0.71798134,-0.13580872,-0.5693131,-0.37383816,0.20473476,0.08105543,-0.13498962,-0.45096537,0.26103666,-0.51249576,0.6929872,-0.6244328,0.20230755,-0.39447296,-0.13847254,-0.959129,-0.11988337,-0.90208364,0.7117514,-0.77377915,0.30167836,-0.876244,0.49923113,-0.14971563,-0.32603484,0.40040854,0.5466357,-0.19493146,0.46030474,-0.4874106,-0.7067763,-0.9145344,-0.28847674,0.14165775,-0.7776304,0.27175432,0.021166697,0.7506294,0.17813435,-0.2895534,-0.51779056,0.27841973,0.45506385,0.6588979,-0.054308526,-0.43512136,0.13827032,-0.470219,-0.14432912,0.78187513,0.031030543,0.04784413,-0.37971908,0.71602666,-0.8987076,0.24079397,-0.30826724,0.42751366,0.65877473,-0.10225633,0.32788327,-0.45059037,-0.21409377,-0.4707432,-0.6732948,0.58457667,0.029814448,0.73068637,-0.04271764,0.98307294,-0.27148575,-0.4772162,-0.22579207,-0.93016267,-0.2072715,-0.16520195,0.018480968,0.5366326,-0.5459549,0.660706,0.9452638,-0.01883056,-0.0462539
-0.69421875,0.44426093,0.72122467,-0.7058138,-0.3621084,0.49618903,0.6954569,-0.60173404,0.49224862,1.0066779,-0.114627115,0.316139,-0.2642578,-0.7488941,0.3142105,-0.19692357,0.009920872,0.92367357,-1.143983,-0.06479895,0.78464055,0.6885341,0.30697408,-0.09961352,0.8088634,0.7496834,0.13963811,0.7232697,0.7350918,0.182005,0.44789472,-0.7329094,-0.14062887,-0.859882,-0.7032003,-0.28725305,0.69055754,0.43912557,0.8274419,1.0524558,1.3471189,-1.000423,-0.41409805,0.43211466,0.8643594,-0.7492906,0.28897715,-0.31515917,-0.66317034,0.72468424,-0.08379517,-0.90207654,1.1521069,0.031117473,0.79313993,-0.1808358,-1.0772321,-0.89982504,-0.056527678,0.84578997,0.27928233,0.44291556,-0.03895677,-0.6482947,-0.17245506,-1.2663862,0.8116706,0.069501705,-0.26096636,-0.80997616,-0.75519747,-0.041090652,-0.26827958,-0.307125,0.7431314,0.539029,-0.1888912,0.8912043,0.7593208,-0.71935385,0.5275461,-0.8349349,-0.3103756,0.63401115,-0.0947633,0.2939191,-0.3742101,0.6514504,-0.058954917,-0.42932236,0.32127076,-0.5463417,-0.14876483,0.48882866,-0.24992493,0.49682927,0.83079475,-0.6362677,-0.001797812,0.8208969,-0.2144213,-0.40592936,-0.8358588,0.8149353,0.79331464,0.0011047524,-0.5176219,0.22261377,0.025907055,0.67455393,-0.24181898,0.91626996,-0.80680186,1.0190517,0.06887736,-0.70919406,-0.86770046,-0.88315123,-0.4789772,-0.60660887,-0.4195233,0.4436662,-1.1797693,0.6962582,-0.50448644,-0.67097884,-0.07081389,0.66831726,0.71871597,0.31621978,-0.8237565,0.6132066,0.2532349,-0.35417834,-0.8286471,-0.63586617,-0.4138455,0.6588359,-1.0983652,0.6966804,0.45529708,0.8779318,-0.20537491,-0.41079104,-0.8582153,0.7172372,-0.6636802,-0.5304397,-0.45979872,-0.9798775,0.25685453,-0.9244657,-0.5909134,-0.9699943,0.011338879,-0.768087,-1.0592854,0.88834095,-0.60449725,0.38714597,0.610388,0.5365547,0.31365493,0.27825055,0.873413,0.5069836,0.8257661,-0.4414683,-0.9750436,-1.0571691,-0.08419939,-0.78548235,-0.65491223,-0.47487757,0.65730107,-0.8640743,-0.88956577,0.039299756,-0.44048735,-0.078472294,-0.8264242,-0.72268724,-0.2738301,0.8200166,-0.42334872,0.21691504,-0.72138065,-0.35587114,-0.8580006,0.60773903,0.60683405,0.047544982,-0.04709597,0.37095842,-0.20115675,-0.5553492,-0.45382524,0.52034384,-0.58511525,-0.16935632,-0.42607895,0.34781614,0.25792095,-0.7685253,-0.7723671,0.44016603,0.7584232,-0.9264828,-0.18348353,-0.63135374,-0.1395986,-0.4597916,-0.65627694,-0.468363,1.0434967,-0.013006164,0.035489377,0.11003887,0.35104144,0.7307303,0.50204617,0.50175565,-0.03130568,0.17714436,0.9522292,0.1835223,0.7681279,0.7901657,-0.43353164,-0.7069531,0.40041125,0.4985096,-0.011234028,-0.14758538,-0.5110336,0.64636385,0.54979885,-0.41584352,-0.89583904,0.4622978,0.9295061,0.8496544,-0.24751997,-0.13754712,-0.4570271,0.5006836,0.5270806,0.7228974,0.7001065,0.8076328,0.10492517,0.89072835,-0.74981517,0.061415076,0.14059518,0.4727758,0.39044726,-0.91124904,-1.0485003,0.11605768,0.18307424,-0.66982895,0.39479524,-0.6424702,-0.18810453,0.97034645,0.28136325,-0.94386417,1.0651623,0.22811869,0.26478964,-0.10930968,0.75950253,0.70627755,-0.4002391,-0.027363235,-0.46875682,-0.6359786,0.8544234,-0.39237225,0.824729,0.12334506,0.18485846,-0.3629304,0.14154617,0.10735513,0.5540958,-0.3483915,0.33515406,-0.7527931,0.034383934,-0.48175582,-0.43307722,0.5872807,-0.38971668,0.8639142,0.75548214,-0.4154059,0.99614817,0.5468247,0.9517263,-0.62855947,-0.9504855,0.9120104,-0.120060876,0.18757784,0.7080199,-0.7505233,-0.32490367,-0.44428933,-0.43646634,-0.12984659,-0.57689786,0.2152546,0.418576,0.33184123,-0.16367652,0.7595152,0.01159357,-0.7277818,0.23492731,0.702875,-0.81097424,-0.66926855,-0.5266299,0.75762296,0.677122,-0.7045738,-0.095535144,0.82110566,0.041022345,-0.41704056,-0.22501133,-0.8832811,0.860253,-0.38242495,-0.9855851,-0.51500756,-0.07922739,0.49803284,0.16587652,-0.42347914,0.7077376,-0.19816487,-0.35064784,-0.6037848,-0.35158262,-0.30241027,-0.12573303,0.6264413,0.23332967,-0.24016193,-0.19951354,-0.9732134,-0.83927757,-0.47102445,0.9543709,-0.016428303,0.41278356,-0.83916175,-0.1539547,0.7138957,-0.9700597,-0.7643666,0.32261518,-0.68545216,0.12508377,-0.71320474,0.18188266,-0.7451264,0.30043143,0.45467317,0.7011442,0.078270346,-0.95812106,-0.7775562,0.639824,0.25930834,-0.95771784,0.24226996,-0.8749539,-0.24330242,-0.94313216,0.88044256,0.2982483,-0.23705412,0.4919595,0.31752136,-0.047060367,0.29951438
-1.3987608,-1.5269197,-2.668628,-2.836493,-0.89380664,-1.4249294,-0.77479416,-1.4969853,-0.37179428,2.028059,0.48153552,-1.5818229,-0.9488777,0.055877097,0.78181565,-0.9393915,1.2133254,1.7180072,1.047083,-1.2232918,0.051826343,-0.3848877,-0.7158994,-1.0427276,-0.9539721,0.74672407,0.78580654,-0.79152405,0.47060576,-0.6827196,-0.42393175,-0.5078717,0.94842046,-3.3420348,-2.551797,0.10173705,0.1951265,-0.80994266,-0.43632025,1.2479708,-0.89533,0.85377514,-0.27369168,0.86324495,-0.50770766,0.68855804,-0.53558713,0.15078378,-0.16702892,-0.09976101,0.84338015,-0.25706816,-0.6375705,-0.929672,-0.071842834,0.04660409,0.1499139,-1.0584481,1.1978756,0.48907527,0.49238113,-0.22163674,0.16038713,-1.553279,0.20401947,-3.8216898,-1.6096176,0.17709471,-1.4330354,0.71343344,0.9051231,-0.5756658,0.5546681,0.13624012,0.22659215,-0.5600716,-0.20393518,-0.31312698,1.1442327,1.1994994,-0.68698424,-1.0652603,-1.5065,-0.72173524,-1.3354439,-2.0773,-1.4165425,-0.6448318,-1.6488936,2.6146815,0.2732305,-3.0190701,-2.2621112,1.5331347,-0.75874096,-0.20658728,-2.3559744,2.0049553,1.1188142,1.736377,-0.43958515,-0.12381397,-0.257626,-0.5035832,-1.5382223,0.09530499,0.41765323,1.477008,-0.41044185,-0.43584538,0.9229157,-0.08064297,-3.3116195,-0.62176085,0.8365599,0.79282904,1.3273945,-1.810731,-3.802127,-0.68391955,-0.16502014,-0.22390158,0.6780348,0.7944599,-1.706971,-0.055886384,-1.696249,-0.41148472,-0.5366038,0.03590724,1.0439012,-0.31254834,0.64568967,0.23179756,-1.5718771,0.7597738,-0.6024837,1.2498649,-0.67480654,-0.67461956,1.2173998,-0.36526585,0.43301445,-1.4781978,-1.310008,0.07924396,0.024952997,1.2760109,0.6924395,2.1291592,-1.962941,-0.8016905,0.51629984,-0.793931,0.5328472,-0.31030887,1.328662,-0.12344967,-0.48673376,0.33666214,-0.53113234,1.0169857,1.623596,-0.124553114,-0.9686942,0.35993892,-0.38014686,0.330329,0.13655908,-0.28485608,-0.65426934,1.1607645,0.37680957,0.5101751,-0.5059455,0.36214015,-1.3382725,-0.5151152,0.72081625,0.62945974,1.1060431,0.91570604,-1.1477157,0.24092658,0.29066256,0.6812127,0.6197548,-0.8194377,-0.4984828,-1.1733242,0.1328566,0.54933125,0.594844,0.22811466,-0.6059831,-0.9542986,-0.8819634,-0.42666295,-0.08186977,0.5909845,0.9674081,-0.25903174,0.31776214,1.0753601,0.56859267,0.49184534,-0.27513146,0.25993344,-0.52359086,0.9629844,-0.17872256,1.2517939,0.48486662,-0.15587679,-1.4874665,-0.8139015,-1.0487486,0.9236889,0.11822293,0.53812784,-0.45754918,-0.52976644,-0.10238842,0.8714155,-0.46506834,1.1787447,-0.2694761,0.7845425,-0.15894939,0.19449909,0.56994367,0.124599434,-0.6929555,0.12156291,0.809001,0.7161896,-0.86285186,-0.40580416,0.46856302,-0.51702297,-1.1536784,-0.2018698,-0.5136187,0.7440657,0.23512013,-0.3616579,0.029399065,-0.58819664,0.43548313,0.38008085,0.34889185,0.6913112,-0.8960285,1.0728158,0.20362656,0.6142604,-0.9059316,0.022982419,-0.46101886,0.07733698,0.39780495,0.027775811,-0.79806685,-0.7419394,0.36318776,-0.72200817,-0.95079666,-0.22128065,0.21130829,-0.16533758,0.05033425,0.35032517,0.7555803,-0.962792,0.39194897,0.442838,-0.99746466,-0.037328843,0.22733323,0.29486212,-0.24884124,0.2970773,0.78603095,-0.92510086,0.8980738,-0.05633998,0.29230058,0.6793075,-0.85473216,0.16415834,0.95804054,0.76897806,0.4899648,0.82705355,0.103823945,-0.29568544,-0.764046,-0.8827854,0.9897003,-1.0261581,0.9250114,-0.16371608,-0.6601896,-0.36346605,0.46010277,0.37458697,0.43588236,-0.88422763,-0.09607623,0.6628486,0.88752836,0.30267158,-0.89500654,0.5040832,0.48505792,-0.8480879,0.55637497,-0.20272915,0.5433139,0.9244062,0.39669088,-0.28480974,0.7030201,-0.41746187,-0.84898144,-0.06329443,-0.023552163,-0.5086551,0.78293735,0.90088,-0.69206035,-0.71004677,0.34120077,-0.038070336,-0.76231545,0.27245393,-0.24324825,-0.13499713,-0.6364823,-0.6505995,-0.80111235,-0.5826925,-0.512746,0.93396723,0.98786825,0.84965616,0.16617051,0.30174893,0.6479351,0.8424322,-0.44543105,0.86886644,0.09368411,0.45376733,0.119094715,0.71748924,-0.2645971,0.5810514,0.064680375,-0.826017,0.2062778,-0.7415242,-0.27592105,-0.18613635,0.31972948,-0.2551672,0.81386364,-0.83131665,0.08180545,-0.6751583,0.6075818,-0.90068215,-0.5158549,0.13363275,-0.004989854,0.5686358,-0.67395765,-0.20778535,-0.72415626,0.6479719,-0.94222987,-0.23653299,0.35853767,-0.6553802,-0.55832994,-0.45308918,0.95931625,0.06978676,-0.9695946,-0.80294126
-1.5177195,-0.4713726,-0.86684096,0.5015541,-0.68026847,3.0026557,-0.12495889,0.84659815,-0.095026754,-3.288112,0.8602191,-0.5872045,-2.6905692,-1.0303354,-0.29705447,-0.8047704,-2.2356079,1.0672108,2.039317,-1.5236092,-0.02123269,0.1361469,1.905452,-2.9871726,-2.2399101,-1.1448822,-3.5806434,0.9474482,0.65650094,0.22825994,-3.6880488,-0.2043479,-0.57146305,-1.8971511,0.66659313,-0.89521754,0.1800403,0.8029927,-0.81196845,-1.0048414,-2.6497054,0.4729899,-0.17916046,-0.40309754,-0.5481641,0.8954874,-2.4674196,1.3549843,-0.27137753,0.4923153,-0.71139276,0.45195422,0.045645654,-1.9986343,-0.9443973,1.0222144,-1.7886082,-0.771734,0.49062303,-0.21035378,-2.6515114,-1.3071809,-0.6819275,-0.29591435,-1.0357054,-0.39613026,0.6483685,-0.97725165,-0.825379,-2.153552,0.59553677,-1.1850667,-2.1873853,1.0012587,-0.758714,0.9492242,-0.96959174,-0.5955067,-1.3146605,-0.63234717,0.90387,0.69590336,-2.2980046,-0.5210653,1.1401912,-3.4639149,-1.5041635,-0.5807023,0.5879402,-0.7054008,-0.32129267,-0.72867364,-1.4586219,0.8141228,-1.2656507,-0.9502452,-1.2654816,-0.5735388,-1.7765206,0.32699847,1.2307416,-0.63015354,-1.2026228,-0.8519602,-2.482787,-0.24805029,-0.3892298,-0.2539794,0.20656395,-0.56850076,-2.6170366,2.5238202,-0.89966774,-0.904179,0.90945464,1.4242607,0.09552046,-0.57163674,-3.972557,0.7014342,-0.7413847,0.26175657,1.3144208,0.7853511,-1.8933916,-0.14673989,-0.2430959,0.25179297,0.7103303,-0.7704898,-3.6229913,0.5101884,0.9911836,2.2363153,-4.5175643,1.4749576,-1.4367524,-2.248812,-4.6532297,-0.8339995,0.4719935,1.5897539,-0.09772307,-2.151356,-0.78228134,-0.46682534,0.18262044,-0.09385889,1.790282,2.6853333,-4.674565,-0.45821878,0.5374398,-0.68594986,1.5588919,-0.88810134,-1.6792159,-0.24010788,-0.67846483,1.907579,-1.7193853,-0.31606174,1.6922143,-0.87541884,-2.5189288,-0.21262993,1.9788668,1.1975942,1.9881,-0.9391529,-0.8733385,1.9282161,0.6179082,1.8475908,0.40615305,0.21514344,-2.597857,1.088565,-0.10622111,-0.41627708,0.6963297,0.76702887,-1.2824249,0.012827495,-0.49540868,1.0431517,-0.33426884,-0.052220494,-2.612567,-0.43872792,-1.374278,0.06887808,0.17731453,0.35100457,-0.55197304,-1.1370281,0.17032328,2.0832443,0.5411949,1.3950533,-0.5514892,0.77642787,-1.6449802,-0.60165125,-0.17607321,-0.7848749,0.17227444,-0.93059605,-0.7379497,0.06350909,0.5923216,0.12512149,-0.78331524,-0.6257954,-0.5337044,-0.4127314,0.68139416,-0.56571066,-0.21036525,-0.7877694,-0.39622056,-1.002576,-1.1545072,0.33600596,-0.32702073,-0.020672979,1.3835019,-0.08203071,-0.13750851,0.48599908,0.69725364,-0.780213,0.45630136,-0.1960433,0.55765736,-0.3717511,0.9399673,-0.49038863,-0.41308516,-0.23197022,0.104535095,-0.88106585,-0.5638563,0.975829,0.6908238,-0.24448955,0.66387874,-0.7294917,-0.16539656,0.0641917,-0.893796,-0.46034482,0.103035584,-0.35462034,-1.2022063,0.5060606,0.4213038,-0.064866856,0.5481628,0.83916646,0.90507257,-1.2704213,0.016148323,-0.06585411,-0.22064267,-0.6733274,0.6566783,-0.32075372,0.47491467,-0.24082452,0.954285,-0.3937652,0.109915,-1.015998,1.0051192,-0.7994833,-0.37722763,0.23162696,-0.1914835,-0.36995444,-0.71036726,-0.22558445,-0.81523985,0.8584084,0.84044415,-0.7169936,-0.5307624,-0.62704015,0.83789355,0.57233334,0.54120576,0.7716329,0.033979274,-0.12963279,-0.4501427,-0.65876,-0.18886675,-0.10733947,0.90306604,-0.2135932,0.6747848,0.19415954,-0.94857854,-0.29862228,0.5025112,1.0425062,-0.37133545,0.7536484,0.87300503,0.8160195,0.7670715,-0.057584465,-0.49515158,0.4903113,0.040831648,-0.45674977,-0.18013349,-0.8759458,0.5881097,0.9665512,-0.46793362,-0.98076916,-0.06562291,0.5445075,-0.8365791,-0.15151674,-0.7178483,-0.5067118,0.7420766,-0.8342752,1.0800738,-0.23925266,-0.16676341,0.41380733,-0.3097048,0.9006864,0.34682176,0.79739296,-0.14158465,-0.52207696,-0.11036548,0.04664014,-0.9632042,-0.55537724,-0.32604778,-0.68993664,0.3696295,0.6327826,0.47971025,0.24007541,-0.5006344,0.6669963,-0.8179653,0.87550586,0.18182537,0.38797063,0.06709019,-0.41968435,0.31611386,0.097990125,-0.38592958,-0.47885236,0.059481274,0.7867165,0.59810513,0.7839651,-0.8103419,-0.13065839,0.4548937,-0.6171735,0.5896529,0.96979606,0.02006728,-0.4498498,-0.06047772,0.7691221,0.83963674,-0.03231085,-0.5843166,-0.11171181,-0.30442724,-0.3733024,0.019558776,0.10273861,-0.17018116,0.37977204,0.3029059,0.9803951,-0.8373303,0.5026949
-3.3432667,-1.7326994,0.9061337,-0.93482625,0.35377273,-1.6685292,0.47228518,-0.89791167,0.22576374,-1.2467808,-0.5380869,1.1091237,-1.8770522,-2.016949,0.64958423,-0.4749058,1.1196761,0.92110056,-0.06606449,0.7953824,-0.46092194,1.2557474,-2.3414497,-2.5417643,-1.6934702,-2.0261354,-2.8542972,0.9121244,0.78125507,0.56039304,-4.1315866,-0.6492478,0.4373562,-2.3289866,-3.2987232,0.5068712,-0.7356056,0.22827655,-0.17804623,-0.7581966,-0.71239454,0.71014917,-0.04526457,-0.9718057,0.4807575,0.39359,-1.955482,1.1958928,0.39636746,-1.6630193,-0.56063527,-0.45258686,-0.826431,0.25910863,0.84234345,-0.90468496,2.1242974,-1.4165605,-0.4769738,0.070215516,2.4465406,-1.3866787,0.5428075,-0.1591166,-2.1077302,-1.8799978,0.4231134,-1.2794249,-2.3025148,-1.985647,1.7247337,-3.1500778,-2.1111898,1.9279802,-0.6782994,-1.9586898,-3.3189123,-0.7705666,-0.2549656,-1.0168287,-2.336857,-0.03996255,0.070891164,-0.4263438,-1.3175116,-2.089405,0.8156911,-0.9474671,-0.88863647,0.4673398,-1.4967325,-3.216487,-1.4153453,0.78473383,0.29725686,0.6200987,-1.7784199,1.6528399,-0.59470886,0.65383065,-0.6952535,-1.1753786,-1.3535995,-2.6222913,-2.8183293,0.26572064,0.71456593,2.3901117,-1.1548597,-0.4449599,-0.9842338,-0.5180845,-2.6388118,-2.1362374,1.1675661,0.05895794,-0.13258646,1.7984666,-1.3819256,0.33653224,-1.4935257,-0.72907186,-0.4214452,2.132424,-2.9475718,-0.4056863,0.9368024,-0.27178016,-1.3209556,-1.0537957,-1.0204408,1.1529995,1.3068861,0.88831115,-1.9234058,-0.2885861,-0.41807374,0.92454207,0.16233951,0.22633876,0.6993425,0.7457527,0.41237354,-2.3231435,-1.7210922,1.1079752,-0.06518371,-0.21203989,1.1236628,1.1289719,-2.7936828,0.25498113,0.7929816,-0.5265538,-0.5346717,0.58597,-2.227073,0.8498938,1.8329903,1.6551514,-0.9988113,-0.39602223,-1.1543539,-1.3467246,-0.6072016,-0.18160935,1.4678884,1.334231,0.7209478,1.093731,-0.42331454,0.35804448,-0.041710395,0.058765747,0.86273646,0.7685683,-2.099153,-0.01642663,1.3551037,0.50934136,1.0783671,0.3516622,-1.1034297,-0.67851806,-0.04076436,1.0387462,0.50788915,0.5424964,-0.6757687,-1.7399603,0.2743474,0.7151407,-0.5013169,2.2152092,0.9729299,0.5415107,0.5950202,-0.22971253,0.7595787,1.721197,1.3475331,0.5654623,-0.46703723,0.2078997,-0.13243262,0.042861916,-0.54402804,0.8975855,0.13740517,0.16662686,-0.036100976,0.030967878,-0.35960126,0.9703341,-0.7454834,-0.5353705,-1.9166906,-1.0190905,0.8000276,0.17470849,-0.82265735,0.7433605,-1.5015119,0.14959705,-0.4222225,0.28592032,1.3368284,0.9625027,-1.2587868,0.67077595,0.34570187,-0.3812423,-0.2908648,0.774277,0.45023066,0.2992112,0.46462068,0.002779702,0.047190294,0.340731,-0.10656227,-0.60157365,-0.27568224,-0.215912,-0.2743959,0.25754717,-0.9549488,-0.21922567,-0.8870596,-0.47592312,0.05814523,-0.27913842,0.47831008,1.1913512,-0.9558871,-0.5694042,-0.114106804,-0.60023504,-0.8804749,0.010775413,-0.7462235,0.81843555,-0.43695515,0.3599267,0.29217148,-0.23702088,1.2557179,-0.9704967,-0.19904006,-0.7838757,-0.7370358,0.059350938,0.6994431,0.4559216,1.1875384,0.31589457,-0.76832104,-0.16387694,-0.5122106,0.6547104,-0.90618944,-0.7882636,0.6629129,0.18624024,-0.6041207,-0.9876734,-0.007408659,-0.93917114,-0.6092112,0.5484944,-0.32152432,-0.69281614,0.3787494,0.075132705,-0.1470669,-0.9104058,-0.60233337,0.4095249,-0.37467775,-0.80030304,-0.92396885,0.8719283,0.7408026,0.45742157,0.07347233,0.91882515,0.24350926,0.7842338,0.55970883,-0.07118178,-0.52488357,0.4777948,-0.9662687,0.09141916,-0.34167162,0.11605443,-0.74758834,0.6268256,-0.5276712,-0.9378807,0.96421015,-0.6853685,0.23590368,-0.79602695,-0.81586677,0.44195732,-0.10925454,0.05185806,-0.35560977,0.16239122,0.1190374,0.6943187,0.7439023,0.73989093,0.59108156,0.86026484,-0.61216074,-0.7048022,0.79901576,-0.1150667,-0.68210256,-0.10978548,-0.250199,0.23592609,-0.31358293,-0.9203898,0.013481582,-0.9209351,0.8140787,0.34614837,0.80157286,0.71517575,-0.955604,-0.21869826,-0.9315611,-0.57392085,0.347308,0.6479327,0.7639192,0.966279,-0.9748982,-0.9014022,0.05133148,-0.8541637,0.30305892,0.2664752,-0.13863808,-0.65724987,0.39331985,0.5101827,0.12304188,0.12054977,-0.14964472,0.26266947,0.055385653,-0.9018437,0.3787905,0.8403462,-0.7661517,-0.8448313,0.23491673,-0.7005082,0.15434231,-0.54561526,0.4074475,0.96264106,0.63145554,0.7287888,0.9241967,0.9557928
-0.6799397,-0.48576933,-0.4782952,0.077062465,-1.3260946,-0.04209336,-1.1024636,0.16103256,0.5379329,0.122104414,-0.35003722,-0.3290668,0.64228064,-0.58870107,-0.17440516,-0.79412746,-0.95281106,-0.99346805,-0.8085548,0.14250076,-0.85872763,0.1684722,0.3621864,-0.2606749,-0.99020064,-0.7748883,-1.8363111,-0.9797636,0.49745253,0.6362487,-2.3067696,0.41651347,0.73444545,-1.4347357,-2.0809095,-0.40990573,-0.87310106,-0.3096997,0.22671156,0.4738373,-1.4652113,-0.59979403,-0.57181424,-0.30232987,-0.041972414,-0.7250308,-0.6554808,0.7505781,-0.40745324,0.34000304,-0.49725294,0.2978471,-1.3527806,-0.036133938,0.66027474,-0.5531808,-1.0192052,0.39176428,0.53747433,0.6737295,-0.05185303,-0.34855402,-0.22577685,0.4302372,0.52202004,-1.1564331,-1.388549,-1.1235306,0.46686554,0.1886129,-0.534109,-1.157295,-0.081348635,-0.10324127,0.55188227,-0.49295178,-1.1737672,-0.45980352,-0.22162728,-0.9703473,0.68116707,-0.6868193,-1.7249111,0.29511815,-1.3803896,-0.9825876,-0.6519702,-0.16882455,-0.6010244,-0.25317776,-1.1627873,-0.54455495,-0.96053237,0.28663197,-0.72875726,0.6957678,-0.98768497,-0.443003,-0.5115409,-0.20588624,-0.11918167,0.5364843,-0.6937477,0.22640873,-1.0305283,-0.4732864,0.46184516,-0.2021318,-0.5184623,-0.6565454,0.04496758,0.025223246,-0.45467588,0.74552375,-0.2679026,-0.15484734,0.3864406,-0.76315445,-0.49517405,-0.86132276,-0.9769528,0.6853208,0.5750988,0.1407714,-0.56474817,-0.056137037,0.03504406,-0.13863458,-0.5348894,0.5538671,-0.4266587,-1.0040569,0.95752895,0.36630532,-0.3765263,-0.3031379,-0.525636,-0.432924,-0.93643034,-0.6285219,0.51462096,-0.40291956,-0.2780233,-0.4626626,0.44767186,-0.4726536,-0.4879171,0.53063345,-1.0160689,1.1498358,-1.3958232,1.8271006E-4,0.05443559,0.34124598,0.64643914,0.88043934,-0.5904805,0.26229164,0.5113218,0.28462368,-0.08316718,0.13678141,-0.7137326,-0.6855019,-1.1579243,0.012557962,0.7728584,-0.85679185,-0.35299727,-1.2499543,0.7232912,0.08328063,-0.44006133,1.1615908,-0.18800715,0.11215507,-0.29210722,0.10786969,0.8111332,-0.4233309,0.6338852,-0.7129379,0.29263574,-0.19635577,0.22551261,-0.020089108,0.22035986,-0.87272143,0.27936503,0.5406821,-0.9697601,-0.9671062,-0.17488994,1.1515805,0.39347473,-0.60672116,-0.15705329,1.085979,0.041222915,-0.17028673,-0.41855466,0.31690082,-0.36650255,0.91245604,-0.30657795,-0.42955384,-0.19075833,0.73647213,-0.08914906,0.8199858,0.81236863,-0.86194634,-0.3389212,0.6444586,0.59948546,0.69230074,-0.10731157,0.111989275,0.082013555,0.84447515,0.47492322,0.05497365,0.120185286,0.22498967,-0.22987145,0.4338628,-0.3959424,0.8735356,0.72426844,0.98001647,0.16583659,0.95602643,-0.86573464,-0.73848623,-0.94877833,0.62199515,0.7071315,0.081856415,-0.053360123,0.8992772,0.19432932,-1.0658239,-0.02487332,-0.306897,0.12277298,-0.5123428,0.23143728,-0.8702444,-0.60534936,0.6562516,-0.70537955,-0.071446,-0.035550203,-0.14231087,0.628346,-0.40714568,-0.63967407,0.28615874,0.014192623,0.41442183,-0.27494884,0.48759928,0.9383646,-0.7997844,0.08226781,0.06895306,-0.6274033,-0.71067566,0.83409756,-0.6167056,-0.9755139,0.8880223,-0.92172134,0.087933674,-0.30770305,0.96916914,0.536437,0.9501592,0.36012185,-0.89661163,0.4023192,0.31925964,0.10184611,0.25216338,0.50513625,-0.46371686,0.7262739,-0.89663595,0.36981818,-0.10352592,-0.9362535,0.750567,-0.6975854,-0.9282462,0.26885512,0.0061958954,-0.14565592,0.2809449,-0.8797227,0.6295645,0.090047225,0.24967006,-0.10591264,-0.10305884,0.20561942,-0.7083137,-0.063886,0.41283596,-0.3460061,-0.7823714,0.503797,0.12270696,-0.21141486,-0.98557234,0.47700292,0.9401023,-0.98222053,0.49253708,0.008993396,0.623889,-0.891863,0.60836864,0.667292,-0.37733424,0.39215127,-0.5141187,0.721781,0.73041576,0.84854645,-0.6487052,-0.14282855,-0.12736568,0.62827736,0.70089185,0.30130014,0.50846946,-0.22875792,0.8974831,0.94034797,0.0114262495,-0.6778642,-0.86564463,0.2557472,-0.012119641,-0.86439574,-0.28920922,0.61529076,0.8451274,-0.6143802,0.99301946,-0.2330619,0.26768452,0.56004417,0.6685734,-0.53559184,0.37924713,0.64168704,-0.25889954,-0.43989348,0.93836135,-0.45411763,-0.59901893,-0.6187412,0.20415263,-0.6193846,0.15786843,-0.926964,0.7354976,0.4251522,-0.51452523,-0.6787422,0.8045357,-0.5739609,0.31272694,0.35815105,0.928387,0.10547648,-0.991047,-0.49440885,-0.52118003,0.74445623,0.46354303,-0.9813461,-0.67001706,-0.89379394,-0.43521377,0.20809403,-0.9327726,0.033433385,0.121290036
0.23001093,-0.7461736,0.03368866,-1.056362,0.16064425,-0.16359761,-0.19676675,-1.08572,0.4613487,-0.8094798,-0.25911665,0.0099179875,0.08124734,-0.0056027663,-0.657417,-0.9780516,-0.15742002,-1.1670285,-0.77072686,-0.49110883,0.013481588,0.12007189,0.023158468,-0.5115369,-0.8968514,-0.5183651,-0.89791095,-0.70073134,0.0077028414,-0.26735246,-0.17952657,-0.15249953,0.40297168,-1.1714944,-0.82414424,0.6576428,-0.80261093,-1.1748439,-0.5320707,-0.6750583,-1.2615014,-0.11009796,-0.12268353,-0.99605787,-1.0404987,-0.7862488,-0.701934,0.40734062,0.37886006,0.30912206,-0.14049588,0.5666319,-0.6006896,-0.025546193,-0.29831463,0.6475543,-1.0556598,-0.6069204,-0.28876048,0.105009556,-1.0182861,0.54761857,0.40330368,-0.28110075,-0.8905716,-1.4840802,-0.30204153,0.65592766,0.9481027,-1.0868368,-0.41772375,-0.5476505,0.097825006,-0.21763754,-0.5576133,-0.31356615,-0.22685498,-0.21872054,-0.7586693,0.35613325,0.5011541,0.2927855,0.3818394,0.043709546,-1.101102,0.5115646,-0.5163989,-0.50272775,-1.1661371,-0.058914077,-0.59849256,-0.7787314,0.37279916,0.23907527,-0.78614867,-0.9051915,-0.5841985,-0.40266824,-0.32636678,-0.2870426,0.679426,-0.401113,0.64694667,-0.49605304,-0.76927006,-0.92345494,0.09035245,0.40881306,-1.3838364,0.3220665,-1.164246,-0.53546304,-1.397048,0.15889937,0.512675,-1.1467597,-0.5635262,-1.1781371,-0.60147977,-0.39716125,0.6217145,-0.06392532,-0.7278872,-0.12696372,-0.98340213,0.5539843,0.561008,0.6726323,-0.06053421,-0.9782763,-1.1283733,-0.8440609,-0.95365304,0.28574014,-0.9549593,0.26677108,-1.3403704,-0.12618004,-1.1969507,-0.4333764,0.3625965,-0.9142623,0.46378946,-0.9375714,0.065678105,-0.18285717,-0.1356114,-0.10161787,-0.121454805,0.021064676,-1.0025351,-0.32944155,-0.30168605,0.10233528,-0.06516414,0.5157502,0.07774331,0.8382526,0.16692598,0.5175685,-0.35766423,-0.66470706,-0.63200223,0.4837589,-1.0160035,0.7970229,0.798048,-0.44113648,0.22121699,-1.0740224,0.4671095,-0.36393297,0.9997956,0.63102645,-0.3067963,-0.86720693,-0.04568243,-0.34375563,0.7995243,-0.87806195,-0.05198806,0.17027895,0.70539683,-0.13480882,-0.66212183,0.33432665,0.6165774,-0.17548913,0.38580894,0.6764859,-0.9882114,-0.37902218,-0.32616267,0.1251196,0.398662,-0.19867863,0.6703809,-0.0033199748,-0.19842546,-0.39849165,0.09307526,-0.47722203,-0.8173249,-1.0067033,-1.0148846,-0.43466517,-0.49261248,-0.032823883,0.7638223,-0.001398669,0.59259206,-1.0424544,-0.36891308,0.4935251,-1.0259854,0.090381056,-0.10268255,0.042711526,0.26885137,-0.7807193,0.4062789,-0.8660132,0.50950557,0.5008099,0.9605814,-0.6666659,-1.0763156,-0.56766367,0.529797,-0.40817687,0.8621526,0.72337955,0.2948684,0.15534864,-0.17744961,0.5094489,-0.97744834,0.4720034,-0.80578774,-0.5052796,0.2595254,-0.028865049,0.90210485,-0.5684756,-0.56934863,-0.8990991,0.5346121,0.28307405,0.4284118,-0.6086831,-0.065019116,-0.46229315,-0.7454952,-0.116050266,0.6656863,0.89772576,0.5290633,-0.030895831,0.19900835,0.1985041,0.90109307,0.3113943,0.8712287,0.71908104,0.5304757,0.86767215,-0.6135616,-0.23360771,0.451403,0.9679807,0.37165925,0.5172687,0.96595234,0.44200405,-0.9540987,0.4920381,-0.33501562,-0.907314,-0.6402013,-0.24882644,0.5516094,-0.9652736,-0.19149993,0.9568102,0.70545727,-8.608492E-4,-0.33092895,-0.9362513,-0.018760508,-0.0024356584,0.38812953,-0.14288591,-0.104807004,0.55769837,-0.042129885,0.3674435,0.6817756,-0.19374715,-0.6213293,-0.19086224,-0.50157857,-0.6568522,0.022158073,-0.8045921,0.35493997,0.5801537,0.1981463,-0.7693991,0.04451098,-0.86522704,0.050533943,0.6911453,0.20196317,-0.97502893,-0.057312015,-0.69713783,-0.5664093,0.084103286,0.86725867,0.64059275,-0.04301956,0.50824046,0.15475228,0.10176187,-0.006571485,0.17429185,0.68382215,-0.5586815,-0.022573715,0.87255824,-0.58932716,-0.53172886,-0.8382219,0.26206207,-0.24536422,-0.9206497,0.039540187,-0.5519537,-0.8372738,-0.77070326,0.74630016,-0.8776456,-0.9916588,0.12530537,0.82081616,-0.5992095,0.7216473,0.29011568,0.5546311,-0.82988447,0.5382035,-0.021069633,-0.92893237,-0.2707654,-0.7509053,-0.39835894,-0.46353024,-0.9060472,0.28123465,0.2731532,-0.9687081,-0.03211118,0.7217438,-0.5825816,-0.17700176,0.79344606,0.5714604,-0.44707957,0.44028553,0.8439525,0.5717385,-0.6992584,-0.7182239,0.3781283,0.6904484,0.38238084,0.44119883,-0.96974355,-0.37757,-0.026179021,-0.5879605,-0.704335,-0.2913898,-0.13122545,-0.9032713,0.46459964,0.6620047,0.56755686,-0.8965256,0.34473184
1.0345883,-0.045498222,-0.16084519,0.16225754,0.71973175,-0.36459124,0.28199443,-0.6128503,0.1919117,-0.1059816,0.8889487,-0.106069036,1.3698958,0.45170662,-0.5310173,-0.2551708,0.23607607,0.009063228,0.9206794,0.5114081,0.023610331,-0.5129447,0.3287211,0.52058995,0.5119697,0.7390203,1.8531188,-0.6679552,0.7722145,0.13985321,2.299648,-0.35673803,0.1514836,-0.310111,2.3745883,-0.06558318,-0.85599005,-0.64214206,-0.9076255,-0.19078843,2.0744073,-0.78744453,-0.04667951,-0.6677141,0.49430025,-0.7249802,1.7339604,-0.24405195,-0.42716798,0.19094728,0.38038734,-0.8813144,2.668289,-1.291694,0.20895483,-1.648877,-0.56501937,0.4792728,-0.1536024,-0.5041935,1.2516489,1.1319013,0.5708947,0.24894787,-0.6447798,0.9074108,0.56280386,-0.501113,-0.9790924,0.23513724,0.90398407,-0.4306102,3.520651,-1.5696379,0.29981217,0.5280006,0.95282006,0.4754712,2.1276124,0.24474613,-0.447287,-0.02106999,2.199314,1.2520684,0.86217934,1.2757851,-1.7020289,0.7087195,0.17901932,-0.11233645,0.45046082,-2.4950469,-1.7655772,0.57605207,1.1452546,1.2281208,-0.38212284,0.59451246,2.0574563,-0.94624096,-0.3711254,0.43072098,0.5566374,-0.67438716,-0.5067328,1.0850619,-0.31434575,0.7630788,0.29471123,-0.70571685,-3.265067,0.61689264,-0.14952266,0.3756955,0.038709614,0.042777803,0.5467872,-1.5555499,0.81551826,-0.10151768,0.68622434,-0.6741309,0.24730727,-0.78248286,0.8254829,-0.6308025,0.07338534,1.2339823,-0.50322574,0.9579663,1.3343782,-0.74569774,-1.0310361,-2.4645686,1.2402546,-1.0083888,-1.3101071,1.0300777,2.0884888,0.34749725,-0.91719127,-1.8467548,-0.0033674536,0.30963024,1.413069,-0.26453316,-0.12792109,-2.1965778,-1.2194391,-1.0425959,0.76322234,-1.3875544,-0.75902516,0.58158344,0.34856373,0.7280483,-0.538235,-0.72223735,-0.32924938,0.3867006,-1.3460907,-0.44602546,-0.4014508,-0.10799576,-0.87818104,-0.88104564,0.20610696,-1.2493488,-1.0394214,1.670355,-0.2555996,-0.94248235,0.8376044,-1.4821435,-0.1183896,-1.1562356,0.833683,0.20855801,-0.3387287,-0.42809135,-0.9790901,-0.40348786,-0.9312346,-0.81013,0.34038883,-0.63169354,-1.0827309,-0.9772957,0.20879258,0.64455116,0.78505117,1.0173243,0.8718963,-0.29927912,0.3834597,-1.1454598,-0.8586405,-0.8272569,-0.8567945,-0.48153833,-1.4161934,-1.3634856,1.1656641,-0.05543021,-0.30444312,-0.16287534,3.4075268E-4,0.5259964,0.18632315,-0.0438147,-0.69085896,-0.5482229,0.34829155,-0.11920403,1.1127546,0.43587145,0.06519268,0.99599594,0.82000154,-0.18178616,-0.8395986,0.119691946,0.45394018,-0.9589215,0.7662482,0.07590122,-0.7631572,-0.2454722,1.1259675,0.6118729,0.83277625,-0.96263105,0.2222739,0.17998616,-0.54122716,0.21639206,-0.39447823,-1.4265956,-0.84921473,-0.49508974,0.14223988,0.81017345,0.3852469,0.69680446,0.92409706,-0.3025435,-0.16971354,0.29668537,0.3410799,-0.8537578,0.35408226,0.31491995,-0.5225099,0.021724299,0.88560784,0.07231289,-0.6166669,0.53534055,0.14529473,-0.031727556,-0.50771505,-0.9209426,-0.17520905,-0.8193796,-0.9752414,0.7200658,0.71011573,0.89151645,-0.54750603,-0.22719803,0.5022933,-0.39396867,0.6257454,0.61815476,0.2669152,-0.89176446,-0.023973975,-0.9005106,-0.64779437,0.22130188,0.46096355,-0.70780134,-0.11334269,-0.8650469,0.8893203,0.5750493,0.69261605,0.6868179,0.045723114,-0.3991401,0.272883,-0.07326229,0.8789056,0.9842014,0.9406133,0.44552687,-0.9637899,0.7754443,0.54975283,0.52948034,-0.41306323,-0.9373075,0.7049611,-0.020331299,0.10347471,0.5332553,-0.47210243,0.09307676,-0.42409244,0.2426104,-0.31508654,0.8150215,0.823991,-0.16535577,-0.115727395,0.093227185,0.9091607,-0.21713464,0.47503588,0.8004008,0.50329727,-0.64728516,0.25853363,-0.5783763,0.75621206,0.34767506,-0.36251637,-0.6360423,0.14028035,-0.3608125,-0.93001556,0.035570227,0.22051932,0.22211954,0.50496745,0.23177522,0.5525597,0.57261044,-0.57785153,0.08677767,-0.6831787,-0.39392233,-0.084769756,-0.13492772,0.36029285,-0.3396217,-0.69859076,0.85357827,0.56886816,0.3081906,-0.71132773,0.44865113,0.92978066,0.7807714,-0.46144503,-0.7843259,0.40267524,-0.8590524,0.7072721,0.5998711,-0.5656154,-0.23431575,0.12029413,-0.2561117,0.7474989,-0.74589753,0.2037319,-0.8032383,0.43961993,-0.5254838,0.6711911,0.16314699,-0.500226,0.87703806,0.46729767,-0.90393203,-0.39533877,-0.14698018,-0.95036405,0.6723345,-0.9124743,0.76503974,-0.1056044,0.85597956,0.35871443,-0.9700746,-0.21362458,0.03588699,0.0338449,0.47072747
-0.8139188,-0.1668024,-0.5184802,0.34756652,-1.7113543,-0.32860896,-0.14180826,-0.26289016,-0.80070305,-1.0852243,-0.36751294,-0.16214508,-0.28051254,-0.4739664,0.30524826,0.025377817,-0.13234465,-0.8110568,-0.88026714,-0.5420533,0.09611622,0.40847826,0.09134534,-1.2516471,0.026393639,-1.0632463,-2.5540037,-0.6961067,-0.36656207,0.72881985,-1.6000711,-0.16856019,0.617505,-1.5966654,-2.144947,0.5020154,0.9988941,-0.9888345,-0.031206073,-0.22633842,-0.34980452,-0.8503199,-0.76965505,0.77004844,-0.8318595,0.8345752,-2.449685,1.0678511,0.5923789,-0.8058466,-0.89082223,-0.4758867,-0.85218304,0.1433093,-0.3132837,-0.8083685,-0.86346483,-0.6931984,-0.19290556,-0.532069,-0.090240635,-0.33398938,0.28022182,-0.7797416,0.17891397,-2.673568,-0.56578034,-0.89919925,-0.23236725,-0.24749023,-0.4760636,-1.0753107,-0.46828818,0.6810537,-1.3408394,-0.45176256,-0.7047455,-0.9003029,-1.8546153,-0.8134474,-0.40945172,0.35799664,-0.54145545,-1.0285219,-1.3064805,-1.6810704,-1.6636466,-0.6464433,-0.54709536,-0.7010227,0.22272724,0.57980853,-0.074772686,0.6134557,0.103613295,0.7772904,-0.515448,-0.89724624,-1.3636581,0.11085287,0.5114491,0.25422823,-0.9033666,-0.56706274,-1.4076167,0.14604904,0.46589386,-0.37373814,-1.0150523,-0.6578133,-1.685456,0.13702786,-1.0714273,0.105271675,-0.82514775,-0.31235424,-0.19140963,0.80546606,-0.63083035,0.33329284,-0.7529343,0.26140085,-0.014483142,-0.8899023,-1.0243833,0.9357434,0.28236765,-0.28850925,0.015347896,-0.061471857,-0.119704135,0.94083256,0.71866614,-0.068547994,-1.169009,0.28265926,-2.1964507,-0.9311304,-0.7895991,0.025349217,0.9258788,-0.052786164,0.10256284,-0.6237282,-0.32588047,0.33503172,-0.7893216,-0.93833864,0.56903046,0.98541427,-0.7957176,0.7448191,-0.8221915,-0.93681556,-0.7404128,0.10458597,-0.20253931,0.441027,0.40213022,-0.52270526,-0.57321715,-0.05377144,-0.21137445,-0.19166629,-0.33435556,-0.23033819,-0.6195905,-0.58795244,1.0461237,-1.5273925,-0.3238402,-0.84240764,0.20233665,0.48747018,-0.52045226,-0.41041744,-1.1665508,0.40366185,1.1377501,-0.6459645,-0.42365262,0.119072154,-0.065007836,0.8120908,0.76312065,0.61585546,-0.29792145,0.40155244,0.8488998,0.021181729,0.01887267,0.010508912,0.9827345,1.3714359,-0.8956556,-1.0362579,-0.10477516,-0.35548246,0.21915011,-0.2613938,0.26393437,0.7517429,-0.5263741,0.7506808,0.41636616,0.48493284,-0.27507138,0.8509858,0.09219646,0.014629057,0.5681212,-0.27156165,0.585974,-0.24714881,0.19095922,-0.14457475,0.29856256,-0.3714109,0.89399,-0.25591695,0.45373937,-0.7959712,0.6410247,0.12823746,0.009277149,1.1559415,0.30015224,-0.7580273,-0.22857577,-0.5508853,0.10406972,-0.47112605,0.6781651,-0.925319,-0.1247343,0.54606575,0.46987423,0.94048905,-0.2189908,-0.33765873,-0.21333557,-0.46644866,-0.9924303,-0.34206262,-0.075868726,0.9546668,-0.6469601,-0.46671554,-0.089627676,-0.52419245,-0.18545394,-0.25704557,0.55663925,-0.54233885,-0.20389113,0.08333913,0.7455029,-0.67553383,-0.6494658,0.48752153,-0.26055038,0.014738569,-0.74064326,-0.43370324,-0.41530707,0.07284123,-0.59906125,0.5543584,-0.09845609,-0.020829886,0.92107004,-0.33996257,-0.12227266,0.18595769,-0.47629026,-0.08848672,0.36484602,0.023638928,0.8762914,-0.87958413,-0.001910236,0.2855939,0.25010568,-0.14114316,-0.9453834,-0.2584209,0.82452136,0.30098814,0.017633604,-0.55952597,0.5834741,-0.34473693,-0.5192668,0.5887146,-0.61828583,-0.32171693,0.4937166,0.9411799,0.017568754,0.36487392,0.44136953,0.16964827,0.036003873,0.3959471,0.45237136,-0.5265791,-0.5389878,-0.6657661,0.90450984,0.51416165,0.49172533,0.9435848,-0.8948096,-0.23270221,-0.29397875,-0.73755574,0.31482795,0.85108966,0.69847566,-0.9672455,0.9751873,-0.51633847,-0.58607334,0.24519657,-0.10226515,0.28245017,0.7989674,-0.10993421,0.44303548,-0.42817035,-0.8327573,-0.12084411,0.9987723,0.76349515,-0.31780407,-0.22722189,0.8059015,-0.27335972,-0.9084711,-0.5643385,0.1619681,-0.0032521915,0.53170997,0.45100054,0.63602304,-0.37594733,0.10860878,0.059543345,0.1512288,0.33763337,0.67042935,0.5670609,0.6177919,-0.78430116,-0.60157,-0.9694746,-0.9611169,0.04988308,-0.4893452,0.5198447,0.73408633,-0.24586521,0.7016179,-0.956956,-0.7780838,-0.4584124,0.7761898,-0.020137157,0.31763026,-0.23466012,-0.17860436,-0.21139173,-0.47504124,0.77741927,-0.13155167,-0.5051182,0.3104304,0.6485591,0.130858,-0.3337952,0.6964129,0.8318625,-0.43538585,0.37021962,-0.25329468,-0.9776578,-0.13876326,-0.0559874,0.7403315,-0.91817546
-0.03335765,-0.8137492,0.33935085,-0.24724033,-3.9773877,0.60193175,-0.8744089,0.33958516,0.38958988,-4.355113,0.3657246,-0.89015067,-0.17477974,1.6778605,1.2712941,-0.2645321,-2.8637402,0.13551739,0.48486942,-0.15431532,0.5724694,2.2270725,-0.15769607,-3.2096515,-2.6170752,-0.78540784,-3.008101,-0.19804475,0.18347144,0.67901814,-2.2698648,-0.86772573,0.67355305,-5.95329,0.48391193,0.6952136,0.13742551,-0.046848048,0.75536007,-0.34014985,-1.7567766,0.63800573,-0.2117268,0.704332,-0.72827536,0.38528398,-2.7006037,-0.28684592,-0.6606676,1.6328689,-0.43162507,0.60785526,-6.8400817,2.4177587,-0.933377,-0.71743405,-1.1388706,0.24009506,-0.74109757,-0.9505824,-4.200043,0.14875293,-1.3006473,1.5683471,3.4714649,-3.352984,-1.3324627,0.4363668,0.5777027,4.5648384,-1.0986857,2.5181816,-3.8757682,0.023180313,-0.66040844,2.2317648,-0.0026923015,-1.4297163,-4.3388057,1.224085,1.6965165,1.5300006,-5.864307,1.4298685,-3.0938652,-0.7868754,-2.471668,-0.91984534,1.0236517,0.5525173,1.7513713,-1.273033,-1.1721345,-1.374451,-1.3159535,-1.324608,3.8520408,1.0373932,-2.5037377,2.0894372,-0.07215228,-0.99996346,0.23047157,2.463009,-1.6320698,0.6633059,-0.0976358,0.07892357,-0.13762273,-1.6833252,-1.4173441,-3.781738,0.20679292,-0.4872358,-0.010054451,0.50112855,1.4660414,-3.0484424,0.13082463,0.2504765,-0.9886093,3.741596,0.8925398,-0.15100618,-0.9823075,0.9749588,-1.2495197,0.11476669,0.017560532,-0.35804117,-0.42625487,0.71924317,1.0015545,0.53514504,0.4128712,0.22400582,1.5196611,-0.59026897,0.33126932,-0.37844214,0.8250709,1.6416985,1.5163989,0.70875144,1.3957862,1.3413267,0.43014145,2.2203448,0.3128905,0.7697704,1.2770796,-0.042228535,-0.32413903,-0.3192103,-0.7170105,-0.928999,2.0058262,-0.71328866,1.9096987,-0.73790056,2.1635199,0.81146604,-1.07248,-0.45060503,3.6095707,-0.8212476,-0.78663677,-0.14716658,0.667349,1.6047709,-0.86186093,2.343599,-0.5869597,2.9021618,2.5827434,0.35306302,1.4862354,-0.13053237,1.0980021,-1.0155728,1.1122202,1.2406011,2.552571,-0.4255147,0.13248447,0.50122815,3.3915136,-0.46563986,-1.1634129,-0.09074422,0.5486542,0.5517866,0.5156504,2.1513815,1.645254,-1.7875131,-0.87412393,1.4299675,0.47042447,2.2633054,2.1841657,2.0945237,0.48822588,-0.49626797,-0.5582258,-0.08753902,0.3541313,-0.26191074,0.17629059,-0.24166518,1.0486456,1.0556616,-0.015215378,0.52272755,1.7810626,-0.37510446,-0.36552954,-0.8585878,-0.6073945,1.2269071,0.5375682,-1.2021219,-0.6731961,0.3951835,0.8734801,0.88949287,0.59580904,2.0518556,-0.65402704,-0.91507024,-0.5293281,-0.2700708,0.7606264,-0.22429202,0.16149402,0.16268332,-0.15670937,0.71262085,1.4977615,0.64941347,0.04011137,0.32542616,-0.25468674,-0.31028026,0.6910119,0.21706726,0.069522105,-0.31392774,0.15030918,0.76630074,-0.20954707,0.45109546,0.770071,1.5842389,0.2256598,0.57576734,0.8623013,0.46141145,0.14594574,0.4138057,-1.3534665,0.13407788,-0.6216746,-0.3804746,1.594638,-0.14970729,-0.9035077,0.052412834,-0.3645669,0.9437235,0.39081043,0.37815443,0.8252053,-0.48598275,0.85843676,-0.36168706,-0.17418803,-0.3971462,0.60001254,0.84847635,-0.27249482,-0.02975813,-0.39874864,0.16926712,0.1965216,0.57386106,0.3825753,0.8690221,-0.0064393724,0.21862,0.4695539,0.3934462,-0.4343733,-0.3835588,-0.4657013,-0.61287075,0.12552746,-0.21859147,-0.6109046,-0.19432779,-0.24984674,-0.19086319,0.67865926,-0.27818397,-0.6064753,0.31182843,-0.9526681,0.7233376,-0.28874305,-0.50334764,0.6927058,-0.29436707,-0.66655993,0.19845824,-0.89713496,-0.53785545,0.6094546,0.9873127,-0.019947108,0.025937323,0.6552987,-0.31629822,0.56622165,0.3832482,-0.2688693,-0.45449808,0.52955,0.18650788,0.46608225,-0.67914313,0.08188784,0.96582,0.0661156,0.97744393,-0.6242558,0.31412545,-0.33173653,-0.6369583,-0.52711964,-0.07907525,0.81972235,0.55382955,0.20218007,-0.23051566,-0.0420625,-0.8341309,0.05257424,0.7910204,0.45658755,0.6695277,0.5448196,-0.13070339,-0.5472995,-0.4928768,-0.7360306,0.15411443,0.9979563,0.7170354,-0.37922817,0.9170655,-0.66760594,0.86465037,0.006723271,0.0054900204,-0.6527585,0.5019848,-0.4032797,-0.5041383,-0.9897306,-0.7147222,0.17440398,-0.8657359,0.23188624,0.41613546,0.46729568,-0.26830256,-0.5884982,-0.13908291,0.97276664,0.68599194,-0.22414057,0.009990584,-0.6677559,-0.7947096,-0.83609146,0.022865875,-0.7514331,-0.362933,0.13702646,-0.9435636
-0.5398051,0.25737718,-1.0662315,-1.2575371,1.1408653,0.16467884,0.24125016,0.5775674,-0.31428757,0.8398986,-0.10157583,0.50297105,-0.012007577,1.2434019,0.56321657,-0.4267326,-0.69782996,-0.5237106,0.1826039,-1.2194017,-0.53488976,-0.7655374,0.25199854,0.73626256,0.3254734,-0.37372646,-1.5411991,0.40491116,0.86812776,0.060126726,1.0130982,-0.86079913,-0.8316816,0.5561296,0.15564165,-0.9310975,-0.8451339,-0.9563348,-0.7787589,0.8954802,1.1509768,-0.8774894,0.1315193,-0.1261434,0.8314893,0.33908752,0.38598952,0.018800627,0.21481779,-0.16246283,-0.24535699,0.68281543,0.030186212,-0.90703887,0.14267632,-0.15195018,-0.26023763,-0.040101014,0.13450792,0.776164,-0.36389026,1.1982694,-0.6015102,-0.1747317,0.17574245,-3.669067E-4,-1.4910754,0.9088046,0.12942249,-1.3421531,0.028923184,0.7678935,0.0502057,-0.29569408,0.93590254,0.7335013,-0.49299443,0.279169,0.6123423,-0.16906658,-0.18292068,-0.39820373,-1.6627945,0.36203995,1.4819127,0.45492142,0.2334815,-0.007667963,-0.7627971,-0.8361666,-0.045867346,-0.6946166,0.68721765,-0.023250956,-0.18409431,0.30067042,-0.017634587,0.22099009,0.5656719,-0.08293475,0.22876187,0.5183913,0.3346049,-0.96192753,-0.05770197,-0.23865391,0.45120463,0.73013425,1.1768639,-0.44358686,-1.0989825,-0.496892,-0.11891074,-0.20846587,0.03344767,0.72991264,0.023218974,-1.7699777,0.12809798,0.6394919,1.071684,-1.7574385,-0.11793763,0.28807926,-1.1592317,-0.5514391,-0.22863898,-0.5307772,1.1376419,-0.14495924,-0.61998516,0.45362857,-0.07718721,0.42156348,-0.5394476,0.6997562,0.666129,1.2110413,0.7940449,0.4323606,-0.6980566,0.3575791,-0.7219412,-0.53678405,0.80596626,-0.4265009,-0.5994129,-1.4605255,-1.1268147,-0.9565211,0.75006455,0.04609016,0.8924517,-0.87296504,0.44488457,-0.091619186,-0.3333015,-0.4098998,0.5437994,-0.50520897,0.58950686,-0.962636,0.20613134,0.07990088,0.97986406,0.9156971,-0.19933087,-0.746483,-0.4000994,-2.3063302,-0.7631576,0.21784256,-0.684746,0.23993343,-0.98193496,-1.0499386,-0.69052184,-0.8439126,-0.46720046,0.23291893,-0.7799533,-0.03447934,-0.48856416,0.87224823,-0.92009354,0.5618659,0.57999444,-0.7333939,0.28258148,0.38621858,-0.4854121,-0.11795961,-0.005110742,-0.6363315,-0.7050506,-0.8615363,-0.54149204,0.27303955,-0.44505432,-0.83810383,-0.2953899,-0.18307595,0.5792434,0.8790328,-0.6590676,0.90402097,-0.16260464,-0.71256167,0.9566971,0.42735395,-0.62377954,-0.45641434,0.8487176,0.65266967,0.024262678,0.5337046,0.060964357,-0.31796184,-0.7837908,-0.97733694,-0.19475017,-0.57020664,-0.7009411,-0.6959048,0.8898313,0.40444905,-0.29359132,-0.07470393,0.6484597,0.32900238,0.7892835,0.33017987,-0.9621609,0.09013395,-0.6509693,0.19782445,0.8102839,0.34660116,-0.67289597,-0.31822783,0.35119677,0.7349144,-0.35946545,-0.64885986,0.7501196,-0.021123633,-0.92801803,0.21533015,-0.22064066,0.32238007,0.4344815,0.33320895,-0.34695372,-0.24037302,1.0538306,0.33866432,0.5964852,-0.8498369,0.6811278,-0.12937269,0.08924272,-0.1799103,-0.68817425,0.40922713,-0.4807484,0.111729026,-0.57786673,-0.09358583,0.23685022,-0.04315172,-0.42970517,0.39318624,0.113722496,-0.5751047,-0.9804789,0.69271755,-0.71979266,0.67887855,0.5155668,-0.8105218,0.10662201,-0.1818672,0.004528695,0.33792138,0.326173,0.49187556,0.94310224,0.96470344,0.6613612,-0.21762948,-0.5792071,0.63535213,-0.31720102,-0.9722461,-0.78138095,0.347047,-0.020532586,0.5574422,0.05664667,0.23820119,0.71113676,0.8037764,0.074340776,0.042321585,0.80267763,0.7724846,-0.19773662,-0.41296223,-0.7205017,0.7314049,0.9176965,0.6713772,0.5712721,0.17961715,0.49664015,-0.7023152,0.3358857,-0.5412251,-0.23185976,0.3312846,0.45686227,-0.5372406,-0.3861857,0.13323976,-0.33113164,0.6131948,-0.9879199,0.85884523,0.23745258,0.432633,-0.46534443,0.94172007,-0.8256472,0.7323915,0.70197916,0.76809615,0.73188436,0.5656425,0.30697936,0.1042752,-0.66130173,0.6338537,-0.7906913,0.98045135,-0.043196205,-0.85936177,0.68910486,-0.6229541,0.1462551,0.76892537,-0.71385413,0.41258648,-0.5912339,0.8635611,0.8186632,0.99054414,0.5439805,-0.07369908,0.025531756,0.4774918,0.47572112,-0.48586604,0.42064822,-0.33195812,-0.43548888,0.34020695,-0.23425032,0.73031414,0.9409477,0.42739844,0.13721396,-0.37021583,-0.10763348,0.4992205,-0.63905597,-0.63166076,0.026432289,-0.6183215,-0.27432624,-0.8561974,0.7169002,-0.87220913,-0.10944941,0.011852599,-0.31659833,-0.17545602,-0.5578337,-0.3089596,-0.6497673,0.65169173
-0.9891632,-0.8576288,0.27742705,0.02646832,-1.2644492,-0.8630944,0.018618692,-0.1778169,-1.0563563,-0.17477497,-0.2919183,-0.43129516,0.40281132,0.26714134,-0.3969517,-0.28314042,-0.60284567,0.21832891,-0.64168763,-0.5281577,-0.24523348,-0.7484666,-0.9372726,-0.29271513,-0.7282627,-0.8228283,-1.4442912,-0.8325044,0.36856216,0.3731342,-1.1697654,0.86233455,0.26204714,-1.7537167,-1.2336441,-0.37282845,-0.5652595,-0.274124,0.24076669,-0.08070861,-0.5909208,0.25864556,-0.74825174,-0.48661798,0.42327937,0.5830508,-0.99028707,-0.8595057,0.048213374,0.4944788,-0.96298367,0.53985196,-1.6863209,0.49960047,0.5494974,0.039534856,-1.1065236,-0.31264415,-0.12907432,-0.9391076,-0.65294975,0.9155551,0.12163035,-0.67564815,-0.7905415,-2.0920782,-0.7137125,-0.9344143,0.74770117,-1.1843896,0.17209584,-1.0901746,0.29367065,0.4186445,-1.1697628,-0.26788062,-0.7521402,0.5218998,-0.5360321,-0.06699511,-0.42056563,0.5896305,-1.1504545,0.08645258,-1.5469722,-0.89229745,-1.6480777,-0.039983258,-0.377568,-0.3164756,-0.14147417,-0.99086183,-0.59811616,-0.120076254,0.34799334,-0.98434514,-0.5509777,-1.0668184,-0.36455593,0.7299443,-0.321469,0.07668284,-0.46405777,-0.8418367,-1.1672021,-0.92831224,0.27895403,-0.6800772,-1.4168854,0.069704816,-0.5956303,0.25084043,-1.7666141,-0.5586542,-1.0817751,-0.08252463,-1.1394479,-1.3037862,-1.385348,0.1861057,-0.22943299,-0.17091896,0.028700951,0.5490309,-0.5575253,-0.9859599,-0.1596696,-0.15702647,-0.21695317,-0.14562324,-0.11766605,-0.41974112,0.39128184,-0.15200329,-0.5054399,-0.014711983,-0.18444632,-0.6811469,-1.2077693,0.28043857,-0.50393796,0.080330275,-1.1685194,-1.4311031,0.011768603,0.7129728,0.1576073,-0.8896059,-0.68044496,-1.3937551,-0.46208146,-0.7232517,0.62504685,-0.21743754,-0.564282,0.28921753,-0.041679177,-0.06784489,0.28139558,0.2094424,-0.37335256,0.32574326,-0.27615565,0.18926005,0.16309692,0.5587838,-0.3181274,0.6178481,-0.65697694,-1.2844737,0.1329198,0.6358693,0.098820485,-0.8987595,-1.0308224,-0.35942966,-0.81267464,0.7600767,0.74406254,0.07482723,-0.053952225,0.79174906,-1.054008,0.24861075,-0.76533717,-0.20088007,0.19323117,0.95913225,-0.34944206,-0.8303485,-1.0340886,-0.6958055,-0.025328329,-0.5706839,0.87851775,0.22830348,-0.38037676,0.44513127,-0.11928041,-1.1262239,-0.10128355,-1.1971381,0.4282469,0.80852234,0.39618212,-0.4656,-0.80712306,0.08043421,-1.0168983,-0.17965724,0.2893391,-0.4085973,-0.37770697,0.44242033,-0.08637816,-0.102773815,-0.57430816,0.8697154,0.027414473,0.8992801,-0.9455989,-0.47319314,-0.3332231,-0.015990626,-0.35222667,0.5225392,0.6328848,-0.025165519,-0.52438575,0.5537629,0.8937495,0.41109237,0.17318787,-0.949615,-0.008220771,0.3567618,0.5917864,-0.0352308,0.7990308,0.19938618,0.6296349,-0.7107483,0.4701219,0.18911909,0.34190616,0.5510533,-0.72801614,0.5736369,0.17021766,0.2746658,-0.94485503,-0.66715515,-0.6495662,-0.16378348,0.6362965,-0.4202639,0.2569294,0.28860015,0.19245355,-0.904189,0.71011585,-0.99342334,-0.048764344,-0.34473974,-0.27422,-0.54238516,0.66975015,0.35693583,0.53995794,-0.058404513,-0.5336825,-0.8993316,0.97847986,-0.6550224,0.87292534,0.575523,-0.8775643,-0.6164598,-0.73660374,0.3262945,-0.12783512,0.5918211,0.12452195,-0.75332063,0.38238585,-0.94035506,-0.7064669,-0.68504596,-0.10949363,0.5099909,0.70838016,-0.7888133,-0.63030547,-0.4521648,-0.9820226,0.7074263,0.28928164,0.34864238,0.04591153,0.9197037,0.11671084,0.115583256,0.11575188,-0.52625984,-0.48083794,0.7692912,0.09294349,0.9706323,0.48677427,0.71060073,0.60307443,-0.27738985,0.872447,-0.36542386,0.8488213,0.04520181,0.35627192,-0.45238498,0.018487245,0.7917157,-0.046002176,0.6002048,-0.304329,0.43290573,-0.20149675,-0.41275665,0.9620236,-0.5281658,-0.1356233,-0.72439885,0.6631779,0.36260122,-0.44353473,0.13001579,0.58689827,-0.7884745,0.85867155,-0.22817163,0.5861849,-0.6355125,-0.7888581,0.042158898,-0.31548813,0.30070633,0.6913091,0.3677259,0.15790562,0.8007578,0.69140166,-0.3091223,-0.7420302,-0.95029867,0.55563277,-0.41569382,-0.48057577,-0.51061666,-0.027639879,-0.8256931,0.75089145,0.7721197,0.79831254,0.6237944,0.22207221,-0.28181878,0.3134583,0.86897796,-0.43942836,-0.3708176,-0.846241,0.20479184,0.17067645,0.96870893,0.61962664,0.9395727,-0.2783557,-0.7726148,-0.12340756,0.9284916,-0.9234795,-0.6742782,-0.6197736,0.8214631,0.022625204,-0.029548647,0.133624,0.33188,-0.49427006,-0.99599326,0.8798214,0.26373804
-0.4063805,-0.5894187,0.07327746,-0.88527876,-0.5163244,0.006332155,0.44718602,-0.25346228,-1.1223092,0.16053922,0.19430405,-0.6242611,-0.417878,-0.26837456,-1.1090965,0.24257344,0.5618119,-0.94475377,-1.3197335,-0.9988072,-0.3530645,-0.10396539,0.35787636,0.75105584,0.28320992,-0.21691462,-1.6048688,0.2212651,0.03788577,-0.38684726,-2.1160846,0.43946156,-0.15340221,-1.2514169,-1.9781835,0.94889516,0.04947296,0.24387719,-0.09109102,-0.7867443,-2.064313,-0.6154689,0.026310073,-0.103033654,-0.0360183,-0.68666416,-1.8063924,0.21563564,-0.29995203,0.3495724,0.44234595,0.57464373,-1.7784233,0.1608805,-0.946168,0.6353859,-0.056791987,-0.7122776,0.19821042,0.47710618,-0.39451635,0.5277683,0.8658783,-0.8934286,-1.2353922,-2.9683673,-0.8615757,-0.16417913,-0.10580686,-1.3361636,0.012162445,-0.23670687,-1.1009867,0.26806837,-0.1927745,-0.54683757,0.079294324,-0.78778476,-0.798406,-0.85921323,-1.4497066,-0.27803007,0.14182854,5.51031E-4,-1.5444741,-0.75716215,-0.7720266,-0.40300018,-1.2830963,0.2842228,-0.59368867,-1.3643205,-1.3879206,-1.1304107,0.930532,-0.8448841,-1.4747142,-0.30664796,-1.0588833,-0.5188662,0.7240439,0.2055753,-0.74345917,0.033700038,-0.62532043,-0.7653571,-0.13281892,-0.83560073,-1.060814,-0.09139784,-1.5026904,-0.2745788,-1.7816899,0.38373867,-0.32992318,-0.2807723,-0.48523447,-0.68318367,-0.74126077,-1.1039759,0.13552049,0.43578434,-0.06342579,-0.94055855,-0.23725429,0.1187493,-0.18643712,-0.56385714,-0.35863116,0.57391,0.49672803,-0.9998869,-0.5974517,-1.2204353,-0.34750563,-0.32639632,-1.542272,0.2163915,-0.59524655,0.7767693,-0.3652289,-0.02747092,0.054746974,-1.8903879,-0.09949562,-1.1736403,-0.40020227,-0.44126526,-0.78237456,-0.20087992,0.5810828,-0.414263,-0.23340774,-0.40299773,0.47982952,-0.65817976,-0.19836356,-0.47627518,-0.45279378,-0.9151968,-1.326957,0.35909376,0.56067854,0.30105624,-0.59835815,-0.5021319,-0.92194444,0.48703903,0.36003542,-1.2223397,-0.98972875,0.18695901,0.26966056,-0.032324273,-0.6462957,-0.092995696,-0.9771138,-0.46823874,-1.058759,0.0634043,0.59606254,-0.9144778,-0.27207085,-0.24229541,-0.20746002,0.24052979,-0.11166943,-0.6812757,0.19964448,-0.27876514,-0.46598047,0.093458764,-0.64666164,-1.2512496,-0.9104549,-0.5791591,0.19444239,0.53769845,0.46784386,-0.99030846,-0.37525433,-0.038765706,-0.17939304,0.24405381,-0.7993145,0.47232875,0.95544195,0.2649133,-0.38448957,0.40196374,0.64020926,-0.92825454,0.4918298,-0.2747173,-0.20675525,0.35145015,0.18694432,0.2013181,-0.67785037,0.5287811,-0.37365103,0.32228258,-0.97056663,0.9072001,0.93382776,-0.00399449,0.57960296,0.45867363,-0.3254721,-0.18512237,-0.6383262,-0.5616251,-0.15841179,-0.61889964,-0.527651,-0.4202621,0.36147037,0.76957583,-0.95777214,-0.41340414,0.79233176,-0.10817289,-0.3393258,0.5529516,0.14844002,0.16721664,-0.14107491,0.44097504,-0.4619503,-0.43937507,-0.8735573,0.36101115,-1.0807973,-0.87877053,-0.2069128,-0.14146239,0.008095314,0.03349017,0.028530477,0.39093518,0.60173017,-0.2003308,-0.38685352,-0.30228022,-0.68915516,0.04135678,-0.61874944,0.84476626,-0.4740005,-0.88157237,-0.4816798,-1.0037575,-0.97584164,0.5426504,-0.46777058,-0.080502726,0.643152,-0.5910018,-0.0041012,-0.7093131,-0.33849412,0.15711139,0.8703367,0.28978658,-0.103698544,0.3051226,0.015314675,0.84695005,-0.78909636,0.6134283,-0.19610906,-0.38681254,0.39467135,-0.80292475,-0.28098756,-0.19847551,-0.4697816,0.42708963,-0.018863384,-0.5311837,0.42180982,-0.17708744,-0.21304214,0.086706795,-0.19963515,-0.40793687,0.8989816,0.13835731,-0.8479929,-0.2638379,-0.7757839,0.178619,0.47870663,0.33242804,-0.5977043,0.64161444,0.32964882,-0.06651465,-0.98846483,0.17684782,-0.28438216,-0.41516656,0.89287895,0.70581084,0.6432373,-0.674467,0.862906,-0.36270076,-0.21526349,0.14579289,-0.77629447,-0.1763342,-0.47262558,-0.12465925,0.57967275,0.16902184,0.09966812,-0.32890823,0.8257878,-0.84448856,-0.55142623,0.99291444,0.18808405,0.18890119,-0.67629534,0.3136868,0.5205005,-0.868942,0.22668695,0.04111508,-0.57686174,-0.66442645,0.17495662,-0.5174407,0.39798674,0.6759311,0.6704163,-0.5165116,0.5670693,0.6454318,-0.61386025,0.9013412,0.79761535,0.3917931,-0.5247676,-0.51437014,-0.866062,0.9086703,-0.20935524,-0.3177419,0.89814705,0.51257426,0.6037067,-0.44179246,0.42183733,0.5516001,-0.7019569,-0.40408134,0.84662294,0.95005274,-0.7227448,-0.28373453,0.5532649,0.33807218,0.045126155,-0.5969716,0.6824661,-0.75248474,0.22245906,0.021701887
