3.1067564,0.23225847,-0.0010623828,0.9716147,-3.056667,0.057112798,4.0617533,2.7454937,1.5442008,0.10821432,0.54554135,0.0733957,2.8283708,4.3681364,3.2414064,0.056785468,-0.015856441,0.09886293,0.34342474,5.0610037,-0.09852256,0.23280464,0.66809523,0.7160716,0.6847491,-2.2066498,-1.714202,0.4365403,0.6050536,-0.015045249,0.64236414,3.828723,0.731659,0.14531393,3.086585,0.9010968,0.45099488,0.28471145,3.7598672,3.6248353,1.2630631,-0.3758805,4.5287185,1.6217337,1.3006204,2.0887096,-0.19995743,2.1164663,2.9697032,1.2012849,4.910576,2.1270237,0.73583,4.000769,4.4352064,0.0926238,0.04911349,0.6525313,0.121064484,0.6907352,2.1209714,0.7095626,0.75058675,-0.6712766,3.9716206,3.5166144,-0.06001129,0.84030235,-0.21753408,0.89245456,1.1510442,1.1726747,0.925811,-1.4289296,1.6702766,1.068862,1.4256201,-0.19079338,0.8147706,-0.03129783
-3.2583332,-0.28119144,-0.08354905,-0.9143989,3.0909402,-0.020628376,-4.041057,-2.487073,-1.5506057,-0.5771712,-0.8575268,-0.08113708,-3.1508138,-4.5191636,-3.2881207,0.20436275,-0.22591041,-0.2695371,-0.7751974,-4.982956,0.08735868,-0.99684465,-0.8688932,-1.8641745,-0.74777496,1.9000249,1.383587,-0.69056904,-0.59954834,0.03195011,-0.7898466,-3.8616538,-0.5469422,-0.67362815,-3.0620446,-0.95797145,-0.56526023,-1.5231365,-3.7029889,-3.6636531,-0.079135,-0.0059091994,-4.6687427,-1.6728933,-1.2451556,-2.2536974,-0.0056925016,-2.3576849,-2.8675115,-1.6314752,-4.781186,-2.200642,-0.83812857,-4.21808,-4.431148,-0.33066195,0.23886403,-0.6877399,0.2411383,-0.047576066,-2.121543,-0.8846182,-0.62560564,0.60073113,-4.0455465,-3.5100102,-0.13816126,-0.6115935,0.15622325,-1.1106572,-0.44335026,-0.89385396,-0.8686817,1.5053897,-1.5231974,-1.8383452,-1.6920352,0.17986676,-0.30959657,-0.05301237
